tree
version=v4
num_class=6
num_tree_per_iteration=6
label_index=0
max_feature_idx=959
objective=multiclass num_class:6
feature_names=Column_0 Column_1 Column_2 Column_3 Column_4 Column_5 Column_6 Column_7 Column_8 Column_9 Column_10 Column_11 Column_12 Column_13 Column_14 Column_15 Column_16 Column_17 Column_18 Column_19 Column_20 Column_21 Column_22 Column_23 Column_24 Column_25 Column_26 Column_27 Column_28 Column_29 Column_30 Column_31 Column_32 Column_33 Column_34 Column_35 Column_36 Column_37 Column_38 Column_39 Column_40 Column_41 Column_42 Column_43 Column_44 Column_45 Column_46 Column_47 Column_48 Column_49 Column_50 Column_51 Column_52 Column_53 Column_54 Column_55 Column_56 Column_57 Column_58 Column_59 Column_60 Column_61 Column_62 Column_63 Column_64 Column_65 Column_66 Column_67 Column_68 Column_69 Column_70 Column_71 Column_72 Column_73 Column_74 Column_75 Column_76 Column_77 Column_78 Column_79 Column_80 Column_81 Column_82 Column_83 Column_84 Column_85 Column_86 Column_87 Column_88 Column_89 Column_90 Column_91 Column_92 Column_93 Column_94 Column_95 Column_96 Column_97 Column_98 Column_99 Column_100 Column_101 Column_102 Column_103 Column_104 Column_105 Column_106 Column_107 Column_108 Column_109 Column_110 Column_111 Column_112 Column_113 Column_114 Column_115 Column_116 Column_117 Column_118 Column_119 Column_120 Column_121 Column_122 Column_123 Column_124 Column_125 Column_126 Column_127 Column_128 Column_129 Column_130 Column_131 Column_132 Column_133 Column_134 Column_135 Column_136 Column_137 Column_138 Column_139 Column_140 Column_141 Column_142 Column_143 Column_144 Column_145 Column_146 Column_147 Column_148 Column_149 Column_150 Column_151 Column_152 Column_153 Column_154 Column_155 Column_156 Column_157 Column_158 Column_159 Column_160 Column_161 Column_162 Column_163 Column_164 Column_165 Column_166 Column_167 Column_168 Column_169 Column_170 Column_171 Column_172 Column_173 Column_174 Column_175 Column_176 Column_177 Column_178 Column_179 Column_180 Column_181 Column_182 Column_183 Column_184 Column_185 Column_186 Column_187 Column_188 Column_189 Column_190 Column_191 Column_192 Column_193 Column_194 Column_195 Column_196 Column_197 Column_198 Column_199 Column_200 Column_201 Column_202 Column_203 Column_204 Column_205 Column_206 Column_207 Column_208 Column_209 Column_210 Column_211 Column_212 Column_213 Column_214 Column_215 Column_216 Column_217 Column_218 Column_219 Column_220 Column_221 Column_222 Column_223 Column_224 Column_225 Column_226 Column_227 Column_228 Column_229 Column_230 Column_231 Column_232 Column_233 Column_234 Column_235 Column_236 Column_237 Column_238 Column_239 Column_240 Column_241 Column_242 Column_243 Column_244 Column_245 Column_246 Column_247 Column_248 Column_249 Column_250 Column_251 Column_252 Column_253 Column_254 Column_255 Column_256 Column_257 Column_258 Column_259 Column_260 Column_261 Column_262 Column_263 Column_264 Column_265 Column_266 Column_267 Column_268 Column_269 Column_270 Column_271 Column_272 Column_273 Column_274 Column_275 Column_276 Column_277 Column_278 Column_279 Column_280 Column_281 Column_282 Column_283 Column_284 Column_285 Column_286 Column_287 Column_288 Column_289 Column_290 Column_291 Column_292 Column_293 Column_294 Column_295 Column_296 Column_297 Column_298 Column_299 Column_300 Column_301 Column_302 Column_303 Column_304 Column_305 Column_306 Column_307 Column_308 Column_309 Column_310 Column_311 Column_312 Column_313 Column_314 Column_315 Column_316 Column_317 Column_318 Column_319 Column_320 Column_321 Column_322 Column_323 Column_324 Column_325 Column_326 Column_327 Column_328 Column_329 Column_330 Column_331 Column_332 Column_333 Column_334 Column_335 Column_336 Column_337 Column_338 Column_339 Column_340 Column_341 Column_342 Column_343 Column_344 Column_345 Column_346 Column_347 Column_348 Column_349 Column_350 Column_351 Column_352 Column_353 Column_354 Column_355 Column_356 Column_357 Column_358 Column_359 Column_360 Column_361 Column_362 Column_363 Column_364 Column_365 Column_366 Column_367 Column_368 Column_369 Column_370 Column_371 Column_372 Column_373 Column_374 Column_375 Column_376 Column_377 Column_378 Column_379 Column_380 Column_381 Column_382 Column_383 Column_384 Column_385 Column_386 Column_387 Column_388 Column_389 Column_390 Column_391 Column_392 Column_393 Column_394 Column_395 Column_396 Column_397 Column_398 Column_399 Column_400 Column_401 Column_402 Column_403 Column_404 Column_405 Column_406 Column_407 Column_408 Column_409 Column_410 Column_411 Column_412 Column_413 Column_414 Column_415 Column_416 Column_417 Column_418 Column_419 Column_420 Column_421 Column_422 Column_423 Column_424 Column_425 Column_426 Column_427 Column_428 Column_429 Column_430 Column_431 Column_432 Column_433 Column_434 Column_435 Column_436 Column_437 Column_438 Column_439 Column_440 Column_441 Column_442 Column_443 Column_444 Column_445 Column_446 Column_447 Column_448 Column_449 Column_450 Column_451 Column_452 Column_453 Column_454 Column_455 Column_456 Column_457 Column_458 Column_459 Column_460 Column_461 Column_462 Column_463 Column_464 Column_465 Column_466 Column_467 Column_468 Column_469 Column_470 Column_471 Column_472 Column_473 Column_474 Column_475 Column_476 Column_477 Column_478 Column_479 Column_480 Column_481 Column_482 Column_483 Column_484 Column_485 Column_486 Column_487 Column_488 Column_489 Column_490 Column_491 Column_492 Column_493 Column_494 Column_495 Column_496 Column_497 Column_498 Column_499 Column_500 Column_501 Column_502 Column_503 Column_504 Column_505 Column_506 Column_507 Column_508 Column_509 Column_510 Column_511 Column_512 Column_513 Column_514 Column_515 Column_516 Column_517 Column_518 Column_519 Column_520 Column_521 Column_522 Column_523 Column_524 Column_525 Column_526 Column_527 Column_528 Column_529 Column_530 Column_531 Column_532 Column_533 Column_534 Column_535 Column_536 Column_537 Column_538 Column_539 Column_540 Column_541 Column_542 Column_543 Column_544 Column_545 Column_546 Column_547 Column_548 Column_549 Column_550 Column_551 Column_552 Column_553 Column_554 Column_555 Column_556 Column_557 Column_558 Column_559 Column_560 Column_561 Column_562 Column_563 Column_564 Column_565 Column_566 Column_567 Column_568 Column_569 Column_570 Column_571 Column_572 Column_573 Column_574 Column_575 Column_576 Column_577 Column_578 Column_579 Column_580 Column_581 Column_582 Column_583 Column_584 Column_585 Column_586 Column_587 Column_588 Column_589 Column_590 Column_591 Column_592 Column_593 Column_594 Column_595 Column_596 Column_597 Column_598 Column_599 Column_600 Column_601 Column_602 Column_603 Column_604 Column_605 Column_606 Column_607 Column_608 Column_609 Column_610 Column_611 Column_612 Column_613 Column_614 Column_615 Column_616 Column_617 Column_618 Column_619 Column_620 Column_621 Column_622 Column_623 Column_624 Column_625 Column_626 Column_627 Column_628 Column_629 Column_630 Column_631 Column_632 Column_633 Column_634 Column_635 Column_636 Column_637 Column_638 Column_639 Column_640 Column_641 Column_642 Column_643 Column_644 Column_645 Column_646 Column_647 Column_648 Column_649 Column_650 Column_651 Column_652 Column_653 Column_654 Column_655 Column_656 Column_657 Column_658 Column_659 Column_660 Column_661 Column_662 Column_663 Column_664 Column_665 Column_666 Column_667 Column_668 Column_669 Column_670 Column_671 Column_672 Column_673 Column_674 Column_675 Column_676 Column_677 Column_678 Column_679 Column_680 Column_681 Column_682 Column_683 Column_684 Column_685 Column_686 Column_687 Column_688 Column_689 Column_690 Column_691 Column_692 Column_693 Column_694 Column_695 Column_696 Column_697 Column_698 Column_699 Column_700 Column_701 Column_702 Column_703 Column_704 Column_705 Column_706 Column_707 Column_708 Column_709 Column_710 Column_711 Column_712 Column_713 Column_714 Column_715 Column_716 Column_717 Column_718 Column_719 Column_720 Column_721 Column_722 Column_723 Column_724 Column_725 Column_726 Column_727 Column_728 Column_729 Column_730 Column_731 Column_732 Column_733 Column_734 Column_735 Column_736 Column_737 Column_738 Column_739 Column_740 Column_741 Column_742 Column_743 Column_744 Column_745 Column_746 Column_747 Column_748 Column_749 Column_750 Column_751 Column_752 Column_753 Column_754 Column_755 Column_756 Column_757 Column_758 Column_759 Column_760 Column_761 Column_762 Column_763 Column_764 Column_765 Column_766 Column_767 Column_768 Column_769 Column_770 Column_771 Column_772 Column_773 Column_774 Column_775 Column_776 Column_777 Column_778 Column_779 Column_780 Column_781 Column_782 Column_783 Column_784 Column_785 Column_786 Column_787 Column_788 Column_789 Column_790 Column_791 Column_792 Column_793 Column_794 Column_795 Column_796 Column_797 Column_798 Column_799 Column_800 Column_801 Column_802 Column_803 Column_804 Column_805 Column_806 Column_807 Column_808 Column_809 Column_810 Column_811 Column_812 Column_813 Column_814 Column_815 Column_816 Column_817 Column_818 Column_819 Column_820 Column_821 Column_822 Column_823 Column_824 Column_825 Column_826 Column_827 Column_828 Column_829 Column_830 Column_831 Column_832 Column_833 Column_834 Column_835 Column_836 Column_837 Column_838 Column_839 Column_840 Column_841 Column_842 Column_843 Column_844 Column_845 Column_846 Column_847 Column_848 Column_849 Column_850 Column_851 Column_852 Column_853 Column_854 Column_855 Column_856 Column_857 Column_858 Column_859 Column_860 Column_861 Column_862 Column_863 Column_864 Column_865 Column_866 Column_867 Column_868 Column_869 Column_870 Column_871 Column_872 Column_873 Column_874 Column_875 Column_876 Column_877 Column_878 Column_879 Column_880 Column_881 Column_882 Column_883 Column_884 Column_885 Column_886 Column_887 Column_888 Column_889 Column_890 Column_891 Column_892 Column_893 Column_894 Column_895 Column_896 Column_897 Column_898 Column_899 Column_900 Column_901 Column_902 Column_903 Column_904 Column_905 Column_906 Column_907 Column_908 Column_909 Column_910 Column_911 Column_912 Column_913 Column_914 Column_915 Column_916 Column_917 Column_918 Column_919 Column_920 Column_921 Column_922 Column_923 Column_924 Column_925 Column_926 Column_927 Column_928 Column_929 Column_930 Column_931 Column_932 Column_933 Column_934 Column_935 Column_936 Column_937 Column_938 Column_939 Column_940 Column_941 Column_942 Column_943 Column_944 Column_945 Column_946 Column_947 Column_948 Column_949 Column_950 Column_951 Column_952 Column_953 Column_954 Column_955 Column_956 Column_957 Column_958 Column_959
feature_infos=[-2.0434474945068359:3.3938045501708984] [-1.4737318754196167:1.9772284030914307] [-3.5040664672851562:5.6331729888916016] [-1.3661367893218994:1.9459880590438843] [-1.8316936492919922:2.1464524269104004] [-1.7425496578216553:1.8324449062347412] [-1.6509330272674561:2.6729557514190674] [-1.7932946681976318:2.1122326850891113] [-1.9127919673919678:2.385167121887207] [-1.8914560079574585:1.9456050395965576] [-1.4878729581832886:2.6718704700469971] [-1.7674210071563721:2.292701244354248] [-2.1269583702087402:2.6156904697418213] [-2.1793904304504395:2.1973600387573242] [-2.1269583702087402:2.5526134967803955] [-5.540595531463623:4.2178030014038086] [-5.3679437637329102:4.1906318664550781] [-7.9635748863220215:4.7927584648132324] [-1.2598371505737305:2.3243532180786133] [-1.2574225664138794:1.9868955612182617] [-1.0277712345123291:2.9249064922332764] [-1.579835057258606:1.1939681768417358] [-1.7584161758422852:1.9613239765167236] [-1.5595152378082275:2.5451688766479492] [-4.0308680534362793:4.3633756637573242] [-3.9107365608215332:4.8223171234130859] [-6.1159977912902832:3.4756464958190918] [-23.741754531860352:7.5604195594787598] [-18.329313278198242:5.793668270111084] [-34.397800445556641:10.00855541229248] [-4.5614428520202637:3.604006290435791] [-4.5132169723510742:4.2456121444702148] [-6.7226381301879883:4.1904382705688477] [-24.025236129760742:7.0544991493225098] [-11.994071960449219:4.5781831741333008] [-6.4690399169921875:3.8154845237731934] [-10.868597984313965:4.8021073341369629] [-10.05265998840332:3.7334723472595215] [-6.9181852340698242:4.2167525291442871] [-6.7551422119140625:3.8402626514434814] [-2.8275978565216064:4.6213436126708984] [-1.8962342739105225:4.7996759414672852] [-4.9299712181091309:3.3056621551513672] [-1:0.24020814895629883] [-4.8655276298522949:3.1491580009460449] [-6.9027185440063477:3.9907047748565674] [-6.3878698348999023:4.4141321182250977] [-9.4020290374755859:4.822352409362793] [0:4.4747347831726074] [1.1920928955078125e-07:0.15997187793254852] [0:7.3023519515991211] [1.1920928955078125e-07:0.14392489194869995] [0:0.15157987177371979] [1.1920928955078125e-07:0.14648807048797607] [1.1920928955078125e-07:0.2381632924079895] [1.1920928955078125e-07:0.14976158738136292] [0:0.17333009839057922] [0:0.16396728157997131] [0:0.20234894752502441] [0:0.12915319204330444] [2.384185791015625e-07:0.39986768364906311] [2.384185791015625e-07:0.42319688200950623] [2.384185791015625e-07:0.401714026927948] [4.76837158203125e-07:1.471311092376709] [4.76837158203125e-07:2.0545876026153564] [0:2.3520305156707764] [0:0.23322373628616333] [1.1920928955078125e-07:0.21807466447353363] [1.1920928955078125e-07:0.35493692755699158] [0:2.6411919593811035] [0:1.9453761577606201] [0:1.8111824989318848] [0:2.0925092697143555] [2.384185791015625e-07:5.2575116157531738] [4.76837158203125e-07:3.2695446014404297] [1.9073486328125e-06:1.4122886657714844] [1.9073486328125e-06:1.0464813709259033] [0:2.0435097217559814] [4.76837158203125e-07:1.5282198190689087] [4.76837158203125e-07:1.7534066438674927] [4.76837158203125e-07:2.3749120235443115] [0:3.1191935539245605] [0:1.6208062171936035] [0:1.9921841621398926] [0:1.5114148855209351] [9.5367431640625e-07:1.1746087074279785] [4.76837158203125e-07:1.0991491079330444] [0:1.7031396627426147] [2.9802322387695312e-08:2.3272831439971924] [0:2.6805007457733154] [4.76837158203125e-07:2.1476726531982422] [0:2.9802322387695312e-08] [4.76837158203125e-07:2.2491543292999268] [0:1.4272634983062744] [4.76837158203125e-07:1.8404977321624756] [9.5367431640625e-07:2.5319521427154541] [-2.0434474945068359:2.8556778430938721] [-1.5342239141464233:1.9187380075454712] [-3.5040664672851562:1.3266392946243286] [-1.4472559690475464:1.8684067726135254] [-1.8316936492919922:1.9692038297653198] [-1.7425495386123657:1.7637004852294922] [-1.6509329080581665:2.5160090923309326] [-1.7932947874069214:2.0326774120330811] [-1.9127919673919678:2.2280988693237305] [-1.8914560079574585:1.8270206451416016] [-1.4878729581832886:2.5115485191345215] [-1.7674210071563721:2.2073981761932373] [-2.1269581317901611:2.2610149383544922] [-2.1793906688690186:1.9014295339584351] [-2.1269581317901611:2.2692770957946777] [-5.5405950546264648:2.9175124168395996] [-5.3679442405700684:2.3503093719482422] [-7.9635748863220215:3.3840322494506836] [-1.3646303415298462:2.2436883449554443] [-1.377755880355835:1.822731614112854] [-1.134695291519165:2.6776981353759766] [-4.646331787109375:0.85812962055206299] [-2.7700493335723877:1.5199874639511108] [-2.6946413516998291:1.1260138750076294] [-4.0308680534362793:2.5146727561950684] [-3.9107367992401123:1.6183435916900635] [-6.1159982681274414:2.7768344879150391] [-23.741752624511719:6.5095653533935547] [-18.329311370849609:5.4111728668212891] [-34.397800445556641:9.6693315505981445] [-4.5614423751831055:2.7759895324707031] [-4.513216495513916:2.0698714256286621] [-6.7226386070251465:2.9491145610809326] [-24.025236129760742:6.7010321617126465] [-11.994071960449219:4.4146928787231445] [-6.4690399169921875:3.4714682102203369] [-10.868597984313965:3.7390332221984863] [-10.052660942077637:3.5500504970550537] [-6.9181857109069824:3.919438362121582] [-6.7551422119140625:3.2257535457611084] [-2.8275976181030273:3.7927184104919434] [-1.8962342739105225:4.6768379211425781] [-4.9299716949462891:2.5458583831787109] [-1:0.24020814895629883] [-4.8655271530151367:2.1302552223205566] [-6.9027185440063477:2.9540331363677979] [-6.3878693580627441:2.6350655555725098] [-9.4020280838012695:3.7992792129516602] [-2.0434474945068359:11.043732643127441] [-1.4737317562103271:2.0387675762176514] [-3.5040664672851562:24.667915344238281] [-1.366136908531189:2.0091874599456787] [-1.8316936492919922:2.2610828876495361] [-1.7425495386123657:1.9096236228942871] [-1.6509329080581665:3.0238018035888672] [-1.7932947874069214:2.210125207901001] [-1.9127919673919678:2.550894021987915] [-1.8914560079574585:2.1520035266876221] [-1.4878729581832886:2.9398961067199707] [-1.7674210071563721:2.4795382022857666] [-2.1269581317901611:3.4155089855194092] [-2.1793906688690186:2.8118205070495605] [-2.1269581317901611:3.4460854530334473] [-5.5405950546264648:7.4385271072387695] [-5.3679442405700684:8.0050344467163086] [-7.9635748863220215:8.304443359375] [-1.2598371505737305:2.6037528514862061] [-1.2574226856231689:2.2494082450866699] [-1.0277713537216187:3.3734755516052246] [-0.32151824235916138:4.4179472923278809] [-1.4409639835357666:4.3770928382873535] [-1.0597212314605713:5.2888526916503906] [-4.0308680534362793:8.7524423599243164] [-3.9107367992401123:15.092792510986328] [-6.1159982681274414:10.192719459533691] [-23.741752624511719:9.5718955993652344] [-18.329311370849609:7.106562614440918] [-34.397800445556641:13.672032356262207] [-4.5614423751831055:7.0013046264648438] [-4.513216495513916:6.327214241027832] [-6.7226386070251465:7.457329273223877] [-24.025236129760742:9.749018669128418] [-11.994071960449219:5.4673361778259277] [-6.4690399169921875:5.6627187728881836] [-10.868597984313965:5.8309588432312012] [-10.052660942077637:4.6184248924255371] [-6.9181857109069824:4.4869976043701172] [-6.7551422119140625:7.8308320045471191] [-2.8275976181030273:7.8695316314697266] [-1.8962342739105225:8.0405111312866211] [-4.9299716949462891:6.2369823455810547] [-1:0.24020814895629883] [-4.8655271530151367:6.1337990760803223] [-6.9027185440063477:6.9597020149230957] [-6.3878693580627441:7.206538200378418] [-9.4020280838012695:9.1263523101806641] [-0.94218528270721436:0.98464107513427734] [-0.039910238236188889:0.046140886843204498] [-1.3307777643203735:1.3254973888397217] [-0.042366538196802139:0.038576472550630569] [-0.039115950465202332:0.042019594460725784] [-0.030298436060547829:0.027177233248949051] [-0.058828197419643402:0.061090487986803055] [-0.035234630107879639:0.035159416496753693] [-0.047449599951505661:0.044491291046142578] [-0.036243762820959091:0.054235115647315979] [-0.051928993314504623:0.048391062766313553] [-0.032077964395284653:0.032567936927080154] [-0.082493558526039124:0.088206909596920013] [-0.10070666670799255:0.1028328612446785] [-0.078130297362804413:0.089615322649478912] [-0.27930915355682373:0.33985945582389832] [-0.41508355736732483:0.35188072919845581] [-0.51841741800308228:0.6110377311706543] [-0.056590773165225983:0.049217645078897476] [-0.051749102771282196:0.039823543280363083] [-0.082575075328350067:0.088647492229938507] [-0.57507807016372681:0.55668884515762329] [-0.46005150675773621:0.3683912456035614] [-0.50221037864685059:0.38053837418556213] [-0.47755849361419678:0.42525529861450195] [-1.1543213129043579:0.99942904710769653] [-0.66448187828063965:0.70100349187850952] [-0.32704666256904602:0.26204046607017517] [-0.22592377662658691:0.18500500917434692] [-0.36223533749580383:0.41432628035545349] [-0.2831093966960907:0.35036277770996094] [-0.56399166584014893:0.4820232093334198] [-0.55328869819641113:0.56569933891296387] [-0.64149975776672363:1.0032174587249756] [-0.50488805770874023:0.30941292643547058] [-0.38815206289291382:0.45527446269989014] [-0.32719963788986206:0.38794031739234924] [-0.32492780685424805:0.24245971441268921] [-0.17256069183349609:0.23482304811477661] [-0.29011428356170654:0.36436203122138977] [-0.394389808177948:0.45078375935554504] [-0.74173623323440552:0.73552417755126953] [-0.35988786816596985:0.38096266984939575] none [-0.42325040698051453:0.35230532288551331] [-0.31747254729270935:0.40146836638450623] [-0.39851152896881104:0.32899594306945801] [-0.68917578458786011:0.72462868690490723] [0:0.89999997615814209] [0:0.79786747694015503] [0:0.89999997615814209] [0:0.80543404817581177] [0:0.82232552766799927] [0:0.80743372440338135] [0:0.80805635452270508] [0:0.83191025257110596] [0:0.80479669570922852] [0:0.82587891817092896] [0:0.8224141001701355] [0:0.82560950517654419] [0:0.80265092849731445] [0:0.78495562076568604] [0:0.80265092849731445] [0:0.79441374540328979] [0:0.81442689895629883] [0:0.82853734493255615] [0:0.79017293453216553] [0:0.78601819276809692] [0:0.80533361434936523] [0:0.80186879634857178] [0:0.79842919111251831] [0:0.84553778171539307] [0:0.7420889139175415] [0:0.76994872093200684] [0:0.78353190422058105] [0:0.79174965620040894] [0:0.7863389253616333] [0:0.78865349292755127] [0:0.79610693454742432] [0:0.79706871509552002] [0:0.8297123908996582] [0:0.8197556734085083] [0:0.82435464859008789] [0:0.7997705340385437] [0:0.82459038496017456] [0:0.80214816331863403] [0:0.77149581909179688] [0:0.83323705196380615] [0:0.89999997615814209] [0:0.89999997615814209] [0:0.81347626447677612] none [0:0.8058246374130249] [0:0.76395595073699951] [0:0.77117711305618286] [0:0.79569262266159058] [0:0.5] [0:0.43058097362518311] [0:0.5] [0:0.43252530694007874] [0:0.45939713716506958] [0:0.43894705176353455] [0:0.44866228103637695] [0:0.4482557475566864] [0:0.42395579814910889] [0:0.43517538905143738] [0:0.44764521718025208] [0:0.43129247426986694] [0:0.44107943773269653] [0:0.44606587290763855] [0:0.44107943773269653] [0:0.45634013414382935] [0:0.45784538984298706] [0:0.42975080013275146] [0:0.44255757331848145] [0:0.46194928884506226] [0:0.46656599640846252] [0:0.45424425601959229] [0:0.44765642285346985] [0:0.4440368115901947] [0:0.4351729154586792] [0:0.45807844400405884] [0:0.43852755427360535] [0:0.44461825489997864] [0:0.43352952599525452] [0:0.44383418560028076] [0:0.47093963623046875] [0:0.44824373722076416] [0:0.43569493293762207] [0:0.4474034309387207] [0:0.45568001270294189] [0:0.44368129968643188] [0:0.42629542946815491] [0:0.43945074081420898] [0:0.42407134175300598] [0:0.45488408207893372] [0:0.47303912043571472] [0:0.5] [0:0.44801744818687439] none [0:0.44478747248649597] [0:0.4629824161529541] [0:0.44921380281448364] [0:0.42614692449569702] none none none none none none none none none none none none none none none none none none none none none none none none none none none none none none none none none none none none none none none none none none none none none none none none [0:1] [0:1] [0:1] [0:1] [0:1] [0:1] [0:1] [0:1] [0:1] [0:1] [0:1] [0:1] [0:1] [0:1] [0:1] [0:1] [0:1] [0:1] [0:1] [0:1] [0:1] [0:1] [0:1] [0:1] [0:1] [0:1] [0:1] [0:1] [0:1] [0:1] [0:1] [0:1] [0:1] [0:1] [0:1] [0:1] [0:1] [0:1] [0:1] [0:1] [0:1] [0:1] [0:1] none [0:1] [0:1] [0:1] [0:1] [-0.15151512622833252:0.15151512622833252] [-0.12780182063579559:0.12668468058109283] [-0.15151515603065491:0.15151515603065491] [-0.13101617991924286:0.12653802335262299] [-0.14336113631725311:0.13486936688423157] [-0.12310275435447693:0.12068963795900345] [-0.13846626877784729:0.12731663882732391] [-0.13037663698196411:0.12979415059089661] [-0.12957385182380676:0.12205167859792709] [-0.12417175620794296:0.12549577653408051] [-0.13466301560401917:0.13026559352874756] [-0.13298852741718292:0.12144241482019424] [-0.1287098228931427:0.11077740043401718] [-0.12629285454750061:0.13370092213153839] [-0.12935060262680054:0.11176580935716629] [-0.12762799859046936:0.13600584864616394] [-0.11826601624488831:0.12119926512241364] [-0.12126928567886353:0.11570427566766739] [-0.11812415719032288:0.12983979284763336] [-0.12696710228919983:0.1239887923002243] [-0.13252939283847809:0.13535116612911224] [-0.11495707184076309:0.13042475283145905] [-0.11999934911727905:0.12085802853107452] [-0.11891918629407883:0.11522397398948669] [-0.11767309904098511:0.1159307062625885] [-0.12529477477073669:0.12026529014110565] [-0.13154932856559753:0.12210309505462646] [-0.12306807190179825:0.13292708992958069] [-0.12096294015645981:0.1303396075963974] [-0.12981051206588745:0.11788380891084671] [-0.14118793606758118:0.13412846624851227] [-0.13379833102226257:0.13362938165664673] [-0.12429921329021454:0.12296644598245621] [-0.11940643191337585:0.13476423919200897] [-0.12982706725597382:0.13866664469242096] [-0.12554119527339935:0.13694530725479126] [-0.1331549733877182:0.12223090976476669] [-0.12058432400226593:0.13410881161689758] [-0.12862323224544525:0.12540674209594727] [-0.11911991238594055:0.13369934260845184] [-0.11030995845794678:0.11350486427545547] [-0.14545454084873199:0.15151511132717133] [-0.10674440860748291:0.11932287365198135] none [-0.12091074883937836:0.10829063504934311] [-0.11321131139993668:0.13257460296154022] [-0.12299847602844238:0.115617536008358] [-0.10991513729095459:0.1136176809668541] [-9.9772405624389648:2.6349728107452393] [-1.9256570339202881:1.4659569263458252] [-20.028514862060547:3.9462199211120605] [-1.7081358432769775:1.4351654052734375] [-2.3537566661834717:1.6367514133453369] [-2.1826484203338623:1.4687761068344116] [-2.0742592811584473:2.1095931529998779] [-2.4637660980224609:1.5547840595245361] [-1.9734712839126587:2.2652926445007324] [-1.9444410800933838:1.8716281652450562] [-1.5509196519851685:2.5292584896087646] [-1.8658187389373779:2.1262905597686768] [-3.8960099220275879:1.8026473522186279] [-4.1955413818359375:1.5893120765686035] [-3.8960099220275879:1.7773844003677368] [-10.184150695800781:3.5515384674072266] [-9.6988229751586914:3.5010113716125488] [-14.682368278503418:4.0352320671081543] [-1.6335599422454834:1.5362980365753174] [-1.5505189895629883:1.4125248193740845] [-1.3887788057327271:2.2079930305480957] [-1.2735335826873779:1.2994716167449951] [-1.6002134084701538:1.8634122610092163] [-1.3098745346069336:2.5586104393005371] [-7.7760934829711914:3.5813698768615723] [-7.2837152481079102:3.2402381896972656] [-11.453888893127441:3.0296258926391602] [-34.628326416015625:7.0208015441894531] [-26.358257293701172:5.3240823745727539] [-50.080894470214844:9.2800388336181641] [-8.93634033203125:3.0453076362609863] [-8.4641504287719727:3.3269398212432861] [-13.177366256713867:3.4021618366241455] [-30.737804412841797:6.6548967361450195] [-15.032609939575195:4.2904481887817383] [-7.6172637939453125:3.547837495803833] [-13.65526008605957:4.4562530517578125] [-12.313814163208008:3.4817442893981934] [-8.6247692108154297:3.8958694934844971] [-19.524959564208984:3.1727089881896973] [-4.656977653503418:3.9209411144256592] [-3.3712630271911621:3.8222548961639404] [-6.5631933212280273:2.9384152889251709] [-0.69314718246459961:0.11342163383960724] [-7.1788644790649414:2.6895289421081543] [-11.929730415344238:3.5166683197021484] [-10.935919761657715:3.7905540466308594] [-16.338178634643555:4.1448626518249512] [0:2.0318169593811035] [0:0.29576370120048523] [0:3.5624864101409912] [0:0.27594634890556335] [2.384185791015625e-07:0.2516319751739502] [2.384185791015625e-07:0.23372966051101685] [2.384185791015625e-07:0.33435001969337463] [0:0.27414825558662415] [0:0.18154162168502808] [2.384185791015625e-07:0.14986997842788696] [0:0.17706744372844696] [0:0.11500160396099091] [0:0.52511352300643921] [0:0.54210591316223145] [0:0.51892000436782837] [0:1.0017105340957642] [0:1.4306721687316895] [0:1.8210065364837646] [0:0.22139090299606323] [0:0.30073004961013794] [0:0.23263038694858551] [0:2.1928651332855225] [1.4901161193847656e-08:1.6379902362823486] [1.1920928955078125e-07:1.7362332344055176] [9.5367431640625e-07:1.4031925201416016] [0:2.5583479404449463] [0:2.2743465900421143] [0:1.2652207612991333] [1.9073486328125e-06:0.91088211536407471] [3.814697265625e-06:1.8724269866943359] [0:1.0144482851028442] [9.5367431640625e-07:1.1816468238830566] [0:1.8648197650909424] [1.9073486328125e-06:2.919358491897583] [0:1.5157489776611328] [0:1.7587753534317017] [0:1.4341214895248413] [9.5367431640625e-07:1.1000161170959473] [9.5367431640625e-07:1.0798543691635132] [1.9073486328125e-06:1.4678518772125244] [2.9802322387695312e-08:1.6492129564285278] [0:2.054776668548584] [9.5367431640625e-07:1.9142248630523682] none [0:1.9188308715820312] [9.5367431640625e-07:1.1783246994018555] [9.5367431640625e-07:1.4505355358123779] [0:1.924639105796814] [-9.9772405624389648:2.3851771354675293] [-2.0867893695831299:1.4392849206924438] [-20.028512954711914:1.7779594659805298] [-1.9137322902679443:1.4010510444641113] [-2.3537569046020508:1.5413708686828613] [-2.1826486587524414:1.4298467636108398] [-2.0742595195770264:2.0215146541595459] [-2.4637660980224609:1.5162688493728638] [-1.9734712839126587:2.1254875659942627] [-1.9444413185119629:1.7638815641403198] [-1.5509196519851685:2.3904838562011719] [-1.8658187389373779:2.055262565612793] [-3.8960099220275879:1.6452561616897583] [-4.1955413818359375:1.4516335725784302] [-3.8960099220275879:1.6491566896438599] [-10.184150695800781:2.6601207256317139] [-9.6988229751586914:2.2094104290008545] [-14.682368278503418:3.0606184005737305] [-1.9473007917404175:1.5082333087921143] [-1.8724223375320435:1.3481225967407227] [-1.6332402229309082:2.1008665561676025] [-3.3100507259368896:0.885353684425354] [-2.2368054389953613:1.5317630767822266] [-2.0367379188537598:1.1641756296157837] [-7.7760944366455078:2.3789787292480469] [-7.2837152481079102:1.6249774694442749] [-11.453888893127441:2.5233228206634521] [-34.628326416015625:6.1164484024047852] [-26.358255386352539:4.9990181922912598] [-50.080890655517578:8.9876375198364258] [-8.93634033203125:2.4991519451141357] [-8.4641513824462891:1.9168709516525269] [-13.177366256713867:2.65228271484375] [-30.73780632019043:6.3493223190307617] [-15.032609939575195:4.1474528312683105] [-7.6172637939453125:3.2522811889648438] [-13.65526008605957:3.5370490550994873] [-12.313815116882324:3.3215782642364502] [-8.6247682571411133:3.647101879119873] [-19.524957656860352:2.8177149295806885] [-4.6569771766662598:3.4050791263580322] [-3.3712632656097412:3.7702109813690186] [-6.5631923675537109:2.3523859977722168] [-0.69314718246459961:0.11342161893844604] [-7.1788644790649414:1.9921432733535767] [-11.929729461669922:2.7480564117431641] [-10.935918807983398:2.4847967624664307] [-16.338178634643555:3.4734411239624023] [-9.9772405624389648:4.8300471305847168] [-1.9256570339202881:1.4937026500701904] [-20.028512954711914:11.025774955749512] [-1.7081358432769775:1.4627609252929688] [-2.3537569046020508:1.6971372365951538] [-2.1826486587524414:1.5120457410812378] [-2.0742595195770264:2.3023276329040527] [-2.4637660980224609:1.6018509864807129] [-1.9734712839126587:2.4122598171234131] [-1.9444413185119629:2.0587935447692871] [-1.5509196519851685:2.7600159645080566] [-1.8658187389373779:2.280745267868042] [-3.8960099220275879:2.1341354846954346] [-4.1955413818359375:1.86663818359375] [-3.8960099220275879:2.1457552909851074] [-10.184150695800781:5.5284733772277832] [-9.6988229751586914:5.7899770736694336] [-14.682368278503418:6.3569951057434082] [-1.6335599422454834:1.6315571069717407] [-1.5505189895629883:1.5124319791793823] [-1.3887788057327271:2.3978078365325928] [-0.40334001183509827:3.9998605251312256] [-1.3733513355255127:3.2895007133483887] [-0.98758816719055176:4.5510778427124023] [-7.7760944366455078:5.9046735763549805] [-7.2837152481079102:7.9730987548828125] [-11.453888893127441:6.8877663612365723] [-34.628326416015625:8.7172574996948242] [-26.358255386352539:6.418553352355957] [-50.080890655517578:12.355323791503906] [-8.93634033203125:5.0016922950744629] [-8.4641513824462891:4.546196460723877] [-13.177366256713867:5.5584316253662109] [-30.73780632019043:9.0235128402709961] [-15.032609939575195:5.0581107139587402] [-7.6172637939453125:5.074923038482666] [-13.65526008605957:5.3333115577697754] [-12.313815116882324:4.2428240776062012] [-8.6247682571411133:4.1208162307739258] [-19.524957656860352:5.5438647270202637] [-4.6569771766662598:5.6666903495788574] [-3.3712632656097412:5.2179288864135742] [-6.5631923675537109:5.0191564559936523] [-0.69314718246459961:0.11342161893844604] [-7.1788644790649414:4.771697998046875] [-11.929729461669922:5.570258617401123] [-10.935918807983398:5.6698136329650879] [-16.338178634643555:7.2009449005126953] [-0.51749193668365479:0.51242613792419434] [-0.059083946049213409:0.073883935809135437] [-0.86372208595275879:0.91056519746780396] [-0.079749852418899536:0.077016152441501617] [-0.059954289346933365:0.06587488204240799] [-0.048050370067358017:0.043355215340852737] [-0.085378646850585938:0.062762230634689331] [-0.062822528183460236:0.064458325505256653] [-0.043727114796638489:0.04744705930352211] [-0.03325141966342926:0.049561828374862671] [-0.046510312706232071:0.043576646596193314] [-0.028135435655713081:0.030385751277208328] [-0.11506769806146622:0.093594066798686981] [-0.14219672977924347:0.13708105683326721] [-0.11037813872098923:0.082055188715457916] [-0.21418687701225281:0.24415534734725952] [-0.31252491474151611:0.26857525110244751] [-0.43026113510131836:0.46874228119850159] [-0.062239270657300949:0.052994400262832642] [-0.064766250550746918:0.04957711324095726] [-0.046581976115703583:0.049412835389375687] [-0.53682410717010498:0.49440699815750122] [-0.42234382033348083:0.33626934885978699] [-0.50365042686462402:0.39449277520179749] [-0.34884482622146606:0.2790999710559845] [-0.61158668994903564:0.45646324753761292] [-0.49415862560272217:0.55008453130722046] [-0.30547866225242615:0.23213079571723938] [-0.21150395274162292:0.17157334089279175] [-0.32962998747825623:0.40389487147331238] [-0.21301797032356262:0.23703789710998535] [-0.38801306486129761:0.33354708552360535] [-0.42981085181236267:0.43540266156196594] [-0.6205902099609375:0.93288230895996094] [-0.47453239560127258:0.27922224998474121] [-0.3508647084236145:0.42612504959106445] [-0.30212056636810303:0.36553043127059937] [-0.30692926049232483:0.22966331243515015] [-0.17056243121623993:0.23321181535720825] [-0.23673813045024872:0.32509225606918335] [-0.32468098402023315:0.34548667073249817] [-0.59213560819625854:0.58419817686080933] [-0.35669270157814026:0.34220239520072937] none [-0.35928001999855042:0.35105511546134949] [-0.25102508068084717:0.30353689193725586] [-0.31725820899009705:0.26856330037117004] [-0.5476677417755127:0.55085766315460205] [-1.0900713205337524:1.1500624418258667] [-0.048667695373296738:0.040912404656410217] [-2.5409667491912842:2.7031776905059814] [-0.040953066200017929:0.037059374153614044] [-0.040694799274206161:0.044690027832984924] [-0.040223069489002228:0.034482929855585098] [-0.068889379501342773:0.072678342461585999] [-0.040708713233470917:0.034539565443992615] [-0.052507374435663223:0.048970714211463928] [-0.033495519310235977:0.056245166808366776] [-0.072867304086685181:0.054397370666265488] [-0.042904272675514221:0.039241578429937363] [-0.11897758394479752:0.12278832495212555] [-0.10552474111318588:0.13434107601642609] [-0.11923115700483322:0.13492560386657715] [-0.36999040842056274:0.43831151723861694] [-0.60740208625793457:0.48857614398002625] [-0.61138254404067993:0.6672055721282959] [-0.07134740799665451:0.06369878351688385] [-0.062326949089765549:0.050505954772233963] [-0.1222725436091423:0.089869417250156403] [-0.68303477764129639:0.67920887470245361] [-0.50092929601669312:0.44452798366546631] [-0.48450088500976562:0.46971261501312256] [-0.56202608346939087:0.55984729528427124] [-1.2645248174667358:1.5295889377593994] [-1.0261695384979248:0.95518982410430908] [-0.34697967767715454:0.36261862516403198] [-0.29887130856513977:0.320331871509552] [-0.6630595326423645:0.74972862005233765] [-0.36127927899360657:0.64472830295562744] [-0.51268982887268066:0.48613336682319641] [-0.6262967586517334:0.74087488651275635] [-0.90944397449493408:1.0027292966842651] [-0.53615528345108032:0.44917482137680054] [-0.45403295755386353:0.62373471260070801] [-0.43890261650085449:0.42675638198852539] [-0.33380612730979919:0.37026679515838623] [-0.2861437201499939:0.31944268941879272] [-0.4457109272480011:0.4828372597694397] [-0.74579572677612305:0.84285247325897217] [-0.77759814262390137:0.91691219806671143] [-0.54692965745925903:0.61069214344024658] none [-0.7203974723815918:0.54293555021286011] [-0.43477395176887512:0.45418012142181396] [-0.51588773727416992:0.49298566579818726] [-0.79291665554046631:0.79938626289367676] [0:5.4441852569580078] [0:0.229148268699646] [0:11.335359573364258] [0:0.182591512799263] [0:0.2497219443321228] [0:0.25753965973854065] [0:0.36045053601264954] [0:0.24214936792850494] [0:0.27078750729560852] [0:0.16396771371364594] [0:0.291330486536026] [0:0.20643232762813568] [0:0.66467851400375366] [0:0.50284183025360107] [0:0.61821448802947998] [0:2.1846857070922852] [0:2.5936863422393799] [0:2.6346435546875] [0:0.31192046403884888] [0:0.28205174207687378] [0:0.53620249032974243] [0:4.0211172103881836] [0:2.6850869655609131] [0:2.7837419509887695] [0:3.1675851345062256] [0:6.3670926094055176] [0:4.8594703674316406] [0:2.1288330554962158] [0:1.6225861310958862] [0:2.8801784515380859] [0:2.2253501415252686] [0:2.1881897449493408] [0:2.9537289142608643] [0:4.3478655815124512] [0:2.1312026977539062] [0:2.424485445022583] [0:2.4665787220001221] [0:1.9512146711349487] [0:1.5155192613601685] [0:2.8981049060821533] [0:3.4729628562927246] [0:3.9549257755279541] [0:3.770380973815918] none [0:3.5382556915283203] [0:1.9729267358779907] [0:2.7540748119354248] [0:2.528005838394165] [-11.383682250976562:0] [-0.37400257587432861:0] [-24.596427917480469:0] [-0.33519148826599121:0] [-0.50028586387634277:0] [-0.49677693843841553:0] [-0.78774768114089966:0] [-0.46685731410980225:0] [-0.51608192920684814:0] [-0.34070384502410889:0] [-0.54229569435119629:0] [-0.44387650489807129:0] [-1.3535337448120117:0] [-1.0065401792526245:0] [-1.4833630323410034:0] [-4.5802602767944336:0] [-5.3339328765869141:0] [-4.3258194923400879:0] [-0.50825011730194092:0] [-0.64844751358032227:0] [-0.9795527458190918:0] [-7.6262111663818359:0] [-5.0536956787109375:0] [-5.9404988288879395:0] [-6.6482119560241699:0] [-12.611371040344238:0] [-7.7328624725341797:0] [-3.9264612197875977:0] [-3.1174790859222412:0] [-5.2987184524536133:0] [-4.7114996910095215:0] [-4.1368780136108398:0.001027226448059082] [-5.9761261940002441:0] [-6.9119367599487305:0] [-4.3780155181884766:0] [-5.1913824081420898:0] [-4.4368023872375488:0] [-3.2479872703552246:0.0082746744155883789] [-2.9839251041412354:0] [-4.6143960952758789:0] [-7.157961368560791:0] [-8.2349338531494141:0] [-7.938347339630127:0] none [-5.5377130508422852:0] [-4.1447620391845703:0] [-4.7749567031860352:0] [-5.170170783996582:0] [0:11.545307159423828] [0:0.43097275495529175] [0:23.42529296875] [0:0.36898750066757202] [0:0.41066431999206543] [0:0.44148743152618408] [0:0.71407896280288696] [0:0.37375307083129883] [0:0.52635502815246582] [0:0.29849076271057129] [0:0.50248527526855469] [0:0.39062178134918213] [0:1.5164475440979004] [0:1.1308993101119995] [0:1.4233934879302979] [0:4.1455674171447754] [0:4.6820635795593262] [0:4.8036236763000488] [0:0.6651298999786377] [0:0.55820238590240479] [0:1.0637643337249756] [0:6.4629545211791992] [0:4.8335633277893066] [0:5.3273563385009766] [0:6.8769292831420898] [0:13.993578910827637] [0:9.7093381881713867] [0:4.1060032844543457] [0:2.1426858901977539] [0:6.4433283805847168] [0:4.3525314331054688] [0:3.9687747955322266] [0:5.6145443916320801] [0:7.2903070449829102] [0:3.5806705951690674] [0:4.9693231582641602] [0:4.0490641593933105] [0:3.0886306762695312] [0:2.3784632682800293] [0:6.8813009262084961] [0:7.4797086715698242] [0:8.2956466674804688] [0:7.0163569450378418] none [0:7.5319466590881348] [0:3.4392142295837402] [0:4.729888916015625] [0:5.0205364227294922] [-0.40108737349510193:0.65372222661972046] [-0.026227306574583054:0.029845153912901878] [-0.67465311288833618:1.6355431079864502] [-0.027934141457080841:0.027435338124632835] [-0.030623432248830795:0.034528426826000214] [-0.022525515407323837:0.022166883572936058] [-0.036319330334663391:0.040870774537324905] [-0.028042592108249664:0.02606271393597126] [-0.042044159024953842:0.043255273252725601] [-0.031818605959415436:0.027929572388529778] [-0.042283441871404648:0.034736357629299164] [-0.023707928135991096:0.030822021886706352] [-0.058918960392475128:0.08757791668176651] [-0.061329849064350128:0.078071989119052887] [-0.063834868371486664:0.080474384129047394] [-0.30230110883712769:0.32184791564941406] [-0.31462809443473816:0.4078860878944397] [-0.33281025290489197:0.28537768125534058] [-0.033921360969543457:0.045249622315168381] [-0.035495083779096603:0.047559499740600586] [-0.075674369931221008:0.079332202672958374] [-0.46021562814712524:0.52829128503799438] [-0.37199828028678894:0.29686892032623291] [-0.37241476774215698:0.37876930832862854] [-0.35265687108039856:0.49175015091896057] [-0.52392959594726562:0.96161496639251709] [-0.42507684230804443:0.67576843500137329] [-0.25544413924217224:0.23844347894191742] [-0.18625147640705109:0.17314174771308899] [-0.38004580140113831:0.33719310164451599] [-0.28576824069023132:0.21135053038597107] [-0.30974212288856506:0.32102316617965698] [-0.34737253189086914:0.30066531896591187] [-0.51890367269515991:0.52124935388565063] [-0.27084210515022278:0.29084894061088562] [-0.28694677352905273:0.39796778559684753] [-0.28011572360992432:0.28473344445228577] [-0.21041832864284515:0.19728335738182068] [-0.20747806131839752:0.23783972859382629] [-0.25158080458641052:0.35185718536376953] [-0.20037433505058289:0.48750036954879761] [-0.40209254622459412:0.65593540668487549] [-0.27448949217796326:0.44694212079048157] none [-0.3539142906665802:0.42617180943489075] [-0.28660634160041809:0.27065226435661316] [-0.32479727268218994:0.39127713441848755] [-0.34625741839408875:0.31981641054153442]
tree_sizes=558 771 1171 1384 1270 459 784 784 1634 1417 1107 576 575 788 1746 1431 1213 575 680 772 1531 1319 1214 471 580 776 1637 1427 1216 686 666 683 1851 1422 1215 471 681 684 1430 1333 1321 472 474 688 1191 1622 1218 576 576 789 1426 1303 1112 470 474 789 1213 1325 900 681 474 688 1431 1086 1209 579 474 784 1313 1532 1219 576 472 1305 1311 1421 1101 474 475 688 1321 1326 1103 472 579 790 1218 1321 1111 470 474 796 1508 1546 1426 581 580 796 1314 1318 1220 582 477 685 1217 1212 1633 575 474 690 1105 1638 1003 678 578 792 1427 1508 1330 580 474 793 1212 1209 1324 580 475 790 1514 1427 1107 581 473 690 1529 1316 1219 582 475 794 1535 1111 1003 585 475 687 1748 1330 1405 580 574 800 1427 1316 1632 582 473 900 1639 1538 1324 580 473 689 1531 1112 1339 579 474 795 1214 1421 896 577 475 996 1514 1104 1442 579 476 888 1198 1086 1110 685 474 666 1430 1864 1005 579 476 690 1435 1431 1003 580 561 899 1193 1641 984 473 473 666 1403 1219 1006 578 475 878 1203 1301 900 582 586 693 1536 1295 1438 560 475 792 1215 1218 1304 557 659 794 1338 1225 1317 556 689 1005 1301 1319 1008 559 683 779 1305 1498 1220 562 473 896 1328 1002 1661 665 790 693 1310 1109 1215 559 475 787 1194 1658 1105 575 576 687 1111 1316 1197 560 579 1231 1631 1422 1327 472 578 791 1308 1864 1304 471 684 693 1324 1655 1522 470 576 687 1219 1606 1193 687 475 691 986 1201 1540 472 580 688 1227 1225 1199 581 579 894 1192 1436 1435 574 562 668 1755 1108 1341 471 578 671 1634 1115 1523 584 474 877 1094 1109 1325 578 661 1001 1516 1225 1121 580 473 586 1432 1181 1415 472 772 777 1305 1327 1203 558 670 902 1417 1220 983 685 756 692 1406 1196 984 574 675 771 1280 1522 1102 580 581 772 1199 1216 1039 471 668 1011 1086 1112 1389 576 671 1116 1416 1216 1312 577 580 1098 1007 1218 1063 473 575 675 1010 1069 901 577 476 793 1000 1004 1000 582 584 894 1268 1287 1103 582 581 764 988 1725 1494 579 581 1079 1290 1397 1188 582 582 909 990 1431 1638 568 581 689 1088 1640 1702 568 581 775 1112 1640 1285 551 579 898 1117 1328 983 674 578 899 1287 1114 1099 573 575 773 1210 989 1097 472 571 796 1001 1092 1010 579 678 791 1322 1081 1319 563 575 693 1083 1104 1117 580 572 975 989 1186 1316 584 583 897 913 1461 1206 470 584 881 1320 1206 1318 671 561 1120 1400 1900 1203 577 588 695 1083 1175 1303 560 585 795 1172 1446 1315 581 586 685 1098 1411 1495 558 585 690 1185 887 1316 473 584 692 1096 1284 1204 471 587 680 1098 1084 1193 561 586 680 1117 1101 1497 561 479 878 1171 1263 1099 473 564 680 1503 1455 1281 561 585 685 1116 1077 1068 584 585 685 1095 1265 1423 652 590 690 1082 1170 1503 585 478 775 1396 1251 1189 650 676 782 1272 1050 1182 563 569 790 998 1071 1293 560 566 778 1465 1164 1229 651 567 895 1610 1179 1172 566 565 672 1186 1289 1148 566 664 974 1571 1289 1177 474 675 763 1162 1079 1250 651 479 671 1092 1237 1164 562 568 773 1006 1169 1087 561 565 864 1172 1707 1184 563 571 899 1175 1187 1183 656 477 588 1162 966 1088 564 654 779 1058 1450 1070 649 567 900 998 886 1499 560 560 866 1299 984 1092 566 555 568 1008 984 1544 561 563 870 1259 892 1057 477 557 589 1090 1255 1078 561 561 776 1230 1075 1149 584 571 698 1173 1270 1166 565 570 860 1087 1050 1169 561 473 661 1087 977 1159 562 572 664 1362 1152 1160 564 479 900 1267 981 1147 564 560 773 988 972 1053 759 568 780 1282 1361 1316 746 650 682 1088 958 1126 568 650 667 1271 1150 1348 656 481 762 1184 1047 1149 566 457 875 1135 1074 1149 478 444 962 993 1147 1065 562 448 883 1185 1252 1064 566 448 697 1368 1375 1235 565 448 569 1270 1559 1228 565 444 868 1134 1178 1233 565 445 847 951 1265 1239 753 536 969 1039 1247 1030 564 537 777 1240 1185 1053 562 447 842 1138 1246 1505 563 446 773 1026 1333 1346 565 447 1046 1138 1160 1155 655 536 774 849 1141 1041 568 449 775 1143 1235 975 569 448 561 1120 1044 1073 663 535 574 1010 1124 1050 545 449 880 1025 855 958 542 533 571 1117 1166 1272 548 538 569 1056 1035 1444 546 450 572 1207 851 1137 545 461 561 1178 1025 1030 638 461 560 1234 1214 1319 547 550 559 1338 1120 1234 476 549 559 1173 1311 1489 546 459 746 1241 1215 1712 632 538 1026 927 1331 1126 655 447 754 1155 1121 1505 545 536 748 851 1029 1033 572 450 653 929 951 944 544 447 748 1044 946 1043 477 542 556 1175 1142 919 551 541 560 1256 856 1042 542 536 559 1091 1320 1020 546 544 651 1333 1068 1169 544 541 651 1135 1137 1592 548 450 846 1044 953 1026 535 446 944 1115 949 1155 632 448 667 939 1132 1202 533 446 758 1025 948 1115 536 448 663 1132 1034 1223 535 449 647 926 1220 1352 550 449 558 856 1131 1268 547 450 651 932 1224 1269 551 449 561 931 1122 1083 545 537 561 1021 1036 1542 640 543 561 1129 1056 1130 548 452 558 854 1008 1217 640 542 652 1136 1028 1220 642 451 652 920 941 1415 641 540 561 927 1026 1337 549 449 586 1117 1032 923 642 451 578 926 1036 832 644 451 586 1111 1151 1306 641 451 956 1024 1314 923 544 450 644 1019 1241 1491 550 451 565 1110 1114 1162 547 449 630 1010 1042 1496 550 451 563 1197 1128 1333 643 451 563 924 1221 1416 552 451 633 1197 1037 922 643 450 634 932 1128 1320 642 454 637 749 1104 1221 553 452 729 919 1109 1127 643 455 658 738 861 1035 735 453 576 655 1119 1120 646 453 662 1120 1113 1505 547 455 568 836 1025 923 544 457 569 931 845 1509 547 455 569 1129 1105 1407 455 457 636 841 941 1422 547 457 668 1033 1239 931 454 455 572 838 925 1215 549 458 567 931 1044 967 454 456 667 1036 1243 1024 454 457 568 939 1133 1016 455 457 568 854 1119 1520 556 549 569 846 1023 1331 560 457 671 934 860 1044 557 551 574 1124 937 1076 558 550 669 852 1040 1241 555 457 666 756 751 1126 646 458 573 825 949 1044 547 457 575 635 954 1046 550 457 550 736 937 1065 549 456 550 734 1132 1129 548 459 643 659 1034 1327 544 547 645 660 1033 1125 643 457 642 1132 1036 1036 637 459 733 1119 930 1038 541 554 642 1117 1022 942 545 551 644 1041 1221 845 456 551 644 755 1217 960 552 458 738 762 1032 1043 552 550 646 943 1125 1232 637 458 739 761 938 1129 546 458 640 1123 918 1037 552 457 645 830 1130 1125 741 458 643 922 1012 1143 551 552 641 762 1017 845 549 458 645 831 933 1117 641 459 640 833 1119 1420 644 458 642 929 930 1313 545 458 647 736 1030 1220 547 455 642 831 1026 939 640 549 553 825 1022 1214 547 460 555 762 1220 1035 647 457 551 740 849 1235 549 551 459 931 1138 1138 547 460 646 863 855 1237 543 459 458 842 1034 1036 553 459 552 831 1014 1226 649 458 742 763 857 1036 551 554 551 943 937 1130 458 459 556 739 1139 848 644 458 549 836 831 1040 549 455 554 1115 937 947 554 554 553 740 853 943 646 458 460 933 923 1309 554 555 648 927 1017 1041 554 555 556 928 1018 944 556 553 553 668 923 942 547 553 555 666 1017 850 741 551 555 668 939 1409 554 460 555 929 829 944 551 456 460 764 832 1132 552 555 461 1029 936 1204 650 554 459 1015 835 1208 646 459 555 849 1017 1216 549 459 553 937 827 1041 552 461 460 935 834 920 648 460 459 826 1130 922 555 460 464 928 835 1020 547 461 553 925 924 1117 550 461 459 925 829 830 551 459 555 828 931 1039 646 555 648 646 1020 1020 552 461 555 739 927 1019 551 460 555 650 925 1118 553 552 459 940 924 835 554 461 554 645 737 919 551 459 652 926 1029 947 551 462 649 1049 843 1019 651 554 559 947 1117 946 554 554 550 739 1117 927 549 555 554 1046 835 1038 554 554 557 934 928 830 548 550 555 1025 841 1218 645 462 461 837 646 831 547 556 462 836 835 1134 458 462 459 1022 643 1129 548 462 555 836 838 945 550 554 556 837 737 851 554 461 551 934 829 1121 646 553 554 1031 739 1038 639 551 555 742 927 1138 552 555 556 925 1027 1014 551 458 555 763 1121 1134 551 556 557 953 832 932 551 462 462 831 1139 1018 554 462 462 759 836 737 548 460 553 838 1016 952 556 461 558 738 929 1014 548 461 550 828 931 944 458 460 554 742 843 1136 547 556 459 836 834 1042 552 458 556 645 827 1133 641 462 555 1025 833 857 555 461 556 919 740 759 551 461 651 834 740 1043 552 551 556 928 839 947 554 459 558 741 928 1026 645 461 459 933 740 1236 552 462 461 838 741 1027 648 461 558 836 1024 947 550 556 459 1020 837 1023 552 462 459 921 833 860 553 461 462 737 926 1120 553 555 461 835 928 1214 552 459 558 833 1023 1241 555 462 462 750 931 1048 551 459 558 834 1021 1042 553 462 555 933 556 926 639 555 554 837 833 1019 648 461 558 739 742 831 459 550 460 742 742 832 653 555 556 741 554 944 456 552 553 647 739 948 458 557 552 551 742 1026 460 557 554 550 744 947 550 553 556 1023 928 947 554 462 557 836 930 929 556 554 558 649 738 1023 556 462 558 646 927 924 646 461 557 740 924 928 644 463 464 748 743 950 648 459 559 834 745 934 551 460 555 834 835 933 555 556 556 832 837 836 552 557 558 743 835 1030 643 461 556 837 1026 1028 554 550 558 650 836 1310 552 559 460 934 929 929 643 554 554 650 647 1136 553 459 463 930 836 929 649 461 556 1016 927 1143 649 462 556 838 738 833 548 552 556 743 840 836 553 556 647 932 842 745 553 556 555 651 931 1025 551 556 555 742 837 931 554 462 557 744 746 932 556 460 649 744 836 930 558 460 652 744 836 743 458 460 554 741 839 931 556 462 647 738 742 836 556 460 649 932 834 1021 553 463 647 745 931 931 555 557 653 930 1208 1121 649 463 745 933 834 839 554 462 650 842 1027 835 548 459 558 744 741 1027 552 463 559 933 1122 834 547 556 560 841 1028 831 553 552 556 742 742 1123 455 463 556 654 841 1032 552 461 561 653 931 925 551 462 553 838 746 744 455 463 553 837 745 1028 553 464 556 745 745 1029 553 461 551 648 929 834 554 464 462 835 925 934 553 463 550 935 651 934 646 559 560 937 924 832 553 553 462 931 930 1116 554 464 464 924 834 1124 649 556 555 650 836 1121 559 462 557 842 834 1024 558 555 554 651 745 930 553 554 557 1030 744 742 553 559 552 838 835 1024 560 464 557 933 1031 1118 644 463 464 744 1029 930 558 461 555 938 840 838 557 464 462 743 838 931 555 461 462 839 837 838 558 464 654 933 930 834 550 464 648 839 839 1128 550 460 557 747 930 741 555 553 464 841 1028 743 556 462 559 836 745 931 652 553 461 649 842 937 556 461 560 748 840 1120 553 462 459 745 650 927 645 463 559 654 654 1111 648 462 552 645 1027 1026 647 463 558 654 933 929 460 464 559 842 746 747 552 463 653 928 934 928 460 464 746 932 650 840 645 461 557 741 841 1029 651 557 556 744 747 839 559 462 557 741 746 744 459 558 648 742 744 1020 654 554 556 937 649 1028 458 556 560 934 745 1019 459 556 558 937 839 933 552 462 560 941 839 1027 559 462 458 654 839 1027 560 462 559 845 939 935 649 463 562 845 652 741 460 554 644 930 743 1027 556 554 560 936 845 744 558 556 559 745 840 1030 558 462 645 843 929 738 643 462 649 840 838 840 555 458 557 654 751 929 556 462 467 747 557 822 652 462 561 842 649 829 556 464 552 747 744 837 554 462 558 935 749 826 642 464 464 653 740 839 557 464 462 644 936 837 462 463 558 654 751 831 555 462 556 655 846 1023 555 461 558 648 746 929 557 461 463 751 747 841 553 463 465 749 1027 743 651 461 558 838 929 837 555 462 460 840 651 653 651 464 464 845 649 834 554 462 557 651 929 842 461 465 651 746 838 928 553 557 653 657 747 939 656 555 652 649 842 842 554 464 658 938 746 841 561 458 556 654 933 940 654 462 560 742 744 742 551 459 558 845 935 933 656 463 465 846 842 840 555 458 555 744 937 833 559 462 654 654 939 842 556 459 467 649 653 933 660 559 654 748 745 841 556 560 652 655 936 748 660 560 655 653 557 930 655 465 650 653 836 926 463 465 560 743 649 1020 559 463 461 751 842 830 556 464 560 746 840 1029 558 461 462 649 746 919 557 462 464 654 845 837 553 465 464 844 843 1022 556 560 563 843 943 839 557 557 561 846 746 936 556 558 466 750 745 735 552 553 651 749 839 744 647 460 560 747 835 1132 654 556 652 742 937 935 652 464 655 842 1027 931 649 465 653 748 840 1032 555 462 651 750 943 841 461 465 558 746 843 843 463 462 655 657 942 839 556 560 653 655 755 823 461 464 561 749 751 1035 459 460 649 940 847 848 563 463 562 749 652 1127 557 462 562 846 656 750 556 462 560 754 652 653 559 556 558 748 553 928 562 466 654 555 748 847 556 465 649 556 651 842 557 463 557 652 653 1132 557 465 651 557 841 1040 558 466 560 749 847 936 557 465 561 754 748 827 558 463 463 751 846 920 558 464 465 752 942 740 556 465 559 936 749 829 556 466 559 754 744 832 557 464 654 746 1031 842 558 460 562 847 940 746 555 464 561 654 843 843 555 461 652 838 657 846 654 462 561 656 755 930 558 465 561 851 654 749 646 462 657 656 654 835 557 467 562 847 752 740 559 465 561 942 750 934 558 465 560 846 650 827 560 465 466 754 846 930 563 464 561 750 851 739 556 462 565 748 940 829 551 465 563 847 748 837 648 464 561 752 748 930 557 465 654 942 847 841 562 466 561 661 848 831 553 463 658 666 747 1026 560 465 562 653 843 745 563 465 658 749 752 827 560 560 465 658 650 926 556 561 467 851 651 646 648 465 467 657 558 932 558 465 559 656 751 928 651 467 562 656 649 741 557 466 567 654 938 831 462 466 559 752 844 829 559 466 561 848 655 735 556 465 563 849 844 736 560 466 562 848 845 734 554 465 561 751 753 827 554 464 661 841 644 742 656 463 560 751 853 826 561 463 565 657 655 836 555 464 562 565 752 827 560 466 464 845 748 736 655 465 563 751 940 929 560 467 558 947 944 736 555 464 564 747 659 834 553 465 558 657 847 739 561 559 563 851 561 740 560 560 558 939 843 930 563 466 560 854 656 926 561 467 560 752 847 832 656 466 469 751 658 929 555 559 563 849 848 926 559 465 655 658 750 927 653 561 655 750 941 922 557 466 562 659 751 643 558 559 563 844 647 829 557 467 561 746 748 840 655 463 567 755 846 744 559 561 469 746 743 829 561 468 564 846 754 1028 556 561 558 564 937 645 557 462 556 739 851 735 565 462 561 654 561 834 559 464 559 750 753 833 556 466 561 446 850 741 656 463 559 753 850 645 656 464 462 754 743 743 558 465 467 660 753 740 751 463 465 660 755 642 554 465 466 563 838 549 654 560 467 659 753 738 655 555 562 751 229 740 560 467 467 745 658 743 561 465 561 753 467 740 465 464 463 747 465 735 562 562 560 945 463 737 465 467 560 948 650 928 554 467 463 650 853 838 564 468 563 655 660 928 651 563 465 658 847 927 561 466 562 755 653 930 561 464 562 852 755 746 559 468 467 842 562 837 557 467 562 851 660 927 556 466 467 838 663 1033 559 468 467 563 847 933 558 468 563 661 555 733 561 467 561 752 559 940 561 467 562 755 350 743 560 466 464 761 350 834 560 468 563 465 563 740 559 468 464 854 561 836 557 466 463 747 662 837 564 463 468 659 657 745 559 461 560 749 563 745 460 466 464 560 655 936 658 468 468 854 844 648 654 466 563 755 843 837 563 468 565 756 656 646 653 467 464 751 657 740 562 467 561 755 659 649 557 467 562 655 752 647 561 562 562 657 550 644 562 466 657 657 752 831 562 466 563 832 754 745 560 465 468 652 654 931 464 468 657 755 743 837 654 463 654 855 743 836 465 468 563 848 744 833 653 468 658 857 744 842 465 467 566 649 745 834 463 464 568 660 661 741 559 468 566 748 659 739 559 464 568 748 561 648 558 467 553 553 562 937 563 564 554 657 454 935 558 466 655 758 740 739 560 467 657 653 939 737 462 464 564 648 747 737 567 467 566 645 840 845 462 564 563 645 740 934 563 563 560 661 757 552 548 467 557 553 656 746 560 564 564 655 750 742 553 468 557 660 753 838 648 467 563 468 656 742 657 467 458 847 747 932 550 561 648 562 747 747 558 464 454 646 649 737 654 467 455 538 755 747 565 467 556 752 755 645 550 467 565 646 647 350 463 564 560 741 535 836 464 466 562 743 840 835 463 466 565 652 542 744 561 468 559 350 633 936 465 465 567 552 229 742 545 465 564 648 468 742 660 466 556 454 229 739 652 465 553 554 468 746 643 464 470 744 229 746 650

Tree=0
num_leaves=4
num_cat=0
split_feature=84 793 648
split_gain=6429.69 201.362 7.18001
threshold=0.42949691414833074 0.69893679022789013 2.1799396276474003
decision_type=2 2 2
left_child=1 2 -1
right_child=-2 -3 -4
leaf_value=-1.8217302610128334 -1.6428718551998696 -1.678816704167805 -1.780977730572072
leaf_weight=1128.2972546219826 217.55605764687061 7.9923308193683615 3.3354730159044257
leaf_count=6768 1307 48 20
internal_value=-1.79193 -1.8205 -1.8216
internal_weight=1357.18 1139.63 1131.63
internal_count=8143 6836 6788
is_linear=0
shrinkage=1


Tree=1
num_leaves=6
num_cat=0
split_feature=96 147 96 96 147
split_gain=5061.02 1575.47 18.5707 16.2375 47.0761
threshold=0.66332688927650463 -0.95322731137275685 1.0000000180025095e-35 -1.6143990755081175 -1.0423029661178587
decision_type=2 2 2 2 2
left_child=2 -2 3 4 -1
right_child=1 -3 -4 -5 -6
leaf_value=-1.7276183100191413 -1.6425725316168394 -1.8206418356475136 -1.767179896440823 -1.8217280153237283 -1.8200523718583297
leaf_weight=5.6683834642171886 224.12031580507755 55.404277622699738 4.9983011633157721 1048.6586079150438 18.331230133771896
leaf_count=34 1343 332 30 6294 110
internal_value=-1.79137 -1.67786 -1.82089 -1.82117 -1.79641
internal_weight=1357.18 279.525 1077.66 1072.66 23.9996
internal_count=8143 1675 6468 6438 144
is_linear=0
shrinkage=1


Tree=2
num_leaves=10
num_cat=0
split_feature=626 163 26 3 626 521 89 48 3
split_gain=4118.37 1118.79 522.534 520.768 144.945 110.371 43.1362 61.3055 24.9138
threshold=-0.75891155004501332 1.0000000180025095e-35 1.7633165121078493 -1.0996001362800596 0.099618192762136473 2.2506752014160161 1.1185744404792788 2.0853750705718999 -1.2163351178169248
decision_type=2 2 2 2 2 2 2 2 2
left_child=1 3 5 8 -4 6 -2 -8 -1
right_child=2 -3 4 -5 -6 -7 7 -9 -10
leaf_value=-1.7393016753040935 -1.8217281360069542 -1.8210425828133689 -1.6528710191225355 -1.6431212216356064 -1.8169315497557166 -1.6745121801369653 -1.6757255890439116 -1.8172544789037017 -1.8198547667709688
leaf_weight=3.3346193879842785 1052.7034301161766 45.03336726129055 20.858763843774799 199.58890372514725 5.8352638185024253 3.6713677942752829 3.5044874399900419 6.3252345323562622 16.325678184628487
leaf_count=20 6318 270 125 1196 35 22 21 38 98
internal_value=-1.79148 -1.68544 -1.8172 -1.65757 -1.68846 -1.82052 -1.82114 -1.76102 -1.80417
internal_weight=1357.18 264.283 1092.9 219.249 26.694 1066.2 1062.53 9.82972 19.6603
internal_count=8143 1584 6559 1314 160 6399 6377 59 118
is_linear=0
shrinkage=1


Tree=3
num_leaves=12
num_cat=0
split_feature=25 615 615 175 502 279 615 45 131 25 140
split_gain=5071.98 903.291 214.447 185.41 74.5197 64.9556 22.1951 8.49169 2.26191 1.41321 2.29086
threshold=-0.94270753860473622 -0.20642209798097608 1.8992947936058047 0.16120582073926928 -0.45296406745910639 0.25040382146835333 1.5795331001281741 0.29138809442520147 -1.8662987947463987 -0.89972773194313038 -0.47258731722831721
decision_type=2 2 2 2 2 2 2 2 2 2 2
left_child=1 5 6 4 -3 -1 9 -4 -7 10 -2
right_child=2 3 7 -5 -6 8 -8 -9 -10 -11 -12
leaf_value=-1.707712676208414 -1.8166830382771377 -1.7877808369718766 -1.6630847716384827 -1.8166793692956942 -1.6426200374307725 -1.7933314475282693 -1.7676741933077147 -1.7462092540578413 -1.8207594557498223 -1.8216727428369781 -1.7877808369718766
leaf_weight=4.5044891238212577 5.500649482011795 3.3307780623435965 6.1745731085538846 5.495954528450965 211.60386241972446 3.3307780623435965 6.1639027595520011 3.3333389461040497 32.000053882598877 1072.4119576662779 3.3307780623435956
leaf_count=27 33 20 37 33 1268 20 37 20 192 6436 20
internal_value=-1.79168 -1.67288 -1.81995 -1.64922 -1.64483 -1.80403 -1.82123 -1.68483 -1.81837 -1.82156 -1.80618
internal_weight=1357.18 260.266 1096.92 220.431 214.935 39.8353 1087.41 9.50791 35.3308 1081.24 8.83143
internal_count=8143 1560 6583 1321 1288 239 6526 57 212 6489 53
is_linear=0
shrinkage=1


Tree=4
num_leaves=11
num_cat=0
split_feature=20 20 519 586 21 126 70 20 107 68
split_gain=2508.41 3676.68 238.19 31.9762 31.3003 15.8943 7.06224 6.54886 3.19003 3.00207
threshold=0.045058976858854301 0.66163200139999401 1.6252731680870058 0.3246817290782929 0.16843987256288531 -0.38323812186717982 0.63191524147987377 0.014893614687025549 0.4619810432195664 0.044369345530867584
decision_type=2 2 2 2 2 2 2 2 2 2
left_child=3 2 5 7 -5 -2 -3 8 -1 -10
right_child=1 6 -4 4 -6 -7 -8 -9 9 -11
leaf_value=-1.8216551009746105 -1.642467082466045 -1.8216089510347411 -1.8142122143707584 -1.8153684361177398 -1.7047860693106835 -1.732492997707527 -1.7809174204885672 -1.7891336489875 -1.7809737154419032 -1.815166244882787
leaf_weight=889.22856976091862 215.22442764043808 218.22059136629105 7.3423087745904914 4.1634725779294959 3.3290708065032959 3.665819212794303 3.329070806503295 5.3376104533672324 3.3350462019443503 4.0051285028457642
leaf_count=5332 1293 1311 44 25 20 22 20 32 20 24
internal_value=-1.79215 -1.73411 -1.64931 -1.82077 -1.76213 -1.64368 -1.82094 -1.82129 -1.82149 -1.79984
internal_weight=1357.18 447.782 226.233 909.399 7.49254 218.89 221.55 901.906 896.569 7.34017
internal_count=8143 2690 1359 5453 45 1315 1331 5408 5376 44
is_linear=0
shrinkage=1


Tree=5
num_leaves=3
num_cat=0
split_feature=486 634
split_gain=6536.42 139.835
threshold=1.0391086339950564 1.2183672785758974
decision_type=2 2
left_child=1 -1
right_child=-2 -3
leaf_value=-1.8217303428788503 -1.6431221547019408 -1.6696068015963437
leaf_weight=1131.4701154232025 221.21675509214401 4.4942455887794486
leaf_count=6787 1329 27
internal_value=-1.79193 -1.82102
internal_weight=1357.18 1135.96
internal_count=8143 6814
is_linear=0
shrinkage=1


Tree=6
num_leaves=6
num_cat=0
split_feature=85 23 503 544 535
split_gain=5385.88 251.231 23.1505 21.9905 2.48351
threshold=0.32464013993740087 1.2163257598876955 0.41783924400806433 0.57129439711570751 0.10178234428167345
decision_type=2 2 2 2 2
left_child=1 3 -2 4 -1
right_child=2 -3 -4 -5 -6
leaf_value=-0.029784613909978531 0.036156767512684339 0.11374404085245302 0.1291752401365307 0.033783814944133995 -0.002644377364214284
leaf_weight=1096.5430782437325 3.4643351584672919 10.17145451903343 237.90461342036724 4.1047651916742316 3.4912190586328498
leaf_count=6747 20 55 1276 24 21
internal_value=-0.000167801 -0.0280241 0.128007 -0.0294346 -0.0297037
internal_weight=1355.68 1114.31 241.369 1104.14 1100.03
internal_count=8143 6847 1296 6792 6768
is_linear=0
shrinkage=0.03


Tree=7
num_leaves=6
num_cat=0
split_feature=40 23 40 96 40
split_gain=5632.25 49.0309 19.4669 49.514 5.20894
threshold=0.74036732316017162 -0.14896504580974576 -1.9332637786865232 0.66332688927650463 0.58772453665733349
decision_type=2 2 2 2 2
left_child=2 -2 3 -1 -4
right_child=1 -3 4 -5 -6
leaf_value=-0.028036222148866381 0.010118806105128803 0.12894343415993889 -0.029728722179377363 0.064608529007597545 0.0011393034201415714
leaf_weight=17.39417497813702 3.4001417160034171 250.70457850396633 1073.9741152226925 6.2319685816764823 4.6819269955158225
leaf_count=107 20 1342 6611 35 28
internal_value=0.000370998 0.127411 -0.0290013 -0.00184586 -0.029591
internal_weight=1356.39 254.105 1102.28 23.6261 1078.66
internal_count=8143 1362 6781 142 6639
is_linear=0
shrinkage=0.03


Tree=8
num_leaves=14
num_cat=0
split_feature=98 618 602 808 1 137 128 98 128 98 44 713 623
split_gain=2852.64 1496.5 471.317 332.351 153.693 141.517 93.7657 44.6069 28.9747 30.0513 5.48869 3.32664 1.66317
threshold=-0.69721922278404225 -0.92085412144660939 1.0114133358001711 0.36752317845821386 0.58374613523483287 2.2033874988555913 -0.031596437096595757 -0.39162501692771906 1.3188813328742983 -0.06486769393086432 -0.97636157274246205 0.070038355886936202 1.7154830694198611
decision_type=2 2 2 2 2 2 2 2 2 2 2 2 2
left_child=1 6 5 4 -3 8 10 -4 11 -10 -1 12 -2
right_child=2 3 7 -5 -6 -7 -8 -9 9 -11 -12 -13 -14
leaf_value=0.0041319607647330066 -0.02974813959755147 0.12874974993840463 0.12403476731166976 -0.025554587540116726 -0.024901349773433914 0.11139263798225206 0.083286996061095048 0.0037833129706116779 0.079650430029400074 -0.024071975402487119 -0.029478978736732775 -0.0027888572539978809 -0.0086818203388214551
leaf_weight=4.1829391419887534 967.77053321897984 219.78473062813282 19.341079190373424 13.694749623537062 5.6801460683345786 5.5315757095813742 6.3558620363473883 3.3493842035531989 3.6073302179574966 4.7164016962051374 92.593617096543312 4.6323249489068976 4.7875602692365637
leaf_count=25 5959 1176 104 84 35 30 35 20 20 29 569 28 29
internal_value=0.00027078 0.0750269 -0.025017 0.116082 0.124773 -0.0281551 -0.0203489 0.10732 -0.0290535 0.024279 -0.0279681 -0.0295352 -0.0296565
internal_weight=1356.03 342.292 1013.74 239.16 225.465 991.046 103.132 22.6905 985.514 8.32373 96.7766 977.19 972.558
internal_count=8143 1924 6219 1295 1211 6095 629 124 6065 49 594 6016 5988
is_linear=0
shrinkage=0.03


Tree=9
num_leaves=12
num_cat=0
split_feature=601 144 644 648 162 601 34 648 644 601 29
split_gain=4404.18 459.617 329.754 92.6365 55.34 48.7087 123.619 24.2744 53.0392 5.44653 41.5647
threshold=-1.2798887491226194 -0.17921888828277585 0.46378913521766668 0.065309673547744765 -0.097695317119359956 -1.1694774627685545 1.5039770603179934 -1.1534302830696104 0.33609488606452947 -1.0441942811012266 1.4969560503959658
decision_type=2 2 2 2 2 2 2 2 2 2 2
left_child=1 2 4 -4 -1 6 -2 8 -6 10 -7
right_child=5 -3 3 -5 7 9 -8 -9 -10 -11 -12
leaf_value=0.03027443277117112 -0.028218190018684471 -0.027141027179492169 -0.026628907212737387 0.10796384988278203 0.10969398784378476 -0.028701676322871145 0.11060816989522471 0.12847036169413598 -0.022427867802165477 -0.02975184049290773 0.069579261849974219
leaf_weight=6.3897984176874152 19.370984464883808 22.21332611143589 18.338376834988598 5.0394989550113669 8.1708992272615415 28.433501303195957 7.0616148114204398 229.41748054325581 3.4251871407032004 1004.5296658277512 3.4812743067741385
leaf_count=37 119 136 112 27 44 175 39 1229 21 6184 20
internal_value=7.65298e-05 0.102857 0.113593 0.00550039 0.123731 -0.0283233 0.0114407 0.126061 0.0717481 -0.0293503 -0.0161018
internal_weight=1355.87 292.995 270.781 23.3779 247.403 1062.88 26.4326 241.014 11.5961 1036.44 31.9148
internal_count=8143 1606 1470 139 1331 6537 158 1294 65 6379 195
is_linear=0
shrinkage=0.03


Tree=10
num_leaves=9
num_cat=0
split_feature=644 644 646 504 646 504 133 501
split_gain=2211.27 2822.04 406.146 56.4492 35.6244 86.906 24.9221 14.3386
threshold=0.40138618648052221 1.0555636286735537 0.91137734055519115 -0.15290533006191251 0.47345922887325292 -0.77668207883834828 -0.08492532372474669 0.39401724934577947
decision_type=2 2 2 2 2 2 2 2
left_child=4 2 3 -2 5 7 -3 -1
right_child=1 6 -4 -5 -6 -7 -8 -9
leaf_value=0.023819812933912353 0.12914892376633899 -0.029661469794864961 -0.027918965024707403 0.0035231965976642351 -0.029740576832264852 -0.028337040996504324 0.043009619707592331 0.11257343699821054
leaf_weight=3.3883359879255313 241.12125886976719 213.55294255912304 15.758150905370711 3.3699872940778723 849.18359200656414 21.001196071505547 3.4568295925855628 4.6346853226423264
leaf_count=20 1293 1316 96 20 5223 129 20 26
internal_value=-0.000382314 0.0515305 0.117961 0.127451 -0.0286241 0.00384345 -0.0282981 0.0822169
internal_weight=1355.47 477.259 260.249 244.491 878.208 29.0242 217.01 8.02302
internal_count=8143 2745 1409 1313 5398 175 1336 46
is_linear=0
shrinkage=0.03


Tree=11
num_leaves=4
num_cat=0
split_feature=486 106 158
split_gain=5606.18 116.744 1.00687
threshold=1.0391086339950564 1.0699573159217837 1.494674861431122
decision_type=2 2 2
left_child=1 2 -1
right_child=-2 -3 -4
leaf_value=-0.029782665159906067 0.12847699019521122 0.10815411611333378 -0.0083492970015786854
leaf_weight=1099.8431747406721 247.9607989937067 4.5899374186992636 3.2993550002574912
leaf_count=6769 1329 25 20
internal_value=-0.000168521 -0.0290578 -0.0297289
internal_weight=1355.69 1107.73 1103.14
internal_count=8143 6814 6789
is_linear=0
shrinkage=0.03


Tree=12
num_leaves=4
num_cat=0
split_feature=84 544 75
split_gain=4822.54 165.483 14.1225
threshold=0.42949691414833074 0.58282485604286205 0.58702257275581371
decision_type=2 2 2
left_child=1 2 -1
right_child=-2 -3 -4
leaf_value=-0.029603489488769029 0.11370586411025653 0.0986974507156098 0.021596557647033065
leaf_weight=1071.9310055524111 267.36651334166527 8.1950138360261899 4.1348828673362723
leaf_count=6770 1307 42 24
internal_value=-0.00016282 -0.0283232 -0.0293841
internal_weight=1351.63 1084.26 1076.07
internal_count=8143 6836 6794
is_linear=0
shrinkage=0.03


Tree=13
num_leaves=6
num_cat=0
split_feature=40 23 40 576 40
split_gain=4925.04 37.6195 19.2645 45.7275 5.14097
threshold=0.74036732316017162 -0.14896504580974576 -1.9332637786865232 0.92687904834747326 0.58772453665733349
decision_type=2 2 2 2 2
left_child=2 -2 3 -1 -4
right_child=1 -3 4 -5 -6
leaf_value=-0.027827424124145319 0.0097747209234277412 0.11375651442218918 -0.029545414032305737 0.060145975278231525 0.0011165777469860478
leaf_weight=16.959961071610454 3.4305175542831412 275.17670828104019 1046.2148855477571 6.5523604005575171 4.6833839565515509
leaf_count=107 20 1342 6611 35 28
internal_value=0.000357174 0.112526 -0.0288044 -0.00173526 -0.029405
internal_weight=1353.02 278.607 1074.41 23.5123 1050.9
internal_count=8143 1362 6781 142 6639
is_linear=0
shrinkage=0.03


Tree=14
num_leaves=15
num_cat=0
split_feature=146 618 113 4 2 118 624 650 522 858 233 113 78 233
split_gain=3255.81 895.972 202.174 252.688 151.267 78.0494 61.2397 25.7914 8.84308 4.42191 3.07862 2.89206 0.229346 0.205365
threshold=-0.51502984762191761 -1.0185755491256712 1.0101364254951479 -0.36694073677062983 -2.4849334359169002 0.36683204770088201 1.4433423280715945 1.3149644732475283 1.8449578285217287 -0.17015737295150754 -0.067162677645683275 -0.42922458052635187 0.13604199886322024 0.073227968066930785
decision_type=2 2 2 2 2 2 2 2 2 2 2 2 2 2
left_child=1 6 5 -4 7 8 9 12 10 -1 11 -2 -3 -12
right_child=2 4 3 -5 -6 -7 -8 -9 -10 -11 13 -13 -14 -15
leaf_value=-0.029075033600709961 -0.023179663762553548 -0.0081119017850990235 -0.028392190626688983 0.11159796305051385 0.11394804840573956 0.081272763687654362 0.070172289928852563 0.056524427281477364 0.0080636782906382057 0.0051160202318738055 -0.029567990072339463 0.010307978748314425 -0.024454082703901498 -0.015944514285542489
leaf_weight=54.2412069439888 4.0006397068500519 3.2617093920707685 24.667630389332771 20.359849750995636 243.12172581255436 4.8483543097972861 5.4997620582580558 5.8243777602910987 5.203850343823432 3.1778514832258216 963.86579197645187 3.3757389783859244 5.2564883679151535 5.6811891198158255
leaf_count=341 25 20 155 101 1186 25 29 31 31 19 6092 20 33 35
internal_value=0.000266386 0.0836594 -0.0256758 0.0358906 0.10838 -0.0285211 -0.0175639 0.0125257 -0.0291483 -0.0270762 -0.0293576 -0.00809516 -0.0200214 -0.0295078
internal_weight=1352.39 320.383 1032 45.0275 257.464 986.976 62.9188 14.3426 982.127 57.4191 976.923 7.37638 8.5182 969.547
internal_count=8143 1659 6484 256 1270 6228 389 84 6203 360 6172 45 53 6127
is_linear=0
shrinkage=0.03


Tree=15
num_leaves=12
num_cat=0
split_feature=25 663 127 25 133 567 644 499 25 133 957
split_gain=3945.41 546.344 139.972 78.4473 153.563 55.2448 20.0626 4.43679 1.79628 6.87255 0.796993
threshold=-0.94270753860473622 1.0000000180025095e-35 -0.81522533297538746 -0.82991403341293324 0.81088843941688549 0.0066753947176039228 0.51768136024475109 1.2975084781646731 -0.77188366651535023 -0.21312069892883298 -0.024676400236785408
decision_type=2 2 2 2 2 2 2 2 2 2 2
left_child=1 5 6 4 -2 -1 -3 8 9 -5 -7
right_child=3 2 -4 7 -6 10 -8 -9 -10 -11 -12
leaf_value=0.070764960618298692 -0.028229705515798308 0.11371404556681698 -0.02178604848885551 -0.027089453724810295 0.1067052902560411 -0.0080686330063735115 0.031811909016465766 0.0031661769359048464 -0.02950995987764226 0.01701484118697634 -0.028638061046461848
leaf_weight=5.1656377464532843 21.375838816165928 259.39671829342842 6.8128192722797385 11.74390125274658 10.514213606715201 3.259656533598899 3.7633765041828147 3.4410754591226569 993.74204175174236 3.3887217342853537 29.435259908437729
leaf_count=27 134 1266 42 74 54 20 21 21 6280 20 184
internal_value=7.76743e-05 0.0942884 0.109207 -0.0277566 0.0180591 -0.0120859 0.112679 -0.0292192 -0.0293357 -0.0165845 -0.0269767
internal_weight=1352.04 307.833 269.973 1044.21 31.8901 37.8606 263.16 1012.32 1008.87 15.1326 32.6949
internal_count=8143 1560 1329 6583 188 231 1287 6395 6374 94 204
is_linear=0
shrinkage=0.03


Tree=16
num_leaves=10
num_cat=0
split_feature=596 596 504 586 501 634 792 596 654
split_gain=2103.64 2541.84 204.892 35.4434 31.6656 5.10966 10.2419 0.406002 5.56787
threshold=0.20130423456430438 1.2602190375328066 -0.081394158303737627 0.3246817290782929 0.19263490289449695 0.37804763019084936 0.2149084955453873 0.1056809462606907 -0.30641292035579676
decision_type=2 2 2 2 2 2 2 2 2
left_child=3 2 -2 5 -5 7 -7 -1 -9
right_child=1 -3 -4 4 -6 6 -8 8 -10
leaf_value=-0.02955674444012121 0.11353704331114357 -0.029479978709046541 -0.023976034934469346 -0.023650816178061217 0.082640927240369949 0.02967497989171056 -0.02604262846389015 0.01104885168978644 -0.027941766764637575
leaf_weight=822.55768105387688 268.51579315960407 209.50821460783482 9.7516946941614133 4.352087050676344 3.9851033538579941 3.4458665549755079 7.9799115210771561 3.3060053884983089 17.855362832546234
leaf_count=5194 1314 1325 60 27 21 20 50 20 112
internal_value=-0.000372733 0.0493692 0.108639 -0.0284997 0.0302438 -0.0291106 -0.00796163 -0.0293837 -0.0214913
internal_weight=1351.26 487.776 278.267 863.482 8.33719 855.145 11.4258 843.719 21.1614
internal_count=8143 2699 1374 5444 48 5396 70 5326 132
is_linear=0
shrinkage=0.03


Tree=17
num_leaves=4
num_cat=0
split_feature=644 154 524
split_gain=4899.38 100.432 13.3817
threshold=1.0555636286735537 1.2169369459152224 0.35145846009254461
decision_type=2 2 2
left_child=1 -1 -2
right_child=2 -3 -4
leaf_value=-0.029574922288527865 0.11396711423039409 0.095127496511140691 0.039367835222355249
leaf_weight=1073.802562713623 269.34037524461746 4.8871783912181845 3.6557463556528083
leaf_count=6783 1316 24 20
internal_value=-0.000166314 -0.0289196 0.113126
internal_weight=1351.69 1078.69 272.996
internal_count=8143 6807 1336
is_linear=0
shrinkage=0.03


Tree=18
num_leaves=5
num_cat=0
split_feature=564 840 541 805
split_gain=4288.78 135.444 12.0922 1.34048
threshold=0.41095642745494848 -1.9032651185989378 0.21507738530635837 0.36034229397773748
decision_type=2 2 2 2
left_child=1 -1 3 -3
right_child=-2 2 -4 -5
leaf_value=0.088582183406269138 0.1020985583638271 -0.0294274958386554 0.020770815853102188 -0.010673076881801778
leaf_weight=7.914959415793418 288.73456111550331 1039.4675139039755 3.6220977902412406 5.4150515198707572
leaf_count=38 1307 6743 21 34
internal_value=-0.000158696 -0.02818 -0.0291479 -0.0293435
internal_weight=1345.15 1056.42 1048.5 1044.88
internal_count=8143 6836 6798 6777
is_linear=0
shrinkage=0.03


Tree=19
num_leaves=6
num_cat=0
split_feature=520 150 40 147 520
split_gain=4374.58 33.2622 19.0399 43.9567 4.69243
threshold=0.87497478723526012 -0.29944384098052973 -1.9332637786865232 -1.0757308602333067 0.69734740257263195
decision_type=2 2 2 2 2
left_child=2 -2 3 -1 -4
right_child=1 -3 4 -5 -6
leaf_value=0.061856044981502968 0.10226910787500768 0.010952247209259122 -0.029367311730341357 -0.026209086357260422 0
leaf_weight=6.0675336718559292 296.22325493395329 3.9660995155572882 1018.5138675868511 17.321057632565498 5.0420812070369712
leaf_count=32 1338 22 6611 110 30
internal_value=0.000345648 0.101113 -0.0286133 -0.00164046 -0.0292245
internal_weight=1347.13 300.189 1046.94 23.3886 1023.56
internal_count=8143 1360 6783 142 6641
is_linear=0
shrinkage=0.03


Tree=20
num_leaves=13
num_cat=0
split_feature=185 856 2 502 4 608 4 608 2 32 2 608
split_gain=3572.64 319.991 211.774 152.411 88.9123 38.0807 57.5309 8.91715 5.07963 13.4482 0.302294 2.97502
threshold=1.7310922741889956 -0.58895540237426747 -0.79745233058929432 0.43156418204307562 -0.89991331100463856 1.1508832573890688 -0.36694073677062983 -0.051277892664074891 -0.70861825346946705 -0.39845603704452509 -0.64490285515785206 -0.93932345509529103
decision_type=2 2 2 2 2 2 2 2 2 2 2 2
left_child=2 -2 3 7 -5 8 -7 -1 9 -4 11 -10
right_child=1 -3 5 4 -6 6 -8 -9 10 -11 -12 -13
leaf_value=-0.028189419264496682 -0.027805822707958297 0.10250433809439639 -0.02669482355064294 -0.025033398856456529 0.098864429141311133 -0.026376465249703478 0.087636217875089878 0.016670746408669997 -0.027035244711369914 0.034334097241856376 -0.029423731697812611 0.0026997356702802154
leaf_weight=23.337809279561046 17.662045255303383 267.47234492003918 10.5597638040781 6.0366954952478435 24.964106172323227 9.4512827545404416 5.4779187589883795 3.99147905409336 12.236404642462729 3.5390457957983008 958.17236259579659 3.4766443669795981
leaf_count=150 113 1214 68 38 113 61 25 22 79 19 6220 21
internal_value=0.000262495 0.0943531 -0.0250799 0.0300845 0.0746161 -0.0283181 0.0181448 -0.0211744 -0.0290408 -0.00991746 -0.0293042 -0.0205087
internal_weight=1346.38 285.134 1061.24 58.3301 31.0008 1002.91 14.9292 27.3293 987.984 14.0988 973.885 15.713
internal_count=8143 1327 6816 323 151 6493 86 172 6407 87 6320 100
is_linear=0
shrinkage=0.03


Tree=21
num_leaves=11
num_cat=0
split_feature=601 624 646 22 22 130 492 140 601 601
split_gain=3524.7 326.25 325.77 53.9619 50.693 36.9529 29.2531 13.1661 35.0298 1.81274
threshold=-1.2594215869903562 1.0000000180025095e-35 0.52003446221351635 -0.12413113191723822 0.44429253041744238 3.0837386846542363 0.62277293205261242 0.83463194966316234 -0.69368058443069447 -1.2373588681221006
decision_type=2 2 2 2 2 2 2 2 2 2
left_child=1 2 3 -1 -4 7 -7 9 -9 -2
right_child=5 -3 4 -5 -6 6 -8 8 -10 -11
leaf_value=-0.028246157346895305 -0.0069315492471126129 -0.026855932483907493 0.10171900713512279 0.067148677787820868 -0.0095535233252614614 0.082336801019172956 -0.022792820520878172 0.067455800824583564 -0.027006939895275257 -0.029272973762925512
leaf_weight=22.131264805793766 4.3527662903070441 22.183826744556427 287.52413006126881 5.9377063363790503 3.516269013285636 3.9710259586572638 3.8575340658426285 3.8408596217632285 12.068648695945738 976.51489351689816
leaf_count=140 27 142 1305 29 21 19 25 20 78 6337
internal_value=7.67819e-05 0.0832301 0.0909524 -0.00634737 0.100336 -0.0282245 0.0334801 -0.0287452 -0.00138385 -0.029184
internal_weight=1345.9 341.293 319.109 28.069 291.04 1004.61 7.82856 996.777 15.9095 980.868
internal_count=8143 1637 1495 169 1326 6506 44 6462 98 6364
is_linear=0
shrinkage=0.03


Tree=22
num_leaves=10
num_cat=0
split_feature=500 596 648 586 140 22 152 152 505
split_gain=1977.36 2191.35 166.025 29.2782 24.3787 3.56719 2.59825 1.03943 0.320334
threshold=0.28830644488334661 1.2602190375328066 0.27387382090091711 0.3246817290782929 -0.74650555849075306 -0.53053495287895192 -1.4030719995498655 0.9397985339164735 -1.1207261085510252
decision_type=2 2 2 2 2 2 2 2 2
left_child=3 2 -2 5 -5 6 -1 -7 -4
right_child=1 -3 8 4 -6 7 -8 -9 -10
leaf_value=-0.021795341831118923 0.1019953928067639 -0.029298519303708356 -0.025394349073311274 -0.023202587087572377 0.071926762537044719 -0.029347882148926207 0.011329777157221046 -0.0076255251587785712 -0.0080794642711572509
leaf_weight=3.2342062592506409 290.76038418710232 203.90040799975395 6.5694735646247864 4.0039135664701462 3.9056692272424689 822.61182342469692 3.2767985910177222 3.1898724585771552 3.2508473843336088
leaf_count=21 1318 1325 41 25 20 5333 20 20 20
internal_value=-0.000364812 0.0465287 0.097903 -0.0285457 0.0262353 -0.0291008 -0.00543613 -0.0292769 -0.0212162
internal_weight=1344.7 504.481 300.581 840.222 7.90958 832.313 6.511 825.802 9.82032
internal_count=8143 2704 1379 5439 45 5394 41 5353 61
is_linear=0
shrinkage=0.03


Tree=23
num_leaves=3
num_cat=0
split_feature=164 154
split_gain=4372.29 93.2611
threshold=1.0533275604248049 1.2169369459152224
decision_type=2 2
left_child=1 -1
right_child=-2 -3
leaf_value=-0.02939779417000038 0.10208400958820379 0.087550924347817111
leaf_weight=1046.7566746473312 293.19423528015614 5.2213724106550208
leaf_count=6792 1327 24
internal_value=-0.000162328 -0.0287319
internal_weight=1345.17 1051.98
internal_count=8143 6816
is_linear=0
shrinkage=0.03


Tree=24
num_leaves=4
num_cat=0
split_feature=564 793 792
split_gain=3840.5 145.288 9.41646
threshold=0.41095642745494848 0.74030655622482311 0.96276897192001354
decision_type=2 2 2
left_child=1 2 -1
right_child=-2 -3 -4
leaf_value=-0.029255988723901456 0.092643606306334281 0.085593443539344907 0.016327219020005775
leaf_weight=1016.0711959004402 307.76792189478874 9.0884255319833738 3.4206194430589667
leaf_count=6775 1307 41 20
internal_value=-0.000153565 -0.0279859 -0.0290843
internal_weight=1336.35 1028.58 1019.49
internal_count=8143 6836 6795
is_linear=0
shrinkage=0.03


Tree=25
num_leaves=6
num_cat=0
split_feature=520 155 136 147 520
split_gain=3918.98 28.0715 18.8408 40.6948 4.64341
threshold=0.87497478723526012 -0.68611350655555714 -2.6736789941787715 -1.0757308602333067 0.69734740257263195
decision_type=2 2 2 2 2
left_child=2 -2 3 -1 -4
right_child=1 -3 4 -5 -6
leaf_value=0.057894542562852917 0.092798752515211053 0.0098701686851573722 -0.029193410479369724 -0.025975161120778922 0
leaf_weight=6.3418087214231518 315.76177927851677 4.0542225241661063 990.79228700697422 16.893459439277649 5.0326332300901404
leaf_count=32 1338 22 6611 110 30
internal_value=0.000335799 0.0917909 -0.0284248 -0.00151576 -0.0290475
internal_weight=1338.88 319.816 1019.06 23.2353 995.825
internal_count=8143 1360 6783 142 6641
is_linear=0
shrinkage=0.03


Tree=26
num_leaves=14
num_cat=0
split_feature=482 618 128 19 98 128 502 502 618 113 618 550 618
split_gain=2614.72 770.174 157.364 114.636 98.4771 65.0896 63.1756 27.8772 19.0328 2.84532 4.88618 2.48378 0.691753
threshold=-0.79666236042976368 -1.0185755491256712 1.1386452317237856 -0.68019592761993397 -1.544930040836334 -0.16345243155956266 1.2977195978164675 0.53765177726745617 1.4945738315582278 1.2003855705261233 0.095407456159591689 0.40401674807071691 1.2870033383369448
decision_type=2 2 2 2 2 2 2 2 2 2 2 2 2
left_child=1 5 6 -4 7 11 8 -3 9 12 -11 -1 -2
right_child=2 4 3 -5 -6 -7 -8 -9 -10 10 -12 -13 -14
leaf_value=-0.00058394569016760546 -0.029219008679789875 -0.022945119455969717 -0.026903881529027684 0.090246319702624922 0.092622624715520602 0.06434629358969389 0.067118990031051401 0.055775168370958139 0.033465692210782411 -0.025222310918699659 0.013776878964047579 -0.028852222509311996 -0.010868079607705292
leaf_weight=3.1917965561151496 910.49443203210831 8.4113563001155836 12.265011236071588 16.918725922703743 285.70242060720921 6.7357683330774298 5.3040577620267859 6.134898141026496 3.5836527943611136 6.9172119498252851 3.6484679132699966 64.883772030472755 3.915463685989379
leaf_count=20 6075 54 81 73 1213 32 25 30 19 46 21 429 25
internal_value=0.000256338 0.0673524 -0.025914 0.0416522 0.0887544 -0.0185404 -0.028071 0.0115144 -0.0286896 -0.0289695 -0.0114692 -0.0275979 -0.0291557
internal_weight=1338.11 375.06 963.047 29.1837 300.249 74.8113 933.863 14.5463 928.559 924.976 10.5657 68.0756 914.41
internal_count=8143 1778 6365 154 1297 481 6211 84 6186 6167 67 449 6100
is_linear=0
shrinkage=0.03


Tree=27
num_leaves=12
num_cat=0
split_feature=505 39 175 519 5 39 500 505 517 39 115
split_gain=3202.48 403.781 93.9596 78.9989 75.6969 45.7868 15.8866 8.61084 37.4878 5.67694 1.15083
threshold=-1.0228390097618101 -0.12884124368429181 0.17321752756834033 2.1053262948989873 0.69458782672882091 -4.5269829034805289 0.38181278109550482 -0.90220466256141651 1.189350485801697 -0.27000144124031061 1.5694646239280703
decision_type=2 2 2 2 2 2 2 2 2 2 2
left_child=1 5 6 7 -5 -1 -3 8 -2 -7 -9
right_child=3 2 -4 4 -6 9 -8 10 -10 -11 -12
leaf_value=0.060960644756728098 -0.027569454914544586 0.092778138376891972 -0.024827034734490716 -0.026217599528911693 0.09105503031266507 -0.028398400385928422 0.027473125161076802 -0.029189102589716309 0.070372673466784233 0.0092968228059917436 -0.0064307151396664529
leaf_weight=5.7335119843482962 17.001760452985767 298.83445562422276 5.9074537903070441 9.1562461405992526 8.9109989851713163 31.139904782176018 4.5564195960760108 946.43665394186974 3.3747197538614264 3.4425261020660392 2.9898112118244162
leaf_count=27 112 1268 38 60 40 204 24 6315 16 20 19
internal_value=7.66201e-05 0.0779811 0.0895888 -0.0275423 0.0332074 -0.0110113 0.0919007 -0.0287102 -0.00867486 -0.0244059 -0.0291274
internal_weight=1337.48 349.614 309.298 987.87 18.0672 40.3159 303.391 969.803 20.3765 34.5824 949.426
internal_count=8143 1581 1330 6562 100 251 1292 6462 128 224 6334
is_linear=0
shrinkage=0.03


Tree=28
num_leaves=10
num_cat=0
split_feature=500 500 600 106 140 102 107 654 106
split_gain=1838.98 1882.05 146.429 30.1525 24.5724 3.65251 2.94804 3.05834 0.100508
threshold=0.28830644488334661 1.4143448472023012 -0.25749203562736506 0.28479105234146124 -0.49460753798484797 0.880291908979416 0.4619810432195664 -0.049669489264488213 0.20658564567565921
decision_type=2 2 2 2 2 2 2 2 2
left_child=3 2 5 6 -5 -2 8 -8 -1
right_child=1 -3 -4 4 -6 -7 7 -9 -10
leaf_value=-0.029209400710640893 0.092565327244961457 -0.029120758221819178 -0.026389248944116792 -0.023389619628898191 0.069066860468719155 0.046971388954625846 0.011060930279733375 -0.023245068041137587 -0.016806325696976616
leaf_weight=795.59916673600674 306.81865428388119 196.8126237988472 9.2480558902025205 4.2406707555055618 4.3141786158084852 5.019450217485427 3.3008036315441132 4.1911764144897452 6.3008935749530783
leaf_count=5303 1305 1315 59 27 21 25 20 27 41
internal_value=-0.000357067 0.0438278 0.0885031 -0.0283566 0.0252706 0.0919935 -0.0289576 -0.00825465 -0.0291367
internal_weight=1335.85 517.899 321.086 817.947 8.55485 311.838 809.392 7.49198 801.9
internal_count=8143 2704 1389 5439 48 1330 5391 47 5344
is_linear=0
shrinkage=0.03


Tree=29
num_leaves=5
num_cat=0
split_feature=106 646 14 646
split_gain=3889.48 77.2035 4.22877 0.150962
threshold=0.87050911784172069 -0.49256862699985499 1.0923009514808657 -0.13117704540491101
decision_type=2 2 2 2
left_child=1 -1 3 -3
right_child=-2 2 -4 -5
leaf_value=0.069549002505971083 0.092429080298265187 -0.016194768015169326 0.002710062428721034 -0.029252361936948117
leaf_weight=6.2590660750865927 311.86607459187508 5.8640244901180258 3.4165817499160758 1008.9228315502405
leaf_count=28 1326 38 20 6731
internal_value=-0.0001593 -0.0284106 -0.0290833 -0.0291959
internal_weight=1336.33 1024.46 1018.2 1014.79
internal_count=8143 6817 6789 6769
is_linear=0
shrinkage=0.03


Tree=30
num_leaves=5
num_cat=0
split_feature=84 553 631 565
split_gain=3478.25 121.446 34.6869 2.76196
threshold=0.38356605172157293 0.45007629692554479 -1.0625612139701841 0.32384753227233892
decision_type=2 2 2 2
left_child=1 3 -2 -1
right_child=2 -3 -4 -5
leaf_value=-0.029092016443798236 0.085019934648905962 0.084472171073759594 -0.0046492267405500642 0
leaf_weight=979.65380774438381 328.52496416866779 7.6110000908374777 3.7625697106122962 3.0477238893508902
leaf_count=6716 1323 33 23 19
internal_value=0.000141859 -0.0280439 0.0839847 -0.0290034
internal_weight=1322.6 990.313 332.288 982.702
internal_count=8114 6768 1346 6735
is_linear=0
shrinkage=0.03


Tree=31
num_leaves=5
num_cat=0
split_feature=616 106 96 106
split_gain=3253.4 153.115 49.8755 150.576
threshold=0.19649054110050204 -0.18590275943279264 0.66332688927650463 -0.38342201709747309
decision_type=2 2 2 2
left_child=2 -2 -1 -4
right_child=1 -3 3 -5
leaf_value=-0.029059039954328916 0.085197961768300842 -0.026735918812958132 0.08569881679853035 -0.02838948768139983
leaf_weight=939.56253752112389 316.9839832931757 10.917340084910391 13.016107752919195 39.47993840277195
leaf_count=6445 1275 71 55 268
internal_value=-0.00038375 0.0813921 -0.0274706 0.000915192
internal_weight=1319.96 327.901 992.059 52.496
internal_count=8114 1346 6768 323
is_linear=0
shrinkage=0.03


Tree=32
num_leaves=16
num_cat=0
split_feature=122 181 41 576 524 576 136 39 118 118 169 576 138 608 32
split_gain=1767.35 596.456 434.31 291.456 153.688 110.07 56.514 38.6652 18.2525 12.3204 11.5694 8.19877 37.7078 4.33611 2.23937
threshold=0.012424468528479339 1.0078800320625307 1.6059984564781191 -1.3140055537223814 -0.81757742166519154 -0.80482798814773548 0.85396403074264537 0.64728984236717235 -0.55410552024841297 0.23604755103588107 -0.11858197674155234 -1.2085369825363157 -0.56980064511299122 1.2177782058715823 0.66945746541023265
decision_type=2 2 2 2 2 2 2 2 2 2 2 2 2 2 2
left_child=2 6 3 4 10 8 7 -2 -3 11 -1 12 -5 -13 -6
right_child=1 5 -4 9 14 -7 -8 -9 -10 -11 -12 13 -14 -15 -16
leaf_value=0.083530164166203388 0.085525241682133463 -0.0015394227980574326 0.082210258319900101 -0.027537065577317721 -0.027405499850590792 -0.02825668404419663 -0.022818950825792515 -0.014638588511356682 0.07693434227989808 0.014025427444520837 0.019438621488291612 -0.028927485920577513 0.06667196409042285 0.0040026836995927214 0.00025458482153643938
leaf_weight=32.655946299433708 245.29370604455471 3.2571183443069449 35.07198029756546 19.009627312421802 17.530507519841198 65.306292846798897 4.0920686870813361 3.1918782740831366 11.366559028625487 5.5738259106874457 3.6467801481485358 866.266421854496 3.7331326007843009 3.2239637374877921 2.8001536428928366
leaf_count=132 993 20 142 130 120 443 28 21 47 32 20 5935 15 19 17
internal_value=8.09475e-05 0.0598158 -0.020029 -0.0238711 0.0416034 -0.0114758 0.0823447 0.0841731 0.0602841 -0.0280463 0.077866 -0.0283278 -0.0097899 -0.0287975 -0.0236219
internal_weight=1322.02 332.508 989.512 954.44 56.6334 79.93 252.578 248.486 14.6237 897.807 36.3027 892.233 22.7428 869.49 20.3307
internal_count=8114 1552 6562 6420 289 510 1042 1014 67 6131 152 6099 145 5954 137
is_linear=0
shrinkage=0.03


Tree=33
num_leaves=12
num_cat=0
split_feature=505 39 565 39 39 1 22 505 39 115 39
split_gain=2868.68 424.68 63.1269 58.6529 57.545 46.6187 42.6667 8.50008 19.3473 1.02959 1.0105
threshold=-0.96714830398559559 -0.18037812411785123 0.15544872730970385 2.3570587635040288 -4.5269829034805289 -1.0000000180025095e-35 -0.47143790125846857 -0.90220466256141651 -0.01827724743634462 1.5694646239280703 -0.324709802865982
decision_type=2 2 2 2 2 2 2 2 2 2 2
left_child=1 4 6 7 -1 -5 -3 8 -2 -9 -6
right_child=3 2 -4 5 10 -7 -8 9 -10 -11 -12
leaf_value=0.063536414772239896 -0.026122030808528447 -0.021513616851729506 -0.019340588542738645 -0.024598076963708075 -0.028438832031728839 0.08390726211999211 0.085038319645162994 -0.02902205729023492 0.048799623007799497 -0.0073506355690108908 -0.005920122268844457
leaf_weight=6.442224755883216 9.3520327061414701 3.0066848546266547 5.0199008435010901 5.9405974298715591 37.875920340418816 6.6603430956602079 319.31066764891148 918.71000957489014 3.42623446881771 3.1449134200811377 2.8716622143983832
leaf_count=29 63 19 32 40 254 29 1289 6304 17 20 18
internal_value=4.58671e-05 0.070225 0.0823241 -0.0277439 -0.0136057 0.0344853 0.0839716 -0.0286221 -0.00373179 -0.0289594 -0.0271035
internal_weight=1321.76 374.527 327.337 947.234 47.1898 12.6009 322.317 934.633 12.7783 921.855 40.7476
internal_count=8114 1641 1340 6473 301 69 1308 6404 80 6324 272
is_linear=0
shrinkage=0.03


Tree=34
num_leaves=10
num_cat=0
split_feature=164 164 504 633 504 135 164 168 152
split_gain=1620.84 1585.57 225.272 30.6414 43.1015 20.4707 11.3764 4.46784 26.4495
threshold=0.11468207836151124 1.0533275604248049 -0.24376461654901502 0.84482786059379589 -0.77668207883834828 1.4134775996208193 0.34082315862178808 -0.94491595029830922 0.36037550866603857
decision_type=2 2 2 2 2 2 2 2 2
left_child=3 2 5 7 -5 -2 -4 8 -1
right_child=1 -3 6 4 -6 -7 -8 -9 -10
leaf_value=-0.027590624839387169 0.084684845838279926 -0.028816247353318936 -0.02760669874887102 0.074461284630429961 -0.023668804706044835 0.024679321162671627 0.029568836636792835 -0.029041714725568234 0.055873179335276961
leaf_weight=19.982657492160801 324.29734429717064 195.15734745562077 17.438743457198147 5.4276762455701819 9.8616917133331281 6.3542704731225959 2.8695950508117667 737.88213647902012 3.1055900752544394
leaf_count=137 1310 1339 115 26 65 34 15 5056 17
internal_value=7.00595e-05 0.0396297 0.0776726 -0.0277724 0.0134155 0.0836186 -0.0183784 -0.0286205 -0.0143859
internal_weight=1322.38 546.117 350.96 776.26 15.2894 330.652 20.3083 760.97 23.0882
internal_count=8114 2813 1474 5301 91 1344 130 5210 154
is_linear=0
shrinkage=0.03


Tree=35
num_leaves=3
num_cat=0
split_feature=164 154
split_gain=3570.42 62.7528
threshold=1.0533275604248049 1.2169369459152224
decision_type=2 2
left_child=1 -1
right_child=-2 -3
leaf_value=-0.029089794879344127 0.084947812764024938 0.071959607536130107
leaf_weight=985.08009715378284 332.4600355476141 4.6259161680936804
leaf_count=6756 1339 19
internal_value=3.52727e-05 -0.0285423
internal_weight=1322.17 989.706
internal_count=8114 6775
is_linear=0
shrinkage=0.03


Tree=36
num_leaves=5
num_cat=0
split_feature=564 648 853 855
split_gain=3171.43 111.052 8.15315 2.20463
threshold=0.41095642745494848 2.2928782701492314 -0.65460029244422901 -0.27501860260963434
decision_type=2 2 2 2
left_child=1 2 -1 -3
right_child=-2 3 -4 -5
leaf_value=0.01144938660293981 0.07854878209861009 0.075996395280610515 -0.028899815486910476 0.031586682501362935
leaf_weight=3.9328230023384085 341.90420508384705 6.8388441652059555 953.14665944874287 4.0799865722656232
leaf_count=24 1317 28 6725 20
internal_value=0.000136324 -0.0276089 -0.0287191 0.0636962
internal_weight=1309.9 967.998 957.079 10.9188
internal_count=8114 6797 6749 48
is_linear=0
shrinkage=0.03


Tree=37
num_leaves=5
num_cat=0
split_feature=136 8 576 490
split_gain=2960.26 106.108 60.8574 156.252
threshold=0.16334202885627749 0.17370884865522387 0.92687904834747326 -0.27074542641639704
decision_type=2 2 2 2
left_child=2 -2 -1 -4
right_child=1 -3 3 -5
leaf_value=-0.028895697263810846 0.078699174402180744 -0.02593967864702703 0.079928248391745019 -0.028255048612141558
leaf_weight=912.93302655220032 329.1261298507452 8.4702650457620603 15.924389019608496 40.41845728456974
leaf_count=6446 1266 56 64 282
internal_value=-0.000375631 0.0759961 -0.0270297 0.00312953
internal_weight=1306.87 337.596 969.276 56.3428
internal_count=8114 1322 6792 346
is_linear=0
shrinkage=0.03


Tree=38
num_leaves=12
num_cat=0
split_feature=146 138 602 146 146 624 602 521 810 809 850
split_gain=2249.79 577.926 210.45 74.504 66.4722 52.6761 19.3404 13.5876 2.35205 1.0921 0.385222
threshold=-0.46683318912982935 -1.0063483119010923 0.72603633999824535 -0.10481949895620345 -2.4576102495193477 1.4158276319503786 -0.031774444505572312 1.7563195228576662 0.15786404907703402 1.3280122280120852 -0.24343108385801313
decision_type=2 2 2 2 2 2 2 2 2 2 2
left_child=1 5 7 -4 6 8 10 9 -1 -2 -3
right_child=2 4 3 -5 -6 -7 -8 -9 -10 -11 -12
leaf_value=-0.00082248921297919529 -0.028928663799094752 -0.023891852701726012 0.0792489968290154 -0.025396076559290531 0.078745150400338512 0.062447423263013613 0.046576668250727558 0.028655770142855825 -0.028505097325724541 -0.011896709500138556 -0.0056574449482519589
leaf_weight=3.1899299025535575 872.09897863864899 5.0356625467538834 21.733131244778637 7.7760548144578925 315.61386874318123 5.5295572876930228 6.4768844842910749 2.9131627827882758 60.437174916267395 5.9002265036106101 2.8047215193510056
leaf_count=20 6155 34 86 54 1217 24 30 15 422 39 18
internal_value=8.35709e-05 0.0593904 -0.0259472 0.0516468 0.0758808 -0.0191994 0.0115243 -0.0286055 -0.0271979 -0.0288313 -0.0190861
internal_weight=1309.51 399.088 910.422 29.5092 329.931 69.1567 14.3173 880.912 63.6271 877.999 7.84038
internal_count=8114 1765 6349 140 1299 466 82 6209 442 6194 52
is_linear=0
shrinkage=0.03


Tree=39
num_leaves=11
num_cat=0
split_feature=121 615 615 31 183 502 615 615 121 615
split_gain=2631.6 411.65 85.4113 52.5986 50.5552 28.6154 4.44472 0.833535 0.556546 0.0959234
threshold=-1.0985037088394163 -0.20642209798097608 1.8992947936058047 -0.46166189014911646 -4.471358895301818 -0.46781136095523829 1.5795331001281741 -0.34957785904407496 -1.0630366206169126 -0.78561344742774952
decision_type=2 2 2 2 2 2 2 2 2 2
left_child=1 4 6 5 -1 -3 8 -6 9 -2
right_child=2 3 -4 -5 7 -7 -8 -9 -10 -11
leaf_value=0.056594785755930306 -0.018982701363594801 -0.0081711878107414895 0.066006344434804617 -0.023169929694227428 -0.028344116960209522 0.078887215984648124 -0.00010558584596178016 -0.0075784392470266571 -0.028891429569748269 -0.0059981277964164985
leaf_weight=6.6327056586742392 5.0849510431289673 3.1890912652015677 7.7314914166927329 4.2293249517679206 40.262391120195389 334.76058755815029 5.1037012785673133 3.1547174751758567 896.22526320815086 2.8423623591661444
leaf_count=29 35 19 35 28 277 1291 32 20 6330 18
internal_value=4.56239e-05 0.0649845 -0.0277683 0.0767116 -0.0150649 0.0780351 -0.0286406 -0.0271074 -0.0287981 -0.0158565
internal_weight=1309.22 392.229 916.988 342.179 50.0498 337.95 909.256 43.4171 904.153 7.92731
internal_count=8114 1664 6450 1338 326 1310 6415 297 6383 53
is_linear=0
shrinkage=0.03


Tree=40
num_leaves=11
num_cat=0
split_feature=20 164 504 105 504 20 163 150 27 20
split_gain=1589.89 1506.78 98.7722 25.001 31.2932 5.25887 6.73149 2.63945 5.80114 0.160817
threshold=0.045058976858854301 1.0533275604248049 -0.036103175953030579 0.74290502071380626 -0.77668207883834828 1.0000000180025095e-35 1.3190283775329592 0.46046106517314916 0.80532857775688182 -0.028577650897204872
decision_type=2 2 2 2 2 2 2 2 2 2
left_child=3 2 -2 5 -5 7 -7 9 -9 -1
right_child=1 -3 -4 4 -6 6 -8 8 -10 -11
leaf_value=-0.028919609213931954 0.07852302987600393 -0.028644670472142784 -0.025733538571246231 0.068332148345094934 -0.022325477684023272 0.025411660469130237 -0.023911161522764134 0.017232470972516675 -0.025435455901958198 -0.016060438949141602
leaf_weight=730.73917552828789 343.68905110657215 189.56303271651268 7.8915425390005103 4.598117932677269 7.9088660925626737 3.2309792190790159 5.0323403477668762 3.332807391881941 7.8111797422170639 6.0101853013038626
leaf_count=5154 1327 1339 52 21 53 19 34 20 54 41
internal_value=6.85579e-05 0.0394224 0.076108 -0.0276481 0.0133736 -0.0283473 -0.0036406 -0.0286111 -0.0120596 -0.0288407
internal_weight=1309.81 541.144 351.581 768.664 12.507 756.157 8.26332 747.893 11.144 736.749
internal_count=8114 2718 1379 5396 74 5322 53 5269 74 5195
is_linear=0
shrinkage=0.03


Tree=41
num_leaves=3
num_cat=0
split_feature=164 150
split_gain=3247.39 55.7785
threshold=1.0533275604248049 1.4024858474731448
decision_type=2 2
left_child=1 -1
right_child=-2 -3
leaf_value=-0.028897798172101901 0.078499299983834314 0.066986233332008815
leaf_weight=957.22579549252987 347.53162279725075 4.5613531172275534
leaf_count=6757 1339 18
internal_value=3.16006e-05 -0.0283708
internal_weight=1309.32 961.787
internal_count=8114 6775
is_linear=0
shrinkage=0.03


Tree=42
num_leaves=3
num_cat=0
split_feature=154 635
split_gain=2908.64 144.407
threshold=-1.0324232578277586 -1.0881873369216917
decision_type=2 2
left_child=1 -1
right_child=-2 -3
leaf_value=0.073428023838388701 -0.028773722611813976 -0.026539670788960714
leaf_weight=365.94976443052292 916.29355685412884 12.963135614991186
leaf_count=1362 6658 94
internal_value=0.000134137 0.0699392
