tree
version=v4
num_class=3
num_tree_per_iteration=3
label_index=0
max_feature_idx=959
objective=multiclass num_class:3
feature_names=Column_0 Column_1 Column_2 Column_3 Column_4 Column_5 Column_6 Column_7 Column_8 Column_9 Column_10 Column_11 Column_12 Column_13 Column_14 Column_15 Column_16 Column_17 Column_18 Column_19 Column_20 Column_21 Column_22 Column_23 Column_24 Column_25 Column_26 Column_27 Column_28 Column_29 Column_30 Column_31 Column_32 Column_33 Column_34 Column_35 Column_36 Column_37 Column_38 Column_39 Column_40 Column_41 Column_42 Column_43 Column_44 Column_45 Column_46 Column_47 Column_48 Column_49 Column_50 Column_51 Column_52 Column_53 Column_54 Column_55 Column_56 Column_57 Column_58 Column_59 Column_60 Column_61 Column_62 Column_63 Column_64 Column_65 Column_66 Column_67 Column_68 Column_69 Column_70 Column_71 Column_72 Column_73 Column_74 Column_75 Column_76 Column_77 Column_78 Column_79 Column_80 Column_81 Column_82 Column_83 Column_84 Column_85 Column_86 Column_87 Column_88 Column_89 Column_90 Column_91 Column_92 Column_93 Column_94 Column_95 Column_96 Column_97 Column_98 Column_99 Column_100 Column_101 Column_102 Column_103 Column_104 Column_105 Column_106 Column_107 Column_108 Column_109 Column_110 Column_111 Column_112 Column_113 Column_114 Column_115 Column_116 Column_117 Column_118 Column_119 Column_120 Column_121 Column_122 Column_123 Column_124 Column_125 Column_126 Column_127 Column_128 Column_129 Column_130 Column_131 Column_132 Column_133 Column_134 Column_135 Column_136 Column_137 Column_138 Column_139 Column_140 Column_141 Column_142 Column_143 Column_144 Column_145 Column_146 Column_147 Column_148 Column_149 Column_150 Column_151 Column_152 Column_153 Column_154 Column_155 Column_156 Column_157 Column_158 Column_159 Column_160 Column_161 Column_162 Column_163 Column_164 Column_165 Column_166 Column_167 Column_168 Column_169 Column_170 Column_171 Column_172 Column_173 Column_174 Column_175 Column_176 Column_177 Column_178 Column_179 Column_180 Column_181 Column_182 Column_183 Column_184 Column_185 Column_186 Column_187 Column_188 Column_189 Column_190 Column_191 Column_192 Column_193 Column_194 Column_195 Column_196 Column_197 Column_198 Column_199 Column_200 Column_201 Column_202 Column_203 Column_204 Column_205 Column_206 Column_207 Column_208 Column_209 Column_210 Column_211 Column_212 Column_213 Column_214 Column_215 Column_216 Column_217 Column_218 Column_219 Column_220 Column_221 Column_222 Column_223 Column_224 Column_225 Column_226 Column_227 Column_228 Column_229 Column_230 Column_231 Column_232 Column_233 Column_234 Column_235 Column_236 Column_237 Column_238 Column_239 Column_240 Column_241 Column_242 Column_243 Column_244 Column_245 Column_246 Column_247 Column_248 Column_249 Column_250 Column_251 Column_252 Column_253 Column_254 Column_255 Column_256 Column_257 Column_258 Column_259 Column_260 Column_261 Column_262 Column_263 Column_264 Column_265 Column_266 Column_267 Column_268 Column_269 Column_270 Column_271 Column_272 Column_273 Column_274 Column_275 Column_276 Column_277 Column_278 Column_279 Column_280 Column_281 Column_282 Column_283 Column_284 Column_285 Column_286 Column_287 Column_288 Column_289 Column_290 Column_291 Column_292 Column_293 Column_294 Column_295 Column_296 Column_297 Column_298 Column_299 Column_300 Column_301 Column_302 Column_303 Column_304 Column_305 Column_306 Column_307 Column_308 Column_309 Column_310 Column_311 Column_312 Column_313 Column_314 Column_315 Column_316 Column_317 Column_318 Column_319 Column_320 Column_321 Column_322 Column_323 Column_324 Column_325 Column_326 Column_327 Column_328 Column_329 Column_330 Column_331 Column_332 Column_333 Column_334 Column_335 Column_336 Column_337 Column_338 Column_339 Column_340 Column_341 Column_342 Column_343 Column_344 Column_345 Column_346 Column_347 Column_348 Column_349 Column_350 Column_351 Column_352 Column_353 Column_354 Column_355 Column_356 Column_357 Column_358 Column_359 Column_360 Column_361 Column_362 Column_363 Column_364 Column_365 Column_366 Column_367 Column_368 Column_369 Column_370 Column_371 Column_372 Column_373 Column_374 Column_375 Column_376 Column_377 Column_378 Column_379 Column_380 Column_381 Column_382 Column_383 Column_384 Column_385 Column_386 Column_387 Column_388 Column_389 Column_390 Column_391 Column_392 Column_393 Column_394 Column_395 Column_396 Column_397 Column_398 Column_399 Column_400 Column_401 Column_402 Column_403 Column_404 Column_405 Column_406 Column_407 Column_408 Column_409 Column_410 Column_411 Column_412 Column_413 Column_414 Column_415 Column_416 Column_417 Column_418 Column_419 Column_420 Column_421 Column_422 Column_423 Column_424 Column_425 Column_426 Column_427 Column_428 Column_429 Column_430 Column_431 Column_432 Column_433 Column_434 Column_435 Column_436 Column_437 Column_438 Column_439 Column_440 Column_441 Column_442 Column_443 Column_444 Column_445 Column_446 Column_447 Column_448 Column_449 Column_450 Column_451 Column_452 Column_453 Column_454 Column_455 Column_456 Column_457 Column_458 Column_459 Column_460 Column_461 Column_462 Column_463 Column_464 Column_465 Column_466 Column_467 Column_468 Column_469 Column_470 Column_471 Column_472 Column_473 Column_474 Column_475 Column_476 Column_477 Column_478 Column_479 Column_480 Column_481 Column_482 Column_483 Column_484 Column_485 Column_486 Column_487 Column_488 Column_489 Column_490 Column_491 Column_492 Column_493 Column_494 Column_495 Column_496 Column_497 Column_498 Column_499 Column_500 Column_501 Column_502 Column_503 Column_504 Column_505 Column_506 Column_507 Column_508 Column_509 Column_510 Column_511 Column_512 Column_513 Column_514 Column_515 Column_516 Column_517 Column_518 Column_519 Column_520 Column_521 Column_522 Column_523 Column_524 Column_525 Column_526 Column_527 Column_528 Column_529 Column_530 Column_531 Column_532 Column_533 Column_534 Column_535 Column_536 Column_537 Column_538 Column_539 Column_540 Column_541 Column_542 Column_543 Column_544 Column_545 Column_546 Column_547 Column_548 Column_549 Column_550 Column_551 Column_552 Column_553 Column_554 Column_555 Column_556 Column_557 Column_558 Column_559 Column_560 Column_561 Column_562 Column_563 Column_564 Column_565 Column_566 Column_567 Column_568 Column_569 Column_570 Column_571 Column_572 Column_573 Column_574 Column_575 Column_576 Column_577 Column_578 Column_579 Column_580 Column_581 Column_582 Column_583 Column_584 Column_585 Column_586 Column_587 Column_588 Column_589 Column_590 Column_591 Column_592 Column_593 Column_594 Column_595 Column_596 Column_597 Column_598 Column_599 Column_600 Column_601 Column_602 Column_603 Column_604 Column_605 Column_606 Column_607 Column_608 Column_609 Column_610 Column_611 Column_612 Column_613 Column_614 Column_615 Column_616 Column_617 Column_618 Column_619 Column_620 Column_621 Column_622 Column_623 Column_624 Column_625 Column_626 Column_627 Column_628 Column_629 Column_630 Column_631 Column_632 Column_633 Column_634 Column_635 Column_636 Column_637 Column_638 Column_639 Column_640 Column_641 Column_642 Column_643 Column_644 Column_645 Column_646 Column_647 Column_648 Column_649 Column_650 Column_651 Column_652 Column_653 Column_654 Column_655 Column_656 Column_657 Column_658 Column_659 Column_660 Column_661 Column_662 Column_663 Column_664 Column_665 Column_666 Column_667 Column_668 Column_669 Column_670 Column_671 Column_672 Column_673 Column_674 Column_675 Column_676 Column_677 Column_678 Column_679 Column_680 Column_681 Column_682 Column_683 Column_684 Column_685 Column_686 Column_687 Column_688 Column_689 Column_690 Column_691 Column_692 Column_693 Column_694 Column_695 Column_696 Column_697 Column_698 Column_699 Column_700 Column_701 Column_702 Column_703 Column_704 Column_705 Column_706 Column_707 Column_708 Column_709 Column_710 Column_711 Column_712 Column_713 Column_714 Column_715 Column_716 Column_717 Column_718 Column_719 Column_720 Column_721 Column_722 Column_723 Column_724 Column_725 Column_726 Column_727 Column_728 Column_729 Column_730 Column_731 Column_732 Column_733 Column_734 Column_735 Column_736 Column_737 Column_738 Column_739 Column_740 Column_741 Column_742 Column_743 Column_744 Column_745 Column_746 Column_747 Column_748 Column_749 Column_750 Column_751 Column_752 Column_753 Column_754 Column_755 Column_756 Column_757 Column_758 Column_759 Column_760 Column_761 Column_762 Column_763 Column_764 Column_765 Column_766 Column_767 Column_768 Column_769 Column_770 Column_771 Column_772 Column_773 Column_774 Column_775 Column_776 Column_777 Column_778 Column_779 Column_780 Column_781 Column_782 Column_783 Column_784 Column_785 Column_786 Column_787 Column_788 Column_789 Column_790 Column_791 Column_792 Column_793 Column_794 Column_795 Column_796 Column_797 Column_798 Column_799 Column_800 Column_801 Column_802 Column_803 Column_804 Column_805 Column_806 Column_807 Column_808 Column_809 Column_810 Column_811 Column_812 Column_813 Column_814 Column_815 Column_816 Column_817 Column_818 Column_819 Column_820 Column_821 Column_822 Column_823 Column_824 Column_825 Column_826 Column_827 Column_828 Column_829 Column_830 Column_831 Column_832 Column_833 Column_834 Column_835 Column_836 Column_837 Column_838 Column_839 Column_840 Column_841 Column_842 Column_843 Column_844 Column_845 Column_846 Column_847 Column_848 Column_849 Column_850 Column_851 Column_852 Column_853 Column_854 Column_855 Column_856 Column_857 Column_858 Column_859 Column_860 Column_861 Column_862 Column_863 Column_864 Column_865 Column_866 Column_867 Column_868 Column_869 Column_870 Column_871 Column_872 Column_873 Column_874 Column_875 Column_876 Column_877 Column_878 Column_879 Column_880 Column_881 Column_882 Column_883 Column_884 Column_885 Column_886 Column_887 Column_888 Column_889 Column_890 Column_891 Column_892 Column_893 Column_894 Column_895 Column_896 Column_897 Column_898 Column_899 Column_900 Column_901 Column_902 Column_903 Column_904 Column_905 Column_906 Column_907 Column_908 Column_909 Column_910 Column_911 Column_912 Column_913 Column_914 Column_915 Column_916 Column_917 Column_918 Column_919 Column_920 Column_921 Column_922 Column_923 Column_924 Column_925 Column_926 Column_927 Column_928 Column_929 Column_930 Column_931 Column_932 Column_933 Column_934 Column_935 Column_936 Column_937 Column_938 Column_939 Column_940 Column_941 Column_942 Column_943 Column_944 Column_945 Column_946 Column_947 Column_948 Column_949 Column_950 Column_951 Column_952 Column_953 Column_954 Column_955 Column_956 Column_957 Column_958 Column_959
feature_infos=[-1.4477702379226685:3.2552304267883301] [-0.68763893842697144:3.7452633380889893] [-1.7973449230194092:4.4465527534484863] [-0.6149333119392395:4.1405434608459473] [-0.58487427234649658:3.3569674491882324] [-0.65801244974136353:3.9592514038085938] [-0.8309251070022583:4.2801270484924316] [-0.61424124240875244:3.2809410095214844] [-0.86341011524200439:3.4684627056121826] [-1.0462777614593506:3.1797912120819092] [-1.4861810207366943:3.4840469360351562] [-1.0054553747177124:3.3523211479187012] [-0.85703527927398682:6.390871524810791] [-0.80728042125701904:4.6264066696166992] [-0.85703527927398682:6.1798114776611328] [-4.4321098327636719:3.7973434925079346] [-4.1748204231262207:3.6085560321807861] [-6.4251127243041992:3.9656901359558105] [-0.55472296476364136:3.1997318267822266] [-0.52060848474502563:5.3427977561950684] [-0.15705856680870056:13.444068908691406] [-1.5906727313995361:2.2550134658813477] [-1.9127721786499023:2.0056393146514893] [-1.6549050807952881:2.6331532001495361] [-3.4644713401794434:4.1686668395996094] [-3.2072029113769531:4.5414447784423828] [-6.0606775283813477:5.9151182174682617] [-19.576295852661133:6.6353693008422852] [-19.458461761474609:6.3497214317321777] [-38.079963684082031:10.92354679107666] [-3.6820549964904785:3.525223970413208] [-3.5100159645080566:3.7975220680236816] [-5.8235630989074707:3.6341679096221924] [-10.919370651245117:5.0695948600769043] [-9.0820541381835938:4.3465108871459961] [-3.5179333686828613:2.8236236572265625] [-8.8809900283813477:4.586357593536377] [-13.401388168334961:4.9715595245361328] [-5.3046603202819824:3.4145770072937012] [-1.9079163074493408:4.0334796905517578] [-0.31372711062431335:3.7712750434875488] [-0.65019220113754272:7.9733824729919434] [-2.3892533779144287:2.6348414421081543] [-1:0.23897495865821838] [-0.89361989498138428:5.6525473594665527] [-5.4494891166687012:3.7551326751708984] [-5.0849881172180176:3.6497466564178467] [-7.0343103408813477:3.8135800361633301] [0:3.7179868221282959] [5.9604644775390625e-08:2.2298531532287598] [0:4.8090486526489258] [5.9604644775390625e-08:2.5964384078979492] [5.9604644775390625e-08:0.3257729709148407] [5.9604644775390625e-08:0.69060873985290527] [0:2.0812783241271973] [5.9604644775390625e-08:0.5320780873298645] [1.1920928955078125e-07:0.48158586025238037] [1.1920928955078125e-07:0.33742061257362366] [1.1920928955078125e-07:1.1680537462234497] [1.1920928955078125e-07:0.37798333168029785] [0:12.723251342773438] [5.9604644775390625e-08:2.3029606342315674] [0:12.352134704589844] [0:1.4601553678512573] [4.76837158203125e-07:1.7404534816741943] [4.76837158203125e-07:2.299565315246582] [0:2.6708242893218994] [5.9604644775390625e-08:4.9847431182861328] [0:31.964504241943359] [0:2.6233015060424805] [0:2.7265467643737793] [5.9604644775390625e-08:1.4366304874420166] [2.384185791015625e-07:3.1944739818572998] [0:4.8430805206298828] [4.76837158203125e-07:6.569976806640625] [1.9073486328125e-06:3.7403860092163086] [1.9073486328125e-06:2.1520695686340332] [3.814697265625e-06:4.1741466522216797] [2.384185791015625e-07:1.9143760204315186] [0:2.0433714389801025] [0:2.2761247158050537] [9.5367431640625e-07:2.3747274875640869] [0:2.7703769207000732] [0:2.1704530715942383] [0:1.1850851774215698] [9.5367431640625e-07:1.9999730587005615] [0:1.2283551692962646] [0:1.9148815870285034] [0:3.787865161895752] [0:4.4417309761047363] [2.384185791015625e-07:6.970524787902832] [0:2.9802322387695312e-08] [1.1920928955078125e-07:3.1662571430206299] [0:1.4929060935974121] [0:1.5248706340789795] [9.5367431640625e-07:2.1847901344299316] [-1.5788006782531738:3.2110991477966309] [-0.81776952743530273:2.5933444499969482] [-1.8931155204772949:1.2086877822875977] [-0.75713038444519043:2.952312707901001] [-0.73208874464035034:3.2753591537475586] [-0.78113412857055664:3.7745733261108398] [-0.90537828207015991:4.1914710998535156] [-0.74352991580963135:3.196089506149292] [-0.9533887505531311:3.363408088684082] [-1.1037505865097046:3.1306483745574951] [-1.4861809015274048:3.3927445411682129] [-1.0641165971755981:3.2757470607757568] [-0.85703527927398682:2.9511725902557373] [-0.91060084104537964:3.0672905445098877] [-0.89495450258255005:3.0468235015869141] [-4.4321098327636719:2.5432624816894531] [-4.1748208999633789:2.120229959487915] [-6.425112247467041:2.7609364986419678] [-0.72428661584854126:3.0122854709625244] [-0.68677908182144165:2.4841411113739014] [-0.32596766948699951:0.82462328672409058] [-4.1032352447509766:0.98895496129989624] [-4.8877120018005371:1.4458428621292114] [-2.4764714241027832:2.0759856700897217] [-3.4644711017608643:2.1631550788879395] [-3.2072029113769531:1.7756401300430298] [-6.0606780052185059:2.2999827861785889] [-19.576297760009766:5.5914859771728516] [-19.458459854125977:5.3614239692687988] [-38.079967498779297:9.5150604248046875] [-3.6820547580718994:2.3566749095916748] [-3.5100159645080566:2.0231635570526123] [-5.8235630989074707:2.5290184020996094] [-10.919369697570801:5.0042300224304199] [-9.0820541381835938:3.6274604797363281] [-3.5179333686828613:2.6756908893585205] [-8.8809900283813477:4.5160360336303711] [-13.401387214660645:4.2789435386657715] [-5.3046603202819824:3.2944791316986084] [-1.9079163074493408:3.4271347522735596] [-0.44371700286865234:-0.032277751713991165] [-0.71167492866516113:1.1219338178634644] [-2.3892531394958496:2.1804618835449219] [-1:0.238974928855896] [-0.89362001419067383:3.552466869354248] [-5.4494891166687012:2.9438354969024658] [-5.0849881172180176:2.4181396961212158] [-7.0343112945556641:2.7909359931945801] [-1.4477702379226685:9.3341121673583984] [-0.65108662843704224:6.9872102737426758] [-1.7973449230194092:16.797107696533203] [-0.58176124095916748:7.8288049697875977] [-0.57621413469314575:3.4783656597137451] [-0.65509098768234253:4.0452613830566406] [-0.8309251070022583:6.4682321548461914] [-0.61424130201339722:3.3882367610931396] [-0.86341023445129395:3.5341866016387939] [-1.046277642250061:3.2408244609832764] [-1.4861809015274048:3.8404843807220459] [-1.005455493927002:3.4563107490539551] [-0.85703527927398682:41.117168426513672] [-0.80728036165237427:7.3720135688781738] [-0.85703527927398682:39.918354034423828] [-4.4321098327636719:6.596043586730957] [-4.1748208999633789:7.323981761932373] [-6.425112247467041:7.4023308753967285] [-0.51472979784011841:9.8373165130615234] [-0.47733214497566223:14.919750213623047] [-0.11509405076503754:105.79119110107422] [-0.5543210506439209:5.6796183586120605] [-0.86623913049697876:6.5014200210571289] [-1.0953599214553833:3.7218966484069824] [-3.4644711017608643:8.5318174362182617] [-3.2072029113769531:16.615549087524414] [-6.0606780052185059:21.866876602172852] [-19.576297760009766:12.538190841674805] [-19.458459854125977:10.181587219238281] [-38.079967498779297:17.715303421020508] [-3.6820547580718994:6.6821994781494141] [-3.5100159645080566:8.4035043716430664] [-5.8235630989074707:6.4385309219360352] [-10.919369697570801:6.5066137313842773] [-9.0820541381835938:7.6012101173400879] [-3.5179333686828613:4.3492960929870605] [-8.8809900283813477:4.6881070137023926] [-13.401387214660645:7.0364108085632324] [-5.3046603202819824:4.3584179878234863] [-1.9079163074493408:6.2994384765625] [-0.31372708082199097:8.8713483810424805] [-0.65019214153289795:9.6006593704223633] [-2.3892531394958496:21.216320037841797] [-1:0.238974928855896] [-0.89362001419067383:8.3922595977783203] [-5.4494891166687012:6.3416843414306641] [-5.0849881172180176:6.2785930633544922] [-7.0343112945556641:6.8067560195922852] [-0.77444064617156982:0.88280946016311646] [-0.58395153284072876:0.47035571932792664] [-0.94618493318557739:0.82683104276657104] [-0.62038940191268921:0.54089492559432983] [-0.089434966444969177:0.076026007533073425] [-0.18907186388969421:0.17991919815540314] [-0.33656924962997437:0.48125258088111877] [-0.12461784482002258:0.13452863693237305] [-0.044113196432590485:0.15149320662021637] [-0.07124502956867218:0.084429390728473663] [-0.18935763835906982:0.37075996398925781] [-0.066273286938667297:0.11863181740045547] [-2.5210633277893066:1.5349216461181641] [-0.54900771379470825:0.61837649345397949] [-2.5210633277893066:1.4898489713668823] [-0.3395020067691803:0.41817140579223633] [-0.34772765636444092:0.3055611252784729] [-0.4870971143245697:0.52494162321090698] [-0.57255297899246216:0.54458719491958618] [-1.2272059917449951:0.90030723810195923] [-6.2004127502441406:0.93828904628753662] [-0.54947632551193237:0.6086995005607605] [-0.66645199060440063:0.72007095813751221] [-0.40079715847969055:0.30830118060112] [-0.73467278480529785:0.93076115846633911] [-1.1270493268966675:0.90159910917282104] [-1.0277204513549805:1.2874076366424561] [-0.8019721508026123:1.0475989580154419] [-0.52225691080093384:0.4853559136390686] [-1.0840897560119629:0.82016295194625854] [-0.41916531324386597:0.51754277944564819] [-0.52103441953659058:0.390663743019104] [-0.54160571098327637:0.57614505290985107] [-0.53122389316558838:0.57803356647491455] [-0.55950218439102173:0.79311394691467285] [-0.49175345897674561:0.50250464677810669] [-0.24944545328617096:0.33011084794998169] [-0.61778402328491211:0.32490980625152588] [-0.35386937856674194:0.27454560995101929] [-0.54875051975250244:0.4150431752204895] [-0.85311907529830933:0.91086685657501221] [-1.143302321434021:1.237970232963562] [-1.3622363805770874:0.37835675477981567] none [-0.5888822078704834:0.69098204374313354] [-0.28097671270370483:0.33961033821105957] [-0.32201358675956726:0.31566005945205688] [-0.52967637777328491:0.48235630989074707] [0:0.89999997615814209] [0:0.86388218402862549] [0:0.89999997615814209] [0:0.89871901273727417] [0:0.87439978122711182] [0:0.87191092967987061] [0:0.8639296293258667] [0:0.86767709255218506] [0:0.88078594207763672] [0:0.8813546895980835] [0:0.86113756895065308] [0:0.88394516706466675] [0:0.80571889877319336] [0:0.81004512310028076] [0:0.80452030897140503] [0:0.77999365329742432] [0:0.80972158908843994] [0:0.82853734493255615] [0:0.87758481502532959] [0:0.86349689960479736] [0:0.8276483416557312] [0:0.8303145170211792] [0:0.78949135541915894] [0:0.84111958742141724] [0:0.81070411205291748] [0:0.80099475383758545] [0:0.79459792375564575] [0:0.80843067169189453] [0:0.78594392538070679] [0:0.82384157180786133] [0:0.79465854167938232] [0:0.79706871509552002] [0:0.8420795202255249] [0:0.86167299747467041] [0:0.87057781219482422] [0:0.881500244140625] [0:0.87300670146942139] [0:0.88549697399139404] [0:0.81912314891815186] [0:0.8581005334854126] [0:0.89999991655349731] [0:0.89999997615814209] [0:0.83528041839599609] none [0:0.83925545215606689] [0:0.78052407503128052] [0:0.76587259769439697] [0:0.76981866359710693] [0:0.5] [0:0.47337451577186584] [0:0.5] [0:0.49894946813583374] [0:0.47764632105827332] [0:0.47562995553016663] [0:0.45587614178657532] [0:0.48804640769958496] [0:0.48634889721870422] [0:0.48239952325820923] [0:0.47048237919807434] [0:0.48961657285690308] [0:0.46158537268638611] [0:0.44606566429138184] [0:0.46158537268638611] [0:0.45634022355079651] [0:0.45784541964530945] [0:0.43594542145729065] [0:0.48359507322311401] [0:0.48340734839439392] [0:0.48699596524238586] [0:0.44754981994628906] [0:0.44251438975334167] [0:0.44364070892333984] [0:0.44328096508979797] [0:0.45807847380638123] [0:0.4506244957447052] [0:0.4438556432723999] [0:0.44858762621879578] [0:0.43301600217819214] [0:0.47093960642814636] [0:0.44824373722076416] [0:0.43467143177986145] [0:0.48525673151016235] [0:0.45888721942901611] [0:0.47375357151031494] [0:0.47352123260498047] [0:0.44161871075630188] [0:0.46462249755859375] [0:0.46460270881652832] [0:0.47303763031959534] [0:0.5] [0:0.43988576531410217] none [0:0.44478702545166016] [0:0.44258409738540649] [0:0.44521552324295044] [0:0.42440351843833923] none none none none none none none none none none none none none none none none none none none none none none none none none none none none none none none none none none none none none none none none none none none none none none none none [0:1] [0:1] [0:1] [0:1] [0:1] [0:1] [0:1] [0:1] [0:1] [0:1] [0:1] [0:1] [0:1] [0:1] [0:1] [0:1] [0:1] [0:1] [0:1] [0:1] [0:1] [0:1] [0:1] [0:1] [0:1] [0:1] [0:1] [0:1] [0:1] [0:1] [0:1] [0:1] [0:1] [0:1] [0:1] [0:1] [0:1] [0:1] [0:1] [0:1] [0:1] [0:1] [0:1] none [0:1] [0:1] [0:1] [0:1] [-0.15151515603065491:0.15151515603065491] [-0.12780162692070007:0.14020049571990967] [-0.15151515603065491:0.15151515603065491] [-0.15114283561706543:0.14370512962341309] [-0.14336094260215759:0.14430966973304749] [-0.1408093124628067:0.14354003965854645] [-0.13456003367900848:0.13707838952541351] [-0.13253311812877655:0.14741590619087219] [-0.12731362879276276:0.1477496474981308] [-0.12851393222808838:0.14621055126190186] [-0.12773109972476959:0.14048260450363159] [-0.13985666632652283:0.14796213805675507] [-0.12870980799198151:0.13930822908878326] [-0.12300477176904678:0.1337009072303772] [-0.1288190484046936:0.14330027997493744] [-0.12762799859046936:0.13600583374500275] [-0.12019555270671844:0.12687954306602478] [-0.1220114529132843:0.12294048070907593] [-0.13225118815898895:0.1444946825504303] [-0.14068882167339325:0.14639741182327271] [-0.1469690203666687:0.14518837630748749] [-0.12838160991668701:0.13037723302841187] [-0.13226117193698883:0.13323396444320679] [-0.11680395156145096:0.13487899303436279] [-0.1219705268740654:0.12909062206745148] [-0.12471552938222885:0.13482782244682312] [-0.12792389094829559:0.1395842581987381] [-0.12319432944059372:0.12284050136804581] [-0.1218985915184021:0.14257670938968658] [-0.12981051206588745:0.13659335672855377] [-0.14118793606758118:0.12288164347410202] [-0.13379833102226257:0.13334521651268005] [-0.1305481493473053:0.13003988564014435] [-0.13936622440814972:0.14908516407012939] [-0.14491073787212372:0.13866664469242096] [-0.14005669951438904:0.13929043710231781] [-0.13446776568889618:0.1427072137594223] [-0.13786375522613525:0.13410881161689758] [-0.13692517578601837:0.13142186403274536] [-0.13744249939918518:0.14122192561626434] [-0.13989417254924774:0.14464795589447021] [-0.15151515603065491:0.15151515603065491] [-0.12649185955524445:0.14196714758872986] none [-0.13961748778820038:0.13463211059570312] [-0.12552158534526825:0.13257461786270142] [-0.11755084246397018:0.12226518243551254] [-0.11783285439014435:0.1185128390789032] [-3.3483271598815918:1.4335442781448364] [-1.6112356185913086:2.1466071605682373] [-3.3901581764221191:1.3255937099456787] [-1.4504613876342773:2.3387100696563721] [-1.3288388252258301:2.5630397796630859] [-1.3401037454605103:2.7001523971557617] [-1.3987305164337158:3.0468933582305908] [-1.4806749820709229:2.474454402923584] [-0.98017203807830811:3.191840648651123] [-1.1535007953643799:2.9918732643127441] [-1.5613129138946533:3.2510285377502441] [-1.1800538301467896:3.0291063785552979] [-2.8083646297454834:3.059495210647583] [-2.3205094337463379:2.3917374610900879] [-2.8083646297454834:3.0472896099090576] [-7.8163657188415527:3.0838253498077393] [-7.2334985733032227:2.8997626304626465] [-11.407011985778809:3.2178959846496582] [-2.0143892765045166:2.012772798538208] [-1.8135566711425781:2.248018741607666] [-1.8833175897598267:3.369035005569458] [-1.3509534597396851:2.029754638671875] [-1.7359611988067627:1.8839304447174072] [-1.4030603170394897:2.429779052734375] [-6.5059747695922852:3.3232369422912598] [-6.0914425849914551:3.1982533931732178] [-11.999571800231934:4.1262373924255371] [-28.491962432861328:6.136540412902832] [-28.073528289794922:5.8635287284851074] [-55.652366638183594:10.058305740356445] [-6.8837556838989258:2.7909965515136719] [-6.4111185073852539:2.9257817268371582] [-11.067239761352539:2.9562153816223145] [-14.262380599975586:4.710972785949707] [-11.367728233337402:3.9748806953430176] [-3.9279112815856934:2.5350728034973145] [-11.36808967590332:4.2444796562194824] [-16.502336502075195:4.6103091239929199] [-6.1664438247680664:3.0231146812438965] [-7.1494226455688477:3.0261626243591309] [-1.4445003271102905:3.2102293968200684] [-2.2790448665618896:5.6582369804382324] [-2.8338797092437744:2.1598601341247559] [-0.69314718246459961:0.11287093162536621] [-2.2645928859710693:3.9104275703430176] [-9.09649658203125:3.2005398273468018] [-8.3318166732788086:3.0476374626159668] [-11.695313453674316:3.1678304672241211] [0:1.6475147008895874] [1.1920928955078125e-07:1.1387761831283569] [0:1.6638554334640503] [0:1.7335706949234009] [1.1920928955078125e-07:0.57231652736663818] [1.1920928955078125e-07:0.78982788324356079] [1.1920928955078125e-07:1.3470643758773804] [1.1920928955078125e-07:0.72371023893356323] [1.1920928955078125e-07:0.4000738263130188] [1.1920928955078125e-07:0.35562843084335327] [1.1920928955078125e-07:1.1013945341110229] [1.1920928955078125e-07:0.39743050932884216] [0:2.1932089328765869] [2.384185791015625e-07:0.9398655891418457] [0:2.1612706184387207] [0:1.315274715423584] [0:1.1548255681991577] [9.5367431640625e-07:1.9621917009353638] [0:1.5783824920654297] [1.1920928955078125e-07:1.4158287048339844] [5.9604644775390625e-08:3.0074610710144043] [0:2.17460036277771] [4.6566128730773926e-10:2.1292037963867188] [0:1.3446629047393799] [4.76837158203125e-07:2.3067789077758789] [4.76837158203125e-07:2.3418087959289551] [9.5367431640625e-07:3.9165458679199219] [1.9073486328125e-06:3.227651834487915] [1.9073486328125e-06:1.9004528522491455] [0:3.7397251129150391] [4.76837158203125e-07:1.6063923835754395] [4.76837158203125e-07:1.2690111398696899] [9.5367431640625e-07:1.9278302192687988] [0:2.3499407768249512] [0:2.7557849884033203] [0:1.9937255382537842] [9.5367431640625e-07:1.1908731460571289] [0:1.8130085468292236] [4.76837158203125e-07:1.0516071319580078] [0:1.320594310760498] [2.9802322387695312e-08:2.9691948890686035] [0:3.1446552276611328] [0:3.4420943260192871] none [2.384185791015625e-07:2.1148905754089355] [0:1.1996350288391113] [0:1.1570866107940674] [9.5367431640625e-07:1.9784834384918213] [-4.9482932090759277:1.4247524738311768] [-2.325608491897583:1.9247856140136719] [-4.4725017547607422:0.80755937099456787] [-2.2600970268249512:2.1557791233062744] [-2.1798996925354004:2.5409154891967773] [-1.9492213726043701:2.6510524749755859] [-1.6284639835357666:3.016080379486084] [-2.3651478290557861:2.4514644145965576] [-1.0986669063568115:3.115816593170166] [-1.2241976261138916:2.9528946876525879] [-1.5613130331039429:3.174302339553833] [-1.2624721527099609:2.9762828350067139] [-2.8083646297454834:2.5022695064544678] [-3.4738421440124512:2.0690228939056396] [-3.2356197834014893:2.5385642051696777] [-7.8163657188415527:2.2649855613708496] [-7.2334985733032227:1.9454410076141357] [-11.407011032104492:2.4241771697998047] [-2.7836344242095947:1.9991508722305298] [-2.6990072727203369:1.9455790519714355] [-3.2468330860137939:2.8152332305908203] [-3.0280852317810059:1.0894343852996826] [-3.514885425567627:1.4697498083114624] [-1.9073233604431152:2.0489935874938965] [-6.505974292755127:2.0513119697570801] [-6.0914430618286133:1.8073407411575317] [-11.999570846557617:2.2413926124572754] [-28.491960525512695:5.2446575164794922] [-28.073526382446289:5.0205245018005371] [-55.652366638183594:8.9247617721557617] [-6.883756160736084:2.0868949890136719] [-6.4111180305480957:1.8460739850997925] [-11.067240715026855:2.2224204540252686] [-14.262380599975586:4.6555161476135254] [-11.367728233337402:3.4075117111206055] [-3.9279112815856934:2.415428638458252] [-11.368090629577637:4.1853013038635254] [-16.502336502075195:4.0148406028747559] [-6.1664443016052246:2.9271807670593262] [-7.1494226455688477:2.7623705863952637] [-2.7556555271148682:0.67252779006958008] [-2.671734094619751:2.2652113437652588] [-2.8338797092437744:1.8561199903488159] [-0.69314718246459961:0.11287093162536621] [-2.2645926475524902:3.2194516658782959] [-9.09649658203125:2.6231958866119385] [-8.3318166732788086:2.1995174884796143] [-11.695314407348633:2.4781498908996582] [-3.3483271598815918:2.2100570201873779] [-1.2758241891860962:2.6055905818939209] [-3.39015793800354:2.6635456085205078] [-1.1885013580322266:2.8782105445861816] [-1.2736570835113525:2.5952999591827393] [-1.3249704837799072:2.7225987911224365] [-1.3987306356430054:3.6886551380157471] [-1.4806751012802124:2.5031001567840576] [-0.98017191886901855:3.2390925884246826] [-1.1535009145736694:3.040125846862793] [-1.5613130331039429:3.5476176738739014] [-1.1800539493560791:3.1003906726837158] [-2.8083646297454834:6.0779485702514648] [-2.320509672164917:2.8041534423828125] [-2.8083646297454834:6.0344018936157227] [-7.8163657188415527:4.6926698684692383] [-7.2334985733032227:4.9957919120788574] [-11.407011032104492:5.3465232849121094] [-1.6574273109436035:2.4784820079803467] [-1.3280383348464966:2.7548410892486572] [-1.1163703203201294:7.0714259147644043] [-0.63579851388931274:4.358306884765625] [-0.95199280977249146:4.172640323638916] [-1.0428147315979004:3.0671172142028809] [-6.505974292755127:5.4749975204467773] [-6.0914430618286133:8.1121034622192383] [-11.999570846557617:11.475500106811523] [-28.491960525512695:10.837411880493164] [-28.073526382446289:8.9946746826171875] [-55.652366638183594:15.776885032653809] [-6.883756160736084:4.4568576812744141] [-6.4111180305480957:5.1182312965393066] [-11.067240715026855:4.6636075973510742] [-14.262380599975586:5.9032955169677734] [-11.367728233337402:6.6464133262634277] [-3.9279112815856934:3.711284875869751] [-11.368090629577637:4.3299145698547363] [-16.502336502075195:6.3764305114746094] [-6.1664443016052246:3.7588768005371094] [-7.1494226455688477:3.8438849449157715] [-1.4445004463195801:5.8042483329772949] [-2.2790448665618896:6.4540324211120605] [-2.8338797092437744:8.6828250885009766] [-0.69314718246459961:0.11287093162536621] [-2.2645926475524902:4.739293098449707] [-9.09649658203125:4.8445777893066406] [-8.3318166732788086:4.7300863265991211] [-11.695314407348633:5.1834926605224609] [-0.41560131311416626:0.40174499154090881] [-0.29418352246284485:0.31871616840362549] [-0.42476770281791687:0.39997303485870361] [-0.44116753339767456:0.38195052742958069] [-0.14698894321918488:0.14315007627010345] [-0.18917307257652283:0.23864170908927917] [-0.29271414875984192:0.33056074380874634] [-0.14433661103248596:0.21113289892673492] [-0.050841141492128372:0.12386617809534073] [-0.075130552053451538:0.092722423374652863] [-0.17338292300701141:0.34957912564277649] [-0.070854000747203827:0.095671817660331726] [-0.57699114084243774:0.52010941505432129] [-0.24366369843482971:0.23593606054782867] [-0.57960009574890137:0.52690225839614868] [-0.32400178909301758:0.39747953414916992] [-0.28352254629135132:0.2987578809261322] [-0.43353599309921265:0.52987092733383179] [-0.39535549283027649:0.32868102192878723] [-0.35788112878799438:0.3436698317527771] [-0.77412509918212891:0.82340401411056519] [-0.47997939586639404:0.57313340902328491] [-0.59367740154266357:0.58040076494216919] [-0.38892525434494019:0.31041762232780457] [-0.56617140769958496:0.72464048862457275] [-0.54116541147232056:0.40621277689933777] [-0.7810935378074646:0.90582507848739624] [-0.72157555818557739:0.91119867563247681] [-0.48033636808395386:0.43914583325386047] [-0.92069047689437866:0.78094649314880371] [-0.38299915194511414:0.45840597152709961] [-0.32032036781311035:0.28279849886894226] [-0.5232664942741394:0.51533621549606323] [-0.52976858615875244:0.57903850078582764] [-0.55646431446075439:0.75781285762786865] [-0.46420344710350037:0.47344356775283813] [-0.23014591634273529:0.330767422914505] [-0.55985516309738159:0.30473959445953369] [-0.30683690309524536:0.31592094898223877] [-0.32322433590888977:0.37268027663230896] [-0.77279412746429443:0.84340238571166992] [-0.81141507625579834:0.95292580127716064] [-0.78513443470001221:0.37074637413024902] none [-0.46023666858673096:0.50717818737030029] [-0.26193231344223022:0.30681762099266052] [-0.26213863492012024:0.30135536193847656] [-0.4042382538318634:0.47432816028594971] [-1.0315122604370117:1.0286551713943481] [-0.70145666599273682:0.48146909475326538] [-1.7943263053894043:1.6964982748031616] [-0.75866150856018066:0.49357801675796509] [-0.090180940926074982:0.087130680680274963] [-0.1781042218208313:0.18801921606063843] [-0.61813777685165405:0.74617600440979004] [-0.15042781829833984:0.15761734545230865] [-0.058227863162755966:0.12271112948656082] [-0.10241802036762238:0.11747084558010101] [-0.40647068619728088:0.38529756665229797] [-0.12816520035266876:0.12658941745758057] [-3.7929279804229736:1.9614372253417969] [-0.52488541603088379:0.64405852556228638] [-3.7929279804229736:1.9015729427337646] [-0.48787900805473328:0.41879960894584656] [-0.45128759741783142:0.47252905368804932] [-0.51832646131515503:0.58438801765441895] [-1.0009051561355591:0.7252461314201355] [-1.3967049121856689:1.047433614730835] [-10.396045684814453:1.2215701341629028] [-0.61382842063903809:0.66576904058456421] [-0.66403526067733765:0.85735392570495605] [-0.38305923342704773:0.45990106463432312] [-0.88913959264755249:1.0748014450073242] [-1.6784330606460571:1.7613790035247803] [-1.9904676675796509:1.910428524017334] [-0.92050331830978394:1.065104603767395] [-0.72855120897293091:0.60281431674957275] [-1.4378552436828613:1.4368376731872559] [-0.62544560432434082:0.60142338275909424] [-0.5413481593132019:0.57903516292572021] [-0.57042676210403442:0.60570985078811646] [-0.59085100889205933:0.68172144889831543] [-0.72478377819061279:0.73158341646194458] [-0.56766712665557861:0.59348750114440918] [-0.34460046887397766:0.36431989073753357] [-0.4933803379535675:0.50730407238006592] [-0.31882333755493164:0.31745505332946777] [-0.61109316349029541:0.73552638292312622] [-0.91569972038269043:0.95956546068191528] [-1.0231971740722656:1.0374906063079834] [-2.1886487007141113:0.50105094909667969] none [-0.67389988899230957:0.58285671472549438] [-0.51815825700759888:0.41369104385375977] [-0.40995877981185913:0.43587410449981689] [-0.60508781671524048:0.59160029888153076] [0:4.4761581420898438] [0:3.0837638378143311] [0:7.6416573524475098] [0:3.3959767818450928] [0:0.51997494697570801] [0:0.96295064687728882] [0:3.3223044872283936] [0:0.73904097080230713] [0:0.31860807538032532] [0:0.49711725115776062] [0:1.8890196084976196] [0:0.60641282796859741] [0:16.677709579467773] [0:2.730449914932251] [0:16.205419540405273] [0:2.0964455604553223] [0:2.6270089149475098] [0:2.445716381072998] [0:3.7945551872253418] [0:5.6931371688842773] [0:44.655216217041016] [0:3.6728219985961914] [0:3.2618036270141602] [0:2.3117744922637939] [0:3.8107631206512451] [0:7.6486935615539551] [0:10.391365051269531] [0:4.1588549613952637] [0:3.4263577461242676] [0:5.1788692474365234] [0:2.2983169555664062] [0:3.2301938533782959] [0:2.5236742496490479] [0:3.0936791896820068] [0:3.9608018398284912] [0:3.1067028045654297] [0:1.982867956161499] [0:3.1177237033843994] [0:1.6820882558822632] [0:2.7959342002868652] [0:6.432713508605957] [0:6.9697127342224121] [0:8.9657611846923828] none [0:3.4680085182189941] [0:2.2975027561187744] [0:2.301020622253418] [0:2.4752655029296875] [-9.4950313568115234:0] [-5.2627091407775879:0] [-16.209281921386719:0] [-5.8385686874389648:0] [-1.1494911909103394:0] [-1.4357819557189941:0] [-6.7496647834777832:0.021788120269775391] [-1.6540131568908691:0] [-0.56460875272750854:0] [-1.0660789012908936:0] [-3.9380810260772705:0] [-1.2394648790359497:0] [-23.894144058227539:0.019384622573852539] [-5.7464327812194824:0] [-23.242536544799805:0.003185272216796875] [-5.0472784042358398:0] [-4.7965621948242188:0] [-4.8890790939331055:0] [-9.4794597625732422:0] [-14.920639038085938:0] [-76.932708740234375:0.0012759566307067871] [-6.4373478889465332:0] [-6.7992563247680664:0] [-4.5535264015197754:0.023898839950561523] [-8.1045083999633789:0] [-15.884320259094238:0] [-20.592864990234375:0] [-6.4321022033691406:0] [-4.9868288040161133:0.0051012039184570312] [-10.46230411529541:0] [-5.3088250160217285:0] [-6.2336220741271973:0] [-5.3161172866821289:0] [-5.2553210258483887:0] [-8.4455833435058594:0] [-4.8228297233581543:0.0018799304962158203] [-3.3308019638061523:0] [-5.7466778755187988:0.017193198204040527] [-3.3627586364746094:0] [-3.7899203300476074:0] [-9.036931037902832:0] [-10.287735939025879:0] [-14.927826881408691:0] none [-7.4562172889709473:0] [-5.3214449882507324:0] [-4.0376262664794922:0] [-4.2938470840454102:0] [0:9.3985586166381836] [0:7.5520358085632324] [0:16.179018020629883] [0:8.2935667037963867] [0:0.95956599712371826] [0:1.7279512882232666] [0:6.8289203643798828] [0:1.357595682144165] [0:0.97965145111083984] [0:0.94117128849029541] [0:3.8398087024688721] [0:1.2396221160888672] [-0.0078548192977905273:41.332897186279297] [0:5.0052175521850586] [-0.0033758878707885742:40.169479370117188] [0:3.8296763896942139] [0:4.8921918869018555] [0:4.7082939147949219] [0:5.9120817184448242] [0:11.746374130249023] [0:105.88224029541016] [0:8.5894107818603516] [0:7.6255416870117188] [0:3.8734283447265625] [0:7.5074830055236816] [0:16.62291145324707] [0:19.746784210205078] [0:7.7130126953125] [0:7.135406494140625] [0:11.217684745788574] [0:5.0658164024353027] [-0.011801838874816895:6.1327133178710938] [0:5.1790084838867188] [0:7.2002811431884766] [0:6.3395442962646484] [0:5.9800863265991211] [0:3.1355481147766113] [0:4.6573128700256348] [0:3.5309696197509766] [0:5.8438615798950195] [0:9.1276302337646484] [0:9.7546291351318359] [0:20.972326278686523] none [-0.012974690645933151:7.1086502075195312] [0:3.4408602714538574] [0:3.9560592174530029] [-0.011904060840606689:4.9217472076416016] [-0.32331115007400513:0.61235594749450684] [-0.33923494815826416:0.30635923147201538] [-0.42030560970306396:1.0758832693099976] [-0.4098278284072876:0.37482833862304688] [-0.059298209846019745:0.055410336703062057] [-0.1167750358581543:0.099777922034263611] [-0.27897042036056519:0.41119945049285889] [-0.090856358408927917:0.1008135974407196] [-0.057527560740709305:0.053703751415014267] [-0.042475409805774689:0.064570792019367218] [-0.1173461452126503:0.25513571500778198] [-0.041190698742866516:0.075316682457923889] [-1.0436177253723145:1.9778352975845337] [-0.41750946640968323:0.31965622305870056] [-1.0210646390914917:1.9778352975845337] [-0.23849053680896759:0.28950271010398865] [-0.2715516984462738:0.3465312123298645] [-0.32294145226478577:0.3283664882183075] [-0.37488487362861633:0.3887503445148468] [-0.53624647855758667:0.81235671043395996] [-2.2521543502807617:5.8051252365112305] [-0.46642237901687622:0.47603008151054382] [-0.52547085285186768:0.45498207211494446] [-0.30643519759178162:0.26538240909576416] [-0.42925623059272766:0.44182670116424561] [-0.46641713380813599:1.0245546102523804] [-0.74156194925308228:1.5069565773010254] [-0.49253013730049133:0.48473063111305237] [-0.35578680038452148:0.45063859224319458] [-0.47294217348098755:0.8617674708366394] [-0.28608503937721252:0.2917388379573822] [-0.28901499509811401:0.41234970092773438] [-0.36521303653717041:0.37796133756637573] [-0.45022612810134888:0.42942079901695251] [-0.42152926325798035:0.43148478865623474] [-0.2996305525302887:0.44288429617881775] [-0.2732100784778595:0.22958086431026459] [-0.27803418040275574:0.39687937498092651] [-0.17119383811950684:0.22776468098163605] [-0.31249010562896729:0.26137888431549072] [-0.65625065565109253:0.87517446279525757] [-1.1162104606628418:1.0812411308288574] [-0.40368792414665222:1.1752082109451294] none [-0.42510488629341125:0.44688430428504944] [-0.23163054883480072:0.29829403758049011] [-0.26898670196533203:0.31579127907752991] [-0.29193228483200073:0.28736340999603271]
tree_sizes=669 459 567 584 472 581 581 470 689 479 474 584 577 474 579 684 471 794 476 470 580 581 471 685 579 578 562 579 469 688 688 479 896 477 479 794 581 468 694 581 474 581 582 579 896 580 472 476 581 478 770 582 480 583 478 475 792 580 480 685 581 578 581 578 472 577 478 474 579 474 472 580 477 476 583 576 476 795 480 477 580 475 687 474 474 474 581 579 480 685 478 471 578 480 470 686 582 470 583 683 470 582 583 468 689 584 476 789 478 472 682 481 575 685 474 579 579 584 474 785 477 578 791 581 581 691 475 578 667 479 480 687 478 472 579 585 479 790 475 474 476 478 479 578 476 479 792 688 474 687 580 472 793 478 579 665 478 578 688 581 479 791 474 471 686 475 472 691 583 472 792 585 474 672 580 583 581 563 467 688 462 473 687 569 474 685 465 474 796 464 586 684 587 472 476 478 584 888 586 583 686 468 479 473 574 478 664 467 582 691 475 478 584 477 475 582 479 477 795 586 479 792 476 474 791 564 477 793 476 477 582 480 477 886 480 481 686 584 476 580 480 478 477 480 473 686 478 475 581 478 579 587 477 576 585 585 472 691 477 581 476 586 472 577 478 479 686 479 475 670 476 472 777 475 483 778 478 474 688 478 473 782 479 474 655 475 482 566 474 479 676 561 476 683 479 565 778 476 473 683 476 477 477 565 589 477 478 477 586 477 480 582 480 473 776 476 475 468 477 476 645 585 585 659 591 475 767 570 478 763 481 476 698 481 475 587 477 476 881 480 476 564 567 474 670 479 477 696 481 475 478 478 481 583 478 479 581 481 481 583 572 479 705 479 477 478 475 481 479 565 469 653 482 476 669 673 570 673 478 480 655 654 483 567 569 485 655 479 481 658 480 477 673 568 482 477 479 483 477 571 565 663 573 482 479 479 477 573 566 478 566 570 474 588 476 483 567 486 474 568 573 479 588 481 473 583 573 476 477 572 474 677 571 480 476 477 475 578 658 478 670 563 481 558 477 477 654 570 475 642 662 473 554 483 474 556 569 474 560 478 480 647 569 482 553 568 473 750 571 470 476 483 472 660 484 468 566 482 538 667 482 445 668 483 472 659 481 451 480 576 471 479 481 449 649 484 459 647 663 458 559 484 465 560 576 461 561 661 460 471 481 546 653 572 545 561 552 456 562 481 462 550 460 458 654 548 460 553 477 463 550 551 557 645 457 460 640 459 464 640 554 546 644 456 547 641 461 463 720 544 462 562 456 550 629 542 458 542 541 457 552 544 458 538 631 460 540 452 459 540 458 541 627 553 450 540 554 543 539 551 447 451 463 541 448 465 540 459 464 448 457 551 452 549 555 449 546 463 451 542 641 452 451 550 456 628 641 453 541 549 455 451 464 455 450 544 447 449 544 452 543 454 541 540 543 453 634 543 449 725 554 539 541 553 454 451 550 454 540 451 455 451 543 453 541 540 541 539 542 450 540 630 541 632 541 453 632 635 543 638 457 461 539 458 448 541 452 543 545 454 454 539 543 460 632 548 453 631 452 449 631 455 456 542 451 457 635 450 455 641 541 457 543 547 458 634 547 452 544 453 459 543 545 458 548 549 542 453 548 556 456 456 454 549 455 551 544 544 552 541 451 458 643 544 464 546 543 457 638 452 460 547 550 454 550 546 467 454 645 455 551 557 456 458 551 456 552 457 462 637 548 549 550 459 462 550 459 461 458 459 459 551 457 461 550 646 554 549 557 460 456 457 460 648 456 460 552 456 559 553 551 455 458 460 461 455 456 464 460 460 456 550 459 462 550 456 456 459 463 461 458 456 457 556 550 457 548 460 457 649 553 463 643 460 457 548 461 551 548 459 467 643 551 461 645 548 454 552 460 456 646 458 458 646 457 456 552 455 455 552 461 459 644 551 554 646 551 463 547 461 553 551 552 457 646 458 458 644 461 460 650 552 462 548 461 459 550 457 457 550 553 461 555 552 459 650 462 455 554 460 553 549 460 467 645 462 460 460 552 553 458 461 554 554 553 555 456 558 552 549 552 457 461 552 457 461 456 457 461 461 455 554 551 457 555 556 455 646 461 464 554 554 459 558 458 464 556 462 460 553 462 463 743 458 469 557 459 459 549 459 470 554 455 464 556 558 459 549 460 552 552 461 463 554 457 462 460 462 461 554 557 555 553 457 464 551 459 461 554 555 458 458 552 463 461 461 459 552 464 558 747 462 460 646 555 463 552 551 457 550 456 460 553 457 555 462 553 553 645 650 462 647 458 464 460 647 464 559 555 464 555 558 463 462 558 459 556 557 462 558 556 462 651 463 468 463 461 458 464 554 460 648 556 463 654 650 466 558 458 465 648 558 559 555 557 557 646 554 467 552 464 462 644 555 460 555 551 462 556 554 461 648 462 462 555 554 462 651 458 460 647 458 465 650 553 557 556 647 463 749 459 555 555 462 465 460 555 465 553 464 558 551 464 556 749 465 461 462 460 463 647 464 460 555 462 460 553 464 460 458 464 470 556 455 464 648 459 460 549 462 466 552 463 555 556 464 465 553 458 467 748 462 465 559 461 466 558 555 464 646 554 466 650 652 460 459 651 459 649 463 466 461 644 465 646 460 468 556 461 471 652 560 465 644 556 466 553 554 463 553 464 460 459 460 459 649 558 556 463 461 460 553 648 465 461 464 463 553 464 463 651 459 561 554 460 458 557 560 558 557 654 467 555 464 465 556 464 472 461 463 468 557 560 466 461 465 460 555 463 460 552 657 470 463 459 463 461 554 464 557 464 466 555 461 462 654 460 466 462 554 463 559 562 467 465 466 468 653 461 556 654 559 469 650 558 462 646 457 471 557 463 464 559 460 468 554 463 461 748 557 461 555 465 464 552 560 464 557 555 466 463 559 464 564 466 465 555 560 459 555 558 466 560 656 461 649 655 465 555 557 562 463 559 467 560 559 460 557 561 463 554 466 466 463 560 464 652 553 558 556 465 462 557 460 469 650 466 464 556 561 462 558 461 462 557 467 558 462 464 561 644 465 465 554 466 555 648 562 557 554 466 463 461 463 461 464 460 463 556 463 463 462 462 465 464 562 558 554 467 559 557 463 555 465 462 461 463 461 558 649 464 466 559 466 467 559 467 564 560 557 554 558 462 468 558 467 473 553 469 462 466 467 463 465 467 464 558 467 465 464 463 462 462 465 463 557 561 468 465 467 459 553 559 460 555 466 466 465 559 555 656 465 467 465 556 463 559 466 561 561 467 461 561 745 462 561 562 461 467 651 460 561 468 462 466 462 559 555 558 464 559 468 464 562 469 560 556 559 462 655 468 560 654 464 560 562 466 558 465 467 466 459 465 560 466 465 469 465 560 565 465 559 467 465 464 469 465 653 562 562 464 467 652 466 466 466 466 471 558 467 458 468 466 470 563 460 470 464 467 472 465 465 465 557 467 465 560 467 473 661 557 464 561 557 470 562 468 472 560 557 467 562 468 465 466 560 465 561 564 473 556 470 465 560 466 466 558 470 468 466 466 560 658 472 468 658 466 466 467 470 463 467 468 563 564 467 470 464 563 465 467 469 472 564 467 469 558 561 470 463 466 463 565 561 466 561 561 466 560 468 466 468 560 466 659 469 463 656 467 465 658 565 467 657 565 465 465 467 465 562 471 461 562 465 464 561 466 466 463 469 467 466 473 465 466 465 472 663 467 563 568 466 464 469 468 470 567 466 466 662 657 470 470 470 466 561 465 470 560 561 465 562 467 562 565 562 472 469 464 466 466 469 476 561 471 470 564 469 467 563 566 471 565 462 464 566 473 469 564 466 464 561 468 472 565 467 468 565 465 476 563 472 562 560 465 468 661 469 467 563 468 470 564 560 465 564 472 469 660 472 467 564 469 469 662 469 566 564 466 567 565 562 562 567 469 467 561 472 571 560 466 467 466 565 467 562 563 468 563 563 467 566 470 469 467 471 468 659 468 563 468 565 461 468 468 468 466 465 467 560 469 467 467 564 472 468 469 469 466 467 467 466 466 470 468 561 565 467 470 570 465 566 466 467 558 564 469 562 467 561

Tree=0
num_leaves=5
num_cat=0
split_feature=3 18 618 18
split_gain=7354.44 334.633 0.793011 0.420505
threshold=-0.26637089252471918 -0.33415804803371424 -0.12077368050813674 -0.44191944599151606
decision_type=2 2 2 2
left_child=1 3 -2 -1
right_child=2 -3 -4 -5
leaf_value=-1.0386615711005578 -1.1285937978402494 -1.1277773071986894 -1.118907114907385 -1.0711475702673057
leaf_weight=1276.7981965988874 2540.3275683671236 38.522781670093536 18.200717076659203 3.1087493747472754
leaf_count=8243 3232 49 32 16
internal_value=-1.09887 -1.04134 -1.12853 -1.03872
internal_weight=3876.96 1318.43 2558.53 1279.91
internal_count=11572 8308 3264 8259
is_linear=0
shrinkage=1


Tree=1
num_leaves=3
num_cat=0
split_feature=584 5
split_gain=7708.68 150.569
threshold=0.16125476360321048 1.7943780422210696
decision_type=2 2
left_child=1 -1
right_child=-2 -3
leaf_value=-1.1285993290569298 -1.0386707488674207 -1.0420522946520354
leaf_weight=2544.4161538630724 1315.2279116660357 17.313947558403015
leaf_count=9878 1672 22
internal_value=-1.09768 -1.12799
internal_weight=3876.96 2561.73
internal_count=11572 9900
is_linear=0
shrinkage=1


Tree=2
num_leaves=4
num_cat=0
split_feature=769 812 933
split_gain=7408.57 240.344 0.850711
threshold=0.19988378882408145 0.57066291570663463 -0.26018615067005152
decision_type=2 2 2
left_child=1 2 -1
right_child=-2 -3 -4
leaf_value=-1.1107752723168938 -1.0386632626505348 -1.0408238838617381 -1.1285996628945136
leaf_weight=4.8125926554203025 1235.3189294338226 27.486435174942017 2609.3400558233261
leaf_count=27 1573 35 9937
internal_value=-1.09928 -1.12764 -1.12857
internal_weight=3876.96 2641.64 2614.15
internal_count=11572 9999 9964
is_linear=0
shrinkage=1


Tree=3
num_leaves=4
num_cat=0
split_feature=147 163 625
split_gain=6848.7 302.263 0.306633
threshold=1.0000000180025095e-35 -0.061359228566288941 0.32403124868869787
decision_type=2 2 2
left_child=1 2 -1
right_child=-2 -3 -4
leaf_value=0.056522043860733735 -0.029538709086656775 -0.028733762476138673 0.02625714213052513
leaf_weight=1315.0973534137011 2516.7013257145882 37.945261597633362 3.1630359739065161
leaf_count=8255 3252 49 16
internal_value=-0.000255006 0.0540661 0.0564717
internal_weight=3872.91 1356.21 1318.26
internal_count=11572 8320 8271
is_linear=0
shrinkage=0.03


Tree=4
num_leaves=3
num_cat=0
split_feature=584 107
split_gain=7145.93 142.182
threshold=0.16125476360321048 1.8146424889564516
decision_type=2 2
left_child=1 -1
right_child=-2 -3
leaf_value=-0.029537813016127009 0.056506404601020722 0.053507562870351778
leaf_weight=2504.560342207551 1352.7840628474951 17.790782928466797
leaf_count=9878 1672 22
internal_value=0.000901451 -0.0289299
internal_weight=3875.14 2522.35
internal_count=11572 9900
is_linear=0
shrinkage=0.03


Tree=5
num_leaves=4
num_cat=0
split_feature=769 812 933
split_gain=6872.28 226.657 0.831025
threshold=0.19988378882408145 0.57066291570663463 -0.26018615067005152
decision_type=2 2 2
left_child=1 2 -1
right_child=-2 -3 -4
leaf_value=-0.011891902314523525 0.056515788286007243 0.054600082762552779 -0.029538409980975663
leaf_weight=4.7788954973220816 1270.57350897789 28.253627717494965 2568.4944916814566
leaf_count=27 1573 35 9937
internal_value=-0.000646323 -0.0285762 -0.0295114
internal_weight=3872.1 2601.53 2573.27
internal_count=11572 9999 9964
is_linear=0
shrinkage=0.03


Tree=6
num_leaves=4
num_cat=0
split_feature=147 493 524
split_gain=6380.54 274.541 0.193738
threshold=1.0000000180025095e-35 0.5503273904323579 0.06472350656986238
decision_type=2 2 2
left_child=1 2 -1
right_child=-2 -3 -4
leaf_value=0.05351256533154515 -0.029110657373099369 -0.02832030341833798 0.025235849851591954
leaf_weight=1346.3390147984028 2475.1030665636063 37.343829691410065 3.2046407759189597
leaf_count=8255 3252 49 16
internal_value=-0.000248052 0.0512432 0.0534664
internal_weight=3861.99 1386.89 1349.54
internal_count=11572 8320 8271
is_linear=0
shrinkage=0.03


Tree=7
num_leaves=3
num_cat=0
split_feature=584 486
split_gain=6644.29 134.489
threshold=0.16125476360321048 1.881600081920624
decision_type=2 2
left_child=1 -1
right_child=-2 -3
leaf_value=-0.029109628972307951 0.053495904840330614 0.050804461416870769
leaf_weight=2463.1405024081469 1384.9294562190771 18.20208728313446
leaf_count=9878 1672 22
internal_value=0.000875782 -0.028502
internal_weight=3866.27 2481.34
internal_count=11572 9900
is_linear=0
shrinkage=0.03


Tree=8
num_leaves=5
num_cat=0
split_feature=769 860 860 951
split_gain=6393.5 196.201 3.75082 0.250994
threshold=0.19988378882408145 -1.1107881069183347 -1.0234774351119993 0.040380280464887626
decision_type=2 2 2 2
left_child=1 -1 -3 -4
right_child=-2 2 3 -5
leaf_value=0.049555566263962625 0.053505218259143297 -0.0029777907837060238 -0.029110742837083255 -0.016823199825910469
leaf_weight=28.023164808750153 1300.7669303417206 5.4614573717117301 2518.9196267724037 7.2784566879272452
leaf_count=34 1573 7 9926 32
internal_value=-0.000628173 -0.0281487 -0.0290293 -0.0290832
internal_weight=3860.45 2559.68 2531.66 2526.2
internal_count=11572 9999 9965 9958
is_linear=0
shrinkage=0.03


Tree=9
num_leaves=3
num_cat=0
split_feature=147 162
split_gain=5958.98 255.889
threshold=1.0000000180025095e-35 -0.24269448220729825
decision_type=2 2
left_child=1 -1
right_child=-2 -3
leaf_value=0.050857247086748693 -0.028702690721622969 -0.027939870124631051
leaf_weight=1375.0468184202909 2432.0903784036636 37.473251283168793
leaf_count=8270 3252 50
internal_value=-0.000241633 0.0487464
internal_weight=3844.61 1412.52
internal_count=11572 8320
is_linear=0
shrinkage=0.03


Tree=10
num_leaves=3
num_cat=0
split_feature=101 8
split_gain=6202.41 120.916
threshold=1.0000000180025095e-35 1.9440227746963503
decision_type=2 2
left_child=1 -1
right_child=-2 -3
leaf_value=-0.028702108524687627 0.050855179126494794 0.048010807351518581
leaf_weight=2420.5172933340073 1412.5214874744415 17.74191015958786
leaf_count=9879 1672 21
internal_value=0.000852087 -0.0281232
internal_weight=3850.78 2438.26
internal_count=11572 9900
is_linear=0
shrinkage=0.03


Tree=11
num_leaves=4
num_cat=0
split_feature=769 812 933
split_gain=5963.45 203.231 0.833864
threshold=0.19988378882408145 0.57066291570663463 -0.26018615067005152
decision_type=2 2 2
left_child=1 2 -1
right_child=-2 -3 -4
leaf_value=-0.011161143727492545 0.050848013464306716 0.049447198508736544 -0.028702980254100778
leaf_weight=4.6819048374891272 1326.1073095202446 29.435925424098969 2482.1969535797834
leaf_count=27 1573 35 9937
internal_value=-0.00061139 -0.0277413 -0.0286757
internal_weight=3842.42 2516.31 2486.88
internal_count=11572 9999 9964
is_linear=0
shrinkage=0.03


Tree=12
num_leaves=4
num_cat=0
split_feature=627 642 2
split_gain=5559.42 234.428 1.90991
threshold=0.4581745862960816 0.90125283598899852 0.13289924710989001
decision_type=2 2 2
left_child=1 -1 -2
right_child=2 -3 -4
leaf_value=0.048496399948736849 -0.028308354001419442 -0.027550607497697169 -0.016359693921516889
leaf_weight=1393.846517726779 2372.5603808611631 36.806123435497284 17.953899711370468
leaf_count=8254 3232 50 36
internal_value=-0.000235786 0.04652 -0.0282267
internal_weight=3821.17 1430.65 2390.51
internal_count=11572 8304 3268
is_linear=0
shrinkage=0.03


Tree=13
num_leaves=3
num_cat=0
split_feature=101 4
split_gain=5795.76 114.711
threshold=1.0000000180025095e-35 1.8750264644622805
decision_type=2 2
left_child=1 -1
right_child=-2 -3
leaf_value=-0.028313132920041898 0.048494997261778035 0.045890564136470788
leaf_weight=2376.4354181438684 1434.599832713604 18.010043799877167
leaf_count=9879 1672 21
internal_value=0.000830055 -0.0277348
internal_weight=3829.05 2394.45
internal_count=11572 9900
is_linear=0
shrinkage=0.03


Tree=14
num_leaves=4
num_cat=0
split_feature=781 865 115
split_gain=5551.89 207.784 0.0831157
threshold=0.22585929930210116 0.31072077155113226 0.96335351467132579
decision_type=2 2 2
left_child=1 -1 -2
right_child=2 -3 -4
leaf_value=-0.028314646898452249 0.048501560347423506 0.046987119195054002 0.036082249615682217
leaf_weight=2438.629753112793 1330.4350420236588 32.536826848983765 16.76083517074585
leaf_count=9960 1554 38 20
internal_value=-0.00059563 -0.0273034 0.0483762
internal_weight=3818.36 2471.17 1347.2
internal_count=11572 9998 1574
is_linear=0
shrinkage=0.03


Tree=15
num_leaves=5
num_cat=0
split_feature=18 13 18 23
split_gain=5162.65 248.23 1.61887 5.39396
threshold=-0.44191944599151606 -0.097801841795444475 -0.40223033726215357 -0.4601170271635055
decision_type=2 2 2 2
left_child=1 -1 3 -2
right_child=2 -3 -4 -5
leaf_value=0.046392420807266375 0.0044301546996853586 -0.027231803138360624 -0.027945853934810735 -0.026416850865833057
leaf_weight=1421.1673306077719 6.4895758032798794 41.776350140571594 2266.421745121479 17.386972784996033
leaf_count=8315 22 58 3146 24
internal_value=0.000263522 0.0442708 -0.0278521 -0.0180711
internal_weight=3753.24 1462.94 2290.3 23.8765
internal_count=11565 8373 3192 46
is_linear=0
shrinkage=0.03


Tree=16
num_leaves=3
num_cat=0
split_feature=587 119
split_gain=5257.95 150.482
threshold=0.39833717048168188 0.56125086545944225
decision_type=2 2
left_child=1 -1
right_child=-2 -3
leaf_value=-0.027944254152589519 0.046382245057953485 0.04452801186769962
leaf_weight=2337.0856084525585 1388.8130354583263 25.185322701931
leaf_count=9935 1601 29
internal_value=7.79755e-05 -0.0271518
internal_weight=3751.08 2362.27
internal_count=11565 9964
is_linear=0
shrinkage=0.03


Tree=17
num_leaves=6
num_cat=0
split_feature=769 908 61 933 528
split_gain=5171.82 177.113 7.29958 0.257861 0.525691
threshold=0.19988378882408145 0.8961438536643983 0.21593048423528674 -0.23990542441606519 0.30832077562808996
decision_type=2 2 2 2 2
left_child=1 2 3 4 -1
right_child=-2 -3 -4 -5 -6
leaf_value=-0.021966337156162911 0.046386264655174578 0.045173612937384935 0.0039569279292169879 -0.027943582639831464 -0.003241476061903724
leaf_weight=4.0189475566148749 1357.9314052462578 29.400963962078094 6.0862073302268973 2346.6545509248972 2.9737489074468613
leaf_count=28 1567 34 8 9912 16
internal_value=-0.000342815 -0.0269121 -0.0278303 -0.0279154 -0.0157805
internal_weight=3747.07 2389.13 2359.73 2353.65 6.9927
internal_count=11565 9998 9964 9956 44
is_linear=0
shrinkage=0.03


Tree=18
num_leaves=3
num_cat=0
split_feature=147 162
split_gain=4911.95 183.796
threshold=1.0000000180025095e-35 -0.24269448220729825
decision_type=2 2
left_child=1 -1
right_child=-2 -3
leaf_value=0.044505740816761848 -0.027593206621109704 -0.026779999342700367
leaf_weight=1436.8152554780245 2250.5980604887009 32.63180136680603
leaf_count=8332 3187 46
internal_value=0.0002568 0.0429035
internal_weight=3720.05 1469.45
internal_count=11565 8378
is_linear=0
shrinkage=0.03


Tree=19
num_leaves=3
num_cat=0
split_feature=105 4
split_gain=4977.1 93.1646
threshold=0.31717942655086523 2.0384131669998173
decision_type=2 2
left_child=1 -1
right_child=-2 -3
leaf_value=-0.027591249081092079 0.044436885768800477 0.04183722436611869
leaf_weight=2289.7789060771465 1411.1359148025513 16.647947669029236
leaf_count=9927 1619 19
internal_value=7.63231e-05 -0.0270709
internal_weight=3717.56 2306.43
internal_count=11565 9946
is_linear=0
shrinkage=0.03


Tree=20
num_leaves=4
num_cat=0
split_feature=576 2 883
split_gain=4819.63 200.086 6.87674
threshold=-2.0109651088714595 -0.8848954141139983 0.24680184572935107
decision_type=2 2 2
left_child=1 -1 -2
right_child=2 -3 -4
leaf_value=0.044423945301996087 -0.027591494296827439 -0.026773792352228862 0.0042274976638583574
leaf_weight=1402.4380200505257 2269.1023766696453 35.7710892111063 5.7169162631034842
leaf_count=1608 9793 151 13
internal_value=-0.000334507 0.0426337 -0.0275084
internal_weight=3713.03 1438.21 2274.82
internal_count=11565 1759 9806
is_linear=0
shrinkage=0.03


Tree=21
num_leaves=4
num_cat=0
split_feature=627 642 480
split_gain=4603.48 170.057 2.27381
threshold=0.4581745862960816 0.90125283598899852 0.12733589857816699
decision_type=2 2 2
left_child=1 -1 -2
right_child=2 -3 -4
leaf_value=0.042797794454373358 -0.027250938105200313 -0.026433607829145396 -0.014263442696055111
leaf_weight=1442.6106846481562 2190.7810294777155 31.972192943096161 16.610113099217415
leaf_count=8315 3168 46 36
internal_value=0.000250751 0.0412778 -0.0271611
internal_weight=3681.97 1474.58 2207.39
internal_count=11565 8361 3204
is_linear=0
shrinkage=0.03


Tree=22
num_leaves=3
num_cat=0
split_feature=105 8
split_gain=4678.29 88.6613
threshold=0.31717942655086523 1.7922519445419314
decision_type=2 2
left_child=1 -1
right_child=-2 -3
leaf_value=-0.027254711382711301 0.042735847680064713 0.040299450867371779
leaf_weight=2242.809890717268 1419.7086982131004 16.745932698249817
leaf_count=9927 1619 19
internal_value=7.49813e-05 -0.0267351
internal_weight=3679.26 2259.56
internal_count=11565 9946
is_linear=0
shrinkage=0.03


Tree=23
num_leaves=5
num_cat=0
split_feature=96 0 61 883
split_gain=4534.33 118.149 75.8559 6.66853
threshold=-1.3557974696159361 -1.4445928931236265 0.26979711651802069 0.24680184572935107
decision_type=2 2 2 2
left_child=1 2 -1 -2
right_child=3 -3 -4 -5
leaf_value=-0.026507262618820169 -0.027254702127563177 0.042820509414812927 0.040967205139230557 0.0041088407994972565
leaf_weight=37.043389111757278 2222.530666038394 1385.2538825273514 23.750950634479523 5.7059943526983252
leaf_count=157 9793 1575 27 13
internal_value=-0.000327176 0.0410253 4.12848e-05 -0.0271712
internal_weight=3674.28 1446.05 60.7943 2228.24
internal_count=11565 1759 184 9806
is_linear=0
shrinkage=0.03


Tree=24
num_leaves=4
num_cat=0
split_feature=3 13 96
split_gain=4341 154.232 0.674585
threshold=-0.26637089252471918 -0.097801841795444475 -0.35971119999885554
decision_type=2 2 2
left_child=1 -1 -2
right_child=2 -3 -4
leaf_value=0.041225630116081977 -0.026930393663164374 -0.026078147854116975 -0.017760605702211486
leaf_weight=1449.0804579108953 2142.9721379727125 30.614967286586761 16.865864649415016
leaf_count=8321 3166 45 33
internal_value=0.000244936 0.0398144 -0.0268684
internal_weight=3639.53 1479.7 2159.84
internal_count=11565 8366 3199
is_linear=0
shrinkage=0.03


Tree=25
num_leaves=4
num_cat=0
split_feature=489 100 502
split_gain=4400.46 84.4375 3.1125
threshold=0.44832934439182287 1.9965032935142519 -0.51633638143539418
decision_type=2 2 2
left_child=1 -1 -2
right_child=2 -3 -4
leaf_value=-0.026934051973175159 0.016099163123139582 0.038896840058489722 0.041265871213044251
leaf_weight=2194.5286352783442 6.5256701707839957 16.80309009552002 1418.7247698903084
leaf_count=9922 20 19 1604
internal_value=7.37683e-05 -0.0264151 0.0411641
internal_weight=3636.58 2211.33 1425.25
internal_count=11565 9941 1624
is_linear=0
shrinkage=0.03


Tree=26
num_leaves=4
num_cat=0
split_feature=49 877 877
split_gain=4298.66 147.451 5.58702
threshold=0.15173157304525378 0.43206068873405462 0.37115293741226202
decision_type=2 2 2
left_child=1 2 -1
right_child=-2 -3 -4
leaf_value=-0.026935304300525393 0.041255026071827759 0.037871347450990821 0
leaf_weight=2209.0925367623568 1383.9635585546494 31.265311479568481 6.8156197071075431
leaf_count=9951 1568 36 10
internal_value=-0.000320208 -0.0259334 -0.0268517
internal_weight=3631.14 2247.17 2215.91
internal_count=11565 9997 9961
is_linear=0
shrinkage=0.03


Tree=27
num_leaves=4
num_cat=0
split_feature=627 157 2
split_gain=4089.4 143.51 2.35571
threshold=0.4581745862960816 1.0000000180025095e-35 0.12546855211257937
decision_type=2 2 2
left_child=1 -1 -2
right_child=2 -3 -4
leaf_value=0.039823750201704089 -0.026624979634908744 -0.025764415992217137 -0.013101325851130457
leaf_weight=1449.6166435927153 2098.0523790121078 29.961701333522797 15.438013955950735
leaf_count=8316 3169 45 35
internal_value=0.000239199 0.038477 -0.0265339
internal_weight=3593.07 1479.58 2113.49
internal_count=11565 8361 3204
is_linear=0
shrinkage=0.03


Tree=28
num_leaves=3
num_cat=0
split_feature=105 4
split_gain=4151.6 80.4694
threshold=0.31717942655086523 2.0384131669998173
decision_type=2 2
left_child=1 -1
right_child=-2 -3
leaf_value=-0.026628917492920057 0.039800576690814327 0.03761319435935423
leaf_weight=2147.1358085870743 1425.9615833163261 16.822060525417328
leaf_count=9927 1619 19
internal_value=7.28803e-05 -0.026111
internal_weight=3589.92 2163.96
internal_count=11565 9946
is_linear=0
shrinkage=0.03


Tree=29
num_leaves=5
num_cat=0
split_feature=781 812 543 908
split_gain=4052.47 133.198 7.75768 0.463131
threshold=0.22585929930210116 0.36835606396198278 0.79311645030975353 0.60910007357597362
decision_type=2 2 2 2
left_child=1 2 3 -1
right_child=-2 -3 -4 -5
leaf_value=-0.026629816123235416 0.039844409012428611 0.035773582430167837 0.010965616564902454 -0.012055095808610534
leaf_weight=2158.2946119010448 1385.8898653388023 30.471396341919899 4.3454702943563452 5.0602599680423728
leaf_count=9904 1569 43 16 33
internal_value=-0.000313637 -0.0256402 -0.026521 -0.0266027
internal_weight=3584.06 2198.17 2167.7 2163.35
internal_count=11565 9996 9953 9937
is_linear=0
shrinkage=0.03


Tree=30
num_leaves=5
num_cat=0
split_feature=162 643 498 162
split_gain=3888.32 166.388 14.0543 0.636281
threshold=-0.33636038005352015 0.68874254822731029 -0.5979318618774413 -0.24269448220729825
decision_type=2 2 2 2
left_child=1 -1 -2 -4
right_child=2 -3 3 -5
leaf_value=0.038592197540207596 0.029078297764686824 -0.025005516994913567 -0.0153053436909061 -0.026343910437530465
leaf_weight=1460.0740833580494 3.3062622100114814 37.284535109996796 10.731431424617766 2097.0773044228554
leaf_count=8390 19 59 23 3239
internal_value=2.68293e-05 0.036991 -0.0261945 -0.0262964
internal_weight=3608.47 1497.36 2111.11 2107.81
internal_count=11730 8449 3281 3262
is_linear=0
shrinkage=0.03


Tree=31
num_leaves=3
num_cat=0
split_feature=631 101
split_gain=3957.04 104.814
threshold=1.9987180829048159 1.0000000180025095e-35
decision_type=2 2
left_child=1 -1
right_child=-2 -3
leaf_value=-0.026341068298512359 0.038603080719866269 0.036882056819314009
leaf_weight=2153.5583818778396 1427.1583650708199 22.990101754665375
leaf_count=10090 1614 26
internal_value=-0.00020286 -0.0256553
internal_weight=3603.71 2176.55
internal_count=11730 10116
is_linear=0
shrinkage=0.03


Tree=32
num_leaves=7
num_cat=0
split_feature=49 908 82 858 843 908
split_gain=3937.29 129.15 3.65336 1.21216 0.235785 0.644853
threshold=0.15173157304525378 0.64578196406364452 1.2082301974296572 -1.7886659502983091 -2.5358340740203853 0.24873147904872897
decision_type=2 2 2 2 2 2
left_child=1 2 4 -3 5 -1
right_child=-2 3 -4 -5 -6 -7
leaf_value=-0.020873838099665504 0.03858219370448155 0.01708177370680521 0.0010654635257905394 0.037901172183798945 -0.026340646169135638 -0.0010523812396024603
leaf_weight=4.3421077132225028 1441.7464560270309 6.2142067402601269 4.1085991114377967 24.885664209723473 2126.0291789695621 2.6568256914615631
leaf_count=34 1634 19 8 30 9990 15
internal_value=0.000174859 -0.0253683 -0.0262566 0.0344964 -0.0263111 -0.0147968
internal_weight=3609.98 2168.24 2137.14 31.0999 2133.03 6.99893
internal_count=11730 10096 10047 49 10039 49
is_linear=0
shrinkage=0.03


Tree=33
num_leaves=3
num_cat=0
split_feature=147 1
split_gain=3707.41 142.935
threshold=1.0000000180025095e-35 -0.34877829253673548
decision_type=2 2
left_child=1 -1
right_child=-2 -3
leaf_value=0.037397671153947321 -0.026065736633182707 -0.024654765573787672
leaf_weight=1460.6636667847633 2059.7076725959778 33.483967810869217
leaf_count=8419 3257 54
internal_value=2.60938e-05 0.0359895
internal_weight=3553.86 1494.15
internal_count=11730 8473
is_linear=0
shrinkage=0.03


Tree=34
num_leaves=3
num_cat=0
split_feature=103 101
split_gain=3746.19 92.1883
threshold=1.0000000180025095e-35 1.8409916162490847
decision_type=2 2
left_child=1 -1
right_child=-2 -3
leaf_value=-0.026063154849536491 0.037433123241860863 0.035641289752889722
leaf_weight=2103.5137958452106 1424.1475275158882 21.151882231235504
leaf_count=10090 1616 24
internal_value=-0.000199172 -0.025431
internal_weight=3548.81 2124.67
internal_count=11730 10114
is_linear=0
shrinkage=0.03


Tree=35
num_leaves=6
num_cat=0
split_feature=769 61 165 668 951
split_gain=3711.5 126.973 4.12414 1.46298 0.276911
threshold=0.19988378882408145 0.23951504379510882 3.1800796985626225 2.3171551227569585 0.040380280464887626
decision_type=2 2 2 2 2
left_child=1 2 3 4 -1
right_child=-2 -3 -4 -5 -6
leaf_value=-0.026062870061071563 0.037415164800860719 0.035668978555196594 0.0025054214478538008 -0.010668520822714177 -0.014156207381346918
leaf_weight=2071.697848059237 1435.1206520795822 29.696540057659149 4.2235249727964392 8.1352878808975202 6.6655274480581275
leaf_count=9995 1632 34 22 12 35
internal_value=0.00017187 -0.0250391 -0.0259195 -0.0259796 -0.026033
internal_weight=3555.54 2120.42 2090.72 2086.5 2078.36
internal_count=11730 10098 10064 10042 10030
is_linear=0
shrinkage=0.03


Tree=36
num_leaves=4
num_cat=0
split_feature=3 499 138
split_gain=3493.88 135.199 2.24938
threshold=-0.26637089252471918 0.37985101342201238 -0.20213872194290158
decision_type=2 2 2
left_child=1 -1 -2
right_child=2 -3 -4
leaf_value=0.036317724139604948 -0.025794299793216974 -0.025032978792895389 -0.012234904134346705
leaf_weight=1450.3549024760723 1998.9640682041645 32.345631122589111 14.561173558235167
leaf_count=8404 3239 52 35
internal_value=2.51926e-05 0.0349613 -0.0257039
internal_weight=3496.23 1482.7 2013.53
internal_count=11730 8456 3274
is_linear=0
shrinkage=0.03


Tree=37
num_leaves=3
num_cat=0
split_feature=105 5
split_gain=3547.05 78.1869
threshold=0.31717942655086523 1.7943780422210696
decision_type=2 2
left_child=1 -1
right_child=-2 -3
leaf_value=-0.025797121718437153 0.036298497607469386 0.034854067888571968
leaf_weight=2052.073404982686 1420.4833261668682 18.44360214471817
leaf_count=10081 1628 21
internal_value=-0.0001953 -0.0252388
internal_weight=3491 2070.52
internal_count=11730 10102
is_linear=0
shrinkage=0.03


Tree=38
num_leaves=5
num_cat=0
split_feature=49 877 528 759
split_gain=3516.02 117.537 9.40342 0.817244
threshold=0.15173157304525378 0.48966385424137121 0.74719625711441051 0.066451486200094237
decision_type=2 2 2 2
left_child=1 2 3 -1
right_child=-2 -3 -4 -5
leaf_value=-0.025798913008624653 0.036342014954452204 0.036160368566989148 0.0096533546946766836 -0.0086483654051828021
leaf_weight=2031.2268769964576 1429.2277816534042 27.189396142959595 6.171937331557273 4.2960491031408301
leaf_count=10010 1634 31 26 29
internal_value=0.000168867 -0.0248243 -0.0256552 -0.0257685
internal_weight=3498.11 2068.88 2041.69 2035.52
internal_count=11730 10096 10065 10039
is_linear=0
shrinkage=0.03


Tree=39
num_leaves=4
num_cat=0
split_feature=3 163 480
split_gain=3308.92 126.792 2.2632
threshold=-0.26637089252471918 -0.061359228566288941 0.12733589857816699
decision_type=2 2 2
left_child=1 -1 -2
right_child=2 -3 -4
leaf_value=0.035333872775115335 -0.025541989823307815 -0.024768035388698401 -0.011895584750970275
leaf_weight=1440.0538030713797 1950.1131282001734 31.574578940868378 14.353451132774351
leaf_count=8404 3239 52 35
internal_value=2.4513e-05 0.0340264 -0.0254499
internal_weight=3436.09 1471.63 1964.47
internal_count=11730 8456 3274
is_linear=0
shrinkage=0.03


Tree=40
num_leaves=3
num_cat=0
split_feature=105 5
split_gain=3357.58 74.6533
threshold=0.31717942655086523 1.7943780422210696
decision_type=2 2
left_child=1 -1
right_child=-2 -3
leaf_value=-0.025544492529367781 0.035312618011344485 0.033900504530424959
leaf_weight=2001.8551332876086 1410.4193652123213 18.332466065883636
leaf_count=10081 1628 21
internal_value=-0.00019222 -0.0249871
internal_weight=3430.61 2020.19
internal_count=11730 10102
is_linear=0
shrinkage=0.03


Tree=41
num_leaves=4
num_cat=0
split_feature=96 2 830
split_gain=3320.85 123.295 5.78798
threshold=-1.3557974696159361 -0.84523788094520558 -0.48541072010993952
decision_type=2 2 2
left_child=1 -1 -2
right_child=2 -3 -4
leaf_value=0.035330787339943243 0.0052336910179539547 -0.024673273697424128 -0.025545968784981291
leaf_weight=1449.3467112034559 5.0398970842361441 30.765715427696705 1952.9039336293936
leaf_count=1671 7 157 9895
internal_value=0.000166432 0.0340657 -0.0254626
internal_weight=3438.06 1480.11 1957.94
internal_count=11730 1828 9902
is_linear=0
shrinkage=0.03


Tree=42
num_leaves=4
num_cat=0
split_feature=18 163 162
split_gain=3131.19 126.03 2.53328
threshold=-0.44191944599151606 -0.26103185117244715 -0.24269448220729825
decision_type=2 2 2
left_child=1 -1 -2
right_child=2 -3 -4
leaf_value=0.034463558566046049 -0.0093763025835104531 -0.023076638288001366 -0.025308058390179251
leaf_weight=1426.0648035556078 11.160511299967764 34.385782331228256 1902.038545191288
leaf_count=8399 30 62 3239
internal_value=2.36811e-05 0.0330919 -0.0252216
internal_weight=3373.65 1460.45 1913.2
internal_count=11730 8461 3269
is_linear=0
shrinkage=0.03


Tree=43
num_leaves=4
num_cat=0
split_feature=489 5 502
split_gain=3178.26 71.4124 2.29795
threshold=0.44832934439182287 1.7943780422210696 -0.53763958811759938
decision_type=2 2 2
left_child=1 -1 -2
right_child=2 -3 -4
leaf_value=-0.025303515747548657 0.012702319208547082 0.033050179321126617 0.034461898413472122
leaf_weight=1951.0252445936203 6.3355051875114432 18.197813510894775 1392.4725166559219
leaf_count=10075 20 21 1614
internal_value=-0.0001884 -0.0247462 0.0343746
internal_weight=3368.03 1969.22 1398.81
internal_count=11730 10096 1634
is_linear=0
shrinkage=0.03


Tree=44
num_leaves=7
num_cat=0
split_feature=865 786 2 529 44 481
split_gain=3131.39 68.9626 37.235 13.4577 7.31988 0.193419
threshold=0.22580227255821231 0.16040611267089847 -0.68558385968208302 0.12438244372606279 0.46869841217994695 0.1458627060055733
decision_type=2 2 2 2 2 2
left_child=1 4 -3 -2 -1 -5
right_child=3 2 -4 5 -6 -7
leaf_value=-0.02530493603224887 -0.012115139594384082 0.034187136806058678 -0.023575861735731559 0.022068248808190489 -0.00024881545433744071 0.034459889031487299
leaf_weight=1910.9410937279463 5.0709004402160636 26.863000214099884 14.777942717075346 9.2506539449095708 10.814636886119841 1397.9903924465179
leaf_count=10004 8 31 25 22 16 1624
internal_value=0.000163416 -0.0243367 0.0135451 0.0342187 -0.0251657 0.0343963
internal_weight=3375.71 1963.4 41.6409 1412.31 1921.76 1407.24
internal_count=11730 10076 56 1654 10020 1646
is_linear=0
shrinkage=0.03


Tree=45
num_leaves=4
num_cat=0
split_feature=3 162 480
split_gain=2968.81 106.376 1.54654
threshold=-0.26637089252471918 -0.24269448220729825 0.12733589857816699
decision_type=2 2 2
left_child=1 -1 -2
right_child=2 -3 -4
leaf_value=0.033618846582655022 -0.025075745787279009 -0.024271255722279249 -0.013058493187685297
leaf_weight=1408.5819056928158 1837.50656914711 28.425701022148132 14.122294530272482
leaf_count=8383 3212 49 34
internal_value=0.000111235 0.0324555 -0.0249928
internal_weight=3288.64 1437.01 1851.63
internal_count=11678 8432 3246
is_linear=0
shrinkage=0.03


Tree=46
num_leaves=3
num_cat=0
split_feature=632 4
split_gain=2997.02 73.625
threshold=1.2576915025711062 1.9796714186668398
decision_type=2 2
left_child=1 -1
right_child=-2 -3
leaf_value=-0.025074610799899116 0.033637520081907422 0.032033483094014513
leaf_weight=1889.4333301186562 1372.2984815239906 19.67985737323761
leaf_count=10048 1607 23
internal_value=-0.000164232 -0.0244679
internal_weight=3281.41 1909.11
internal_count=11678 10071
is_linear=0
shrinkage=0.03


Tree=47
num_leaves=3
num_cat=0
split_feature=781 865
split_gain=2957.01 119.121
threshold=0.22585929930210116 0.31072077155113226
decision_type=2 2
left_child=1 -1
right_child=-2 -3
leaf_value=-0.025077579103669853 0.033551515278098701 0.032893871398123942
leaf_weight=1878.5953668057919 1376.9996699094772 31.58597069978714
leaf_count=10024 1617 37
internal_value=5.17472e-05 -0.0241007
internal_weight=3287.18 1910.18
internal_count=11678 10061
is_linear=0
shrinkage=0.03


Tree=48
num_leaves=4
num_cat=0
split_feature=3 162 576
split_gain=2817.7 100.187 1.88824
threshold=-0.26637089252471918 -0.24269448220729825 0.080292876809835448
decision_type=2 2 2
left_child=1 -1 -2
right_child=2 -3 -4
leaf_value=0.032841333201947986 -0.024856507618678376 -0.024033770357780638 -0.011123245505508658
leaf_weight=1391.8962877690792 1791.2266126871109 27.706300616264343 12.145756289362906
leaf_count=8383 3215 49 31
internal_value=0.000108851 0.0317131 -0.0247719
internal_weight=3222.97 1419.6 1803.37
internal_count=11678 8432 3246
is_linear=0
shrinkage=0.03


Tree=49
num_leaves=3
num_cat=0
split_feature=101 7
split_gain=2837.07 77.1288
threshold=1.0000000180025095e-35 1.9087949395179751
decision_type=2 2
left_child=1 -1
right_child=-2 -3
leaf_value=-0.024855350663924292 0.032857760289289183 0.031583299257417798
leaf_weight=1840.0735786631703 1354.3932792544365 21.194954752922058
leaf_count=10048 1605 25
internal_value=-0.000161146 -0.0241944
internal_weight=3215.66 1861.27
internal_count=11678 10073
is_linear=0
shrinkage=0.03


Tree=50
num_leaves=6
num_cat=0
split_feature=96 107 147 0 787
split_gain=2818.3 57.2566 15.569 26.7251 2.85538
threshold=-1.3557974696159361 -0.0082140918821096403 1.0000000180025095e-35 -1.4445928931236265 0.26268208026885992
decision_type=2 2 2 2 2
left_child=1 2 3 -1 -2
right_child=4 -3 -4 -5 -6
leaf_value=-0.022759470392291776 -0.024857187718907176 -0.023366213629563069 0.032859103166249529 0.03139085814543742 0
leaf_weight=12.099183239042757 1800.9108671247959 16.059655964374542 1367.3264591693878 21.093373119831085 3.9999709129333487
leaf_count=110 9875 38 1624 25 6
internal_value=5.10216e-05 0.0317131 0.032363 0.0114762 -0.024801
internal_weight=3221.49 1416.58 1400.52 33.1926 1804.91
internal_count=11678 1797 1759 135 9881
is_linear=0
shrinkage=0.03


Tree=51
num_leaves=4
num_cat=0
split_feature=18 483 576
split_gain=2658.16 113.497 0.940918
threshold=-0.44191944599151606 0.33705222606658941 0.077358197420835509
decision_type=2 2 2
left_child=1 -1 -2
right_child=2 -3 -4
leaf_value=0.032128894487288236 -0.024637092977104636 -0.02386093380471575 -0.014055422235990671
leaf_weight=1373.4000404775143 1736.5057029128075 32.631390333175659 13.383061572909353
leaf_count=8382 3203 60 33
internal_value=0.000106822 0.0308113 -0.024566
internal_weight=3155.92 1406.03 1749.89
internal_count=11678 8442 3236
is_linear=0
shrinkage=0.03


Tree=52
num_leaves=3
num_cat=0
split_feature=101 102
split_gain=2693.78 73.7515
threshold=1.0000000180025095e-35 0.50338451564311992
decision_type=2 2
left_child=1 -1
right_child=-2 -3
leaf_value=-0.024646043214826451 0.032136968606848976 0.030876166449150984
leaf_weight=1791.0350837633014 1336.5617039203644 20.936947345733643
leaf_count=10048 1605 25
internal_value=-0.00015814 -0.0239862
internal_weight=3148.53 1811.97
internal_count=11678 10073
is_linear=0
shrinkage=0.03


Tree=53
num_leaves=4
num_cat=0
split_feature=49 812 225
split_gain=2677.59 92.9137 2.07516
threshold=0.15173157304525378 0.36835606396198278 -0.22391180694103238
decision_type=2 2 2
left_child=1 2 -1
right_child=-2 -3 -4
leaf_value=0.0044799051265624629 0.032116295326952649 0.029613601331633058 -0.024649188449196745
leaf_weight=1.7451131716370571 1344.028303861618 28.043020777404308 1780.5943065732718
leaf_count=9 1618 42 10009
internal_value=5.00216e-05 -0.0237589 -0.0246165
internal_weight=3154.41 1810.38 1782.34
internal_count=11678 10060 10018
is_linear=0
shrinkage=0.03


Tree=54
num_leaves=3
num_cat=0
split_feature=147 163
split_gain=2553.58 86.9043
threshold=1.0000000180025095e-35 -0.061359228566288941
decision_type=2 2
left_child=1 -1
right_child=-2 -3
leaf_value=0.031436284866279508 -0.024448708219706346 -0.023526604155026307
leaf_weight=1356.6378138363361 1705.5120858550072 25.649089455604553
leaf_count=8398 3232 48
internal_value=0.000104931 0.030398
internal_weight=3087.8 1382.29
internal_count=11678 8446
is_linear=0
shrinkage=0.03


Tree=55
num_leaves=3
num_cat=0
split_feature=584 100
split_gain=2565.18 64.2133
threshold=0.16125476360321048 1.8643202781677248
decision_type=2 2
left_child=1 -1
right_child=-2 -3
leaf_value=-0.024446155598882899 0.031464515175919618 0.029898515264307667
leaf_weight=1742.3006237521768 1319.064658626914 18.937750101089478
leaf_count=10047 1608 23
internal_value=-0.000155679 -0.0238435
internal_weight=3080.3 1761.24
internal_count=11678 10070
is_linear=0
shrinkage=0.03


Tree=56
num_leaves=6
num_cat=0
split_feature=61 908 14 11 556
split_gain=2468.47 111.615 21.8233 20.6503 2.72842
threshold=0.18811907619237903 0.50968164205551159 -0.42487089335918421 0.058328375220298774 1.1246917247772219
decision_type=2 2 2 2 2
left_child=1 4 -3 -2 -1
right_child=3 2 -4 -5 -6
leaf_value=-0.024447770583172653 0.031461580210303229 -0.021498747029368357 0.030957039639282483 -0.0045597420927466648 0.0012328844306933237
leaf_weight=1715.4222132191062 1305.9624516367912 7.8504893109202376 39.470259428024292 14.095770239830015 3.4147260263562194
leaf_count=9919 1595 74 48 23 19
internal_value=4.9424e-05 -0.0231398 0.0219277 0.0310715 -0.0243943
internal_weight=3086.22 1766.16 47.3207 1320.06 1718.84
internal_count=11678 10060 122 1618 9938
is_linear=0
shrinkage=0.03


Tree=57
num_leaves=4
num_cat=0
split_feature=627 642 578
split_gain=2415.31 84.3525 3.75827
threshold=0.4581745862960816 0.90125283598899852 0.32268723845481878
decision_type=2 2 2
left_child=1 -1 -2
right_child=2 -3 -4
leaf_value=0.030829590985896809 -0.024257114025532898 -0.023381505410098601 -0.0058480659142180029
leaf_weight=1331.3530323654413 1650.5853493213654 25.593736112117767 11.21589510142803
leaf_count=8377 3217 49 35
internal_value=0.000102977 0.0297884 -0.0241383
internal_weight=3018.75 1356.95 1661.8
internal_count=11678 8426 3252
is_linear=0
shrinkage=0.03


Tree=58
num_leaves=3
num_cat=0
split_feature=584 101
split_gain=2438.63 61.4312
threshold=0.16125476360321048 1.0000000180025095e-35
decision_type=2 2
left_child=1 -1
right_child=-2 -3
leaf_value=-0.024255434210887154 0.030840747290833588 0.029289415700992621
leaf_weight=1694.2002434805036 1298.4066438525915 18.65477466583252
leaf_count=10047 1608 23
internal_value=-0.000153197 -0.0236538
internal_weight=3011.26 1712.86
internal_count=11678 10070
is_linear=0
shrinkage=0.03


Tree=59
num_leaves=5
num_cat=0
split_feature=769 61 908 937
split_gain=2418.07 82.7233 2.18484 2.21462
threshold=0.19988378882408145 0.23951504379510882 0.54870483279228222 0.03575477376580239
decision_type=2 2 2 2
left_child=1 2 -1 -4
right_child=-2 -3 3 -5
leaf_value=-0.024258222320895563 0.030825878324490873 0.028997880508368788 -0.018459359560433229 0.01299116264053342
leaf_weight=1681.5220426768064 1303.757256090641 25.880127668380737 3.5496535152196875 2.5969673544168472
leaf_count=9984 1618 32 34 10
internal_value=4.88706e-05 -0.0233705 -0.024192 -0.00479316
internal_weight=3017.31 1713.55 1687.67 6.14662
internal_count=11678 10060 10028 44
is_linear=0
shrinkage=0.03


Tree=60
num_leaves=4
num_cat=0
split_feature=3 18 96
split_gain=2296.66 84.7792 2.14698
threshold=-0.26637089252471918 -0.38109809160232538 -0.35623484849929804
decision_type=2 2 2
left_child=1 -1 -2
right_child=2 -3 -4
leaf_value=0.030227965087233917 -0.024069092760636564 -0.023252475149585623 -0.0097774006644295291
leaf_weight=1310.5834333896637 1605.5419011265039 26.476875305175781 12.08092914521694
leaf_count=8385 3220 52 34
internal_value=6.85761e-05 0.0291501 -0.0239703
internal_weight=2954.68 1337.06 1617.62
internal_count=11691 8437 3254
is_linear=0
shrinkage=0.03


Tree=61
num_leaves=4
num_cat=0
split_feature=9 11 598
split_gain=2312.33 49.5474 3.11139
threshold=0.36911164224147802 1.7526912689208987 -0.88034519553184498
decision_type=2 2 2
left_child=1 -1 -2
right_child=2 -3 -4
leaf_value=-0.024072738616447056 0.0033617254435349825 0.028740133831283148 0.030256657584516941
leaf_weight=1662.3370633870363 4.4016270488500586 15.294104874134062 1257.1766923666
leaf_count=10069 20 19 1583
internal_value=-0.000502482 -0.0235726 0.0301679
internal_weight=2939.21 1677.63 1261.58
internal_count=11691 10088 1603
is_linear=0
shrinkage=0.03


Tree=62
num_leaves=4
num_cat=0
split_feature=576 2 812
split_gain=2314.06 80.9742 5.48582
threshold=-2.0109651088714595 -0.94924950599670399 0.36835606396198278
decision_type=2 2 2
left_child=1 -1 -2
right_child=2 -3 -4
leaf_value=0.030216501382315655 -0.024073526993651572 -0.02309901235215649 0.0098848104963249091
leaf_weight=1334.4385301917791 1598.8568522781134 25.387363217771053 3.6689730510115615
leaf_count=1686 9836 155 14
internal_value=0.000429147 0.0292027 -0.0239878
internal_weight=2962.35 1359.83 1602.53
internal_count=11691 1841 9850
is_linear=0
shrinkage=0.03


Tree=63
num_leaves=4
num_cat=0
split_feature=627 481 98
split_gain=2185.55 80.3326 2.71024
threshold=0.4581745862960816 0.1458627060055733 0.057721337303519256
decision_type=2 2 2
left_child=1 -1 -2
right_child=2 -3 -4
leaf_value=0.029688332788366203 -0.023896187804938098 -0.02306014362870315 -0.0079515268937128333
leaf_weight=1286.823993742466 1560.4750780165195 25.762071460485458 11.478515446186064
leaf_count=8383 3221 52 35
internal_value=6.74692e-05 0.028634 -0.0237868
internal_weight=2884.54 1312.59 1571.95
internal_count=11691 8435 3256
is_linear=0
shrinkage=0.03


Tree=64
num_leaves=3
num_cat=0
split_feature=581 4
split_gain=2197.6 54.3199
threshold=0.39897431433200842 1.8750264644622805
decision_type=2 2
left_child=1 -1
right_child=-2 -3
leaf_value=-0.023901030511198261 0.029675012982018561 0.028257649644318497
leaf_weight=1615.9749788045883 1235.7511079907417 17.323851525783539
leaf_count=10084 1585 22
internal_value=-0.000495801 -0.023329
internal_weight=2869.05 1633.3
internal_count=11691 10106
is_linear=0
shrinkage=0.03


Tree=65
num_leaves=4
num_cat=0
split_feature=96 482 817
split_gain=2202.41 76.656 7.40277
threshold=-1.3557974696159361 -1.083193242549896 -0.42058424651622767
decision_type=2 2 2
left_child=1 -1 -2
right_child=2 -3 -4
leaf_value=0.029672046132939608 0.021452421712922908 -0.022907012152867497 -0.023900159841665186
leaf_weight=1310.6041850596666 2.4529024958610526 24.68373104184866 1554.4467694237828
leaf_count=1686 3 155 9847
internal_value=0.000423508 0.0286814 -0.0238131
internal_weight=2892.19 1335.29 1556.9
internal_count=11691 1841 9850
is_linear=0
shrinkage=0.03


Tree=66
num_leaves=3
num_cat=0
split_feature=147 162
split_gain=2092.62 77.779
threshold=1.0000000180025095e-35 -0.24269448220729825
decision_type=2 2
left_child=1 -1
right_child=-2 -3
leaf_value=0.029212929431210996 -0.023737025313292276 -0.022896530996742208
leaf_weight=1265.1061406135559 1523.4794560372829 25.554504960775375
leaf_count=8401 3237 53
internal_value=6.60912e-05 0.0281619
internal_weight=2814.14 1290.66
internal_count=11691 8454
is_linear=0
shrinkage=0.03


Tree=67
num_leaves=3
num_cat=0
split_feature=632 5
split_gain=2098.59 49.0666
threshold=1.2576915025711062 1.7943780422210696
decision_type=2 2
left_child=1 -1
right_child=-2 -3
leaf_value=-0.023735068364525807 0.029212691445404469 0.027495899384656346
leaf_weight=1570.2108220234513 1212.3410948514938 16.162624180316925
leaf_count=10086 1584 21
internal_value=-0.000489313 -0.0231942
internal_weight=2798.71 1586.37
internal_count=11691 10107
is_linear=0
shrinkage=0.03


Tree=68
num_leaves=4
num_cat=0
split_feature=96 2 817
split_gain=2097.16 72.6206 7.12817
threshold=-1.3557974696159361 -0.94924950599670399 -0.42058424651622767
decision_type=2 2 2
left_child=1 -1 -2
right_child=2 -3 -4
leaf_value=0.02916294105396481 0.021002742175650273 -0.022720495971172979 -0.023733925684657292
leaf_weight=1285.8757326453924 2.4215700030326834 23.988023400306702 1509.4675039723516
leaf_count=1686 3 155 9847
internal_value=0.000418343 0.0281939 -0.0236465
internal_weight=2821.75 1309.86 1511.89
internal_count=11691 1841 9850
is_linear=0
shrinkage=0.03


Tree=69
num_leaves=3
num_cat=0
split_feature=163 642
split_gain=1976.77 88.2855
threshold=-0.26103185117244715 0.7852892577648164
decision_type=2 2
left_child=1 -1
right_child=-2 -3
leaf_value=0.028736196710273849 -0.023551827703453616 -0.022785386501341744
leaf_weight=1239.177609950304 1474.4495875835419 29.907368868589401
leaf_count=8396 3230 65
internal_value=6.49352e-05 0.0275027
internal_weight=2743.53 1269.08
internal_count=11691 8461
is_linear=0
shrinkage=0.03


Tree=70
num_leaves=3
num_cat=0
split_feature=632 5
split_gain=1999.08 46.9905
threshold=1.2576915025711062 1.7943780422210696
decision_type=2 2
left_child=1 -1
right_child=-2 -3
leaf_value=-0.023576119727196487 0.028736693114283323 0.02702098714076873
leaf_weight=1524.1135762035847 1188.2507264614105 15.857140958309172
leaf_count=10086 1584 21
internal_value=-0.000483519 -0.023036
internal_weight=2728.22 1539.97
internal_count=11691 10107
is_linear=0
shrinkage=0.03


Tree=71
num_leaves=4
num_cat=0
split_feature=49 877 877
split_gain=1992.99 73.498 3.09955
threshold=0.15173157304525378 0.43206068873405462 0.37115293741226202
decision_type=2 2 2
left_child=1 2 -1
right_child=-2 -3 -4
leaf_value=-0.023576335478164828 0.028722381898862118 0.025786828119466504 -0.0005984208786550244
leaf_weight=1485.0435133352876 1233.6199707388878 26.906126469373703 5.6242018043994895
leaf_count=9996 1649 36 10
internal_value=0.000413638 -0.0226 -0.0234921
internal_weight=2751.19 1517.57 1490.67
internal_count=11691 10042 10006
is_linear=0
shrinkage=0.03


Tree=72
num_leaves=3
num_cat=0
split_feature=157 1
split_gain=1884.19 84.7802
threshold=1.0000000180025095e-35 -0.22227354347705838
decision_type=2 2
left_child=1 -1
right_child=-2 -3
leaf_value=0.028271655983624841 -0.023427796945553064 -0.022608593254399425
leaf_weight=1214.6047081798315 1429.0656191706657 29.437169015407562
leaf_count=8402 3223 66
internal_value=6.34715e-05 0.0270481
internal_weight=2673.11 1244.04
internal_count=11691 8468
is_linear=0
shrinkage=0.03


Tree=73
num_leaves=3
num_cat=0
split_feature=105 11
split_gain=1904.72 41.7052
threshold=0.31717942655086523 1.7526912689208987
decision_type=2 2
left_child=1 -1
right_child=-2 -3
leaf_value=-0.023422792389411876 0.028233194601966587 0.026717641301385871
leaf_weight=1477.6445272564888 1166.0729480907321 14.239564418792723
leaf_count=10076 1596 19
internal_value=-0.000477864 -0.0229246
internal_weight=2657.96 1491.88
internal_count=11691 10095
is_linear=0
shrinkage=0.03


Tree=74
num_leaves=4
num_cat=0
split_feature=49 812 869
split_gain=1898.67 76.1306 0.630123
threshold=0.15173157304525378 0.36835606396198278 0.27693530917167669
decision_type=2 2 2
left_child=1 2 -1
right_child=-2 -3 -4
leaf_value=-0.023424763094417645 0.028276653660667131 0.026129532548455913 -0.0052307952870927132
leaf_weight=1442.4474624693394 1207.9398435950279 27.64215125888586 2.7992808669805518
leaf_count=9972 1649 46 24
internal_value=0.000409382 -0.0224467 -0.0233952
internal_weight=2680.83 1472.89 1445.25
internal_count=11691 10042 9996
is_linear=0
shrinkage=0.03


Tree=75
num_leaves=4
num_cat=0
split_feature=3 642 482
split_gain=1807.79 61.5198 1.2268
threshold=-0.26637089252471918 0.90125283598899852 0.35363005101680761
decision_type=2 2 2
left_child=1 -1 -2
right_child=2 -3 -4
leaf_value=0.027861760300292242 -0.023279066164352442 -0.022285465441858547 -0.01107407327968148
leaf_weight=1173.5590332895517 1399.716132581234 21.670547127723694 11.057180985808371
leaf_count=8302 3257 49 33
internal_value=-0.000200931 0.0269322 -0.0231934
internal_weight=2606 1195.23 1410.77
internal_count=11641 8351 3290
is_linear=0
shrinkage=0.03


Tree=76
num_leaves=3
num_cat=0
split_feature=101 7
split_gain=1829.79 51.4103
threshold=1.0000000180025095e-35 1.9832503199577334
decision_type=2 2
left_child=1 -1
right_child=-2 -3
leaf_value=-0.023279045918452226 0.027874700289740522 0.026445202664412165
leaf_weight=1423.4861808270216 1167.2954937815666 18.118927955627441
leaf_count=9992 1624 25
internal_value=-3.18742e-05 -0.0226341
internal_weight=2608.9 1441.61
internal_count=11641 10017
is_linear=0
shrinkage=0.03


Tree=77
num_leaves=6
num_cat=0
split_feature=576 107 147 18 834
split_gain=1817.9 39.5843 9.21642 15.579 6.298
threshold=-2.0109651088714595 -0.0082140918821096403 1.0000000180025095e-35 -0.44191944599151606 -0.37924943864345545
decision_type=2 2 2 2 2
left_child=1 2 3 -1 -2
right_child=4 -3 -4 -5 -6
leaf_value=-0.020756229228376923 0.019605610282062036 -0.021763080230616821 0.027873222325044463 0.026280635796635057 -0.023279313783004813
leaf_weight=9.1509479060769099 2.3065039515495291 14.104034714400767 1184.5264517664909 15.946172058582304 1390.8881962373853
leaf_count=107 3 42 1652 22 9815
internal_value=0.000233016 0.0269018 0.0274892 0.00887687 -0.0231922
internal_weight=2616.92 1223.73 1209.62 25.0971 1393.19
internal_count=11641 1823 1781 129 9818
is_linear=0
shrinkage=0.03


Tree=78
num_leaves=3
num_cat=0
split_feature=147 162
split_gain=1731.76 58.5148
threshold=1.0000000180025095e-35 -0.24269448220729825
decision_type=2 2
left_child=1 -1
right_child=-2 -3
leaf_value=0.027479229513460015 -0.023141548369050156 -0.022119355949373275
leaf_weight=1149.3382901251316 1365.7453518509865 21.044090777635574
leaf_count=8315 3277 49
internal_value=-0.000199357 0.0265667
internal_weight=2536.13 1170.38
internal_count=11641 8364
is_linear=0
shrinkage=0.03


Tree=79
num_leaves=3
num_cat=0
split_feature=100 485
split_gain=1741.5 52.7509
threshold=1.0000000180025095e-35 2.0184565782547002
decision_type=2 2
left_child=1 -1
right_child=-2 -3
leaf_value=-0.023140448688234422 0.027482501505720673 0.026065795285662878
leaf_weight=1380.1147696301341 1139.817811191082 19.047174036502838
leaf_count=9992 1622 27
internal_value=-3.09226e-05 -0.0224503
internal_weight=2538.98 1399.16
internal_count=11641 10019
is_linear=0
shrinkage=0.03


Tree=80
num_leaves=4
num_cat=0
split_feature=480 482 490
split_gain=1731.33 62.8216 1.50692
threshold=-0.23678517341613767 -1.083193242549896 0.30259275436401373
decision_type=2 2 2
left_child=1 2 -1
right_child=-2 -3 -4
leaf_value=0.027471321878468204 -0.023140518878209032 -0.022099599912235274 0.014548601566110719
leaf_weight=1166.2459728270769 1345.0797304362059 22.816160030663013 12.737107694149016
leaf_count=1666 9806 149 20
internal_value=0.000230519 0.0263879 0.0273467
internal_weight=2546.88 1201.8 1178.98
internal_count=11641 1835 1686
is_linear=0
shrinkage=0.03


Tree=81
num_leaves=3
num_cat=0
split_feature=643 13
split_gain=1638.56 67.3015
threshold=0.68874254822731029 -0.097801841795444475
decision_type=2 2
left_child=1 -1
right_child=-2 -3
leaf_value=0.027087216783424607 -0.022998433308988885 -0.02206945380840903
leaf_weight=1122.8224157094955 1319.0499884337187 24.863892436027527
leaf_count=8314 3266 61
internal_value=-0.00019802 0.0260014
internal_weight=2466.74 1147.69
internal_count=11641 8375
is_linear=0
shrinkage=0.03


Tree=82
num_leaves=5
num_cat=0
split_feature=582 105 843 503
split_gain=1665.94 35.0928 2.26409 0.360168
threshold=0.42054632306098944 1.686129152774811 -0.23763248324394223 1.316861689090729
decision_type=2 2 2 2
left_child=1 3 -2 -1
right_child=2 -3 -4 -5
leaf_value=-0.023007779889182168 0.011702515320787026 0.024982687731841965 0.027114068057176761 -0.006557564618050688
leaf_weight=1332.3826082646847 11.457625627517698 13.035374999046324 1110.0735499858856 2.6674139201641074
leaf_count=9959 20 19 1617 26
internal_value=-2.99812e-05 -0.0224979 0.0269699 -0.0229821
internal_weight=2469.62 1348.09 1121.53 1335.05
internal_count=11641 10004 1637 9985
is_linear=0
shrinkage=0.03


Tree=83
num_leaves=3
num_cat=0
split_feature=769 781
split_gain=1662.52 56.5734
threshold=0.19988378882408145 0.22585929930210116
decision_type=2 2
left_child=1 -1
right_child=-2 -3
leaf_value=-0.023010643618920256 0.027098998460315729 0.025485242110544079
leaf_weight=1328.422997251153 1127.8867670893669 21.166166335344315
leaf_count=9963 1648 30
internal_value=0.000228258 -0.0222295
internal_weight=2477.48 1349.59
internal_count=11641 9993
is_linear=0
shrinkage=0.03


Tree=84
num_leaves=3
num_cat=0
split_feature=643 18
split_gain=1564.06 65.3471
threshold=0.68874254822731029 -0.40223033726215357
decision_type=2 2
left_child=1 -1
right_child=-2 -3
leaf_value=0.02675980209679964 -0.022871223747973457 -0.021952586735205309
leaf_weight=1095.4880711883307 1278.0218027383089 24.58084112405777
leaf_count=8313 3266 62
internal_value=-0.000196973 0.0256695
internal_weight=2398.09 1120.07
internal_count=11641 8375
is_linear=0
shrinkage=0.03


Tree=85
num_leaves=3
num_cat=0
split_feature=632 633
split_gain=1585.18 48.8282
threshold=1.2576915025711062 1.7637871503829958
decision_type=2 2
left_child=1 -1
right_child=-2 -3
leaf_value=-0.022881291784430189 0.026763135422629886 0.025396706924596776
leaf_weight=1296.0278174653649 1086.7288456559181 18.291212439537048
leaf_count=9992 1622 27
internal_value=-2.9435e-05 -0.0221883
internal_weight=2401.05 1314.32
internal_count=11641 10019
is_linear=0
shrinkage=0.03


Tree=86
num_leaves=4
num_cat=0
split_feature=480 2 587
split_gain=1576.8 55.6947 1.93026
threshold=-0.23678517341613767 -0.94924950599670399 -0.080722700804471956
decision_type=2 2 2
left_child=1 2 -1
right_child=-2 -3 -4
leaf_value=0.026753198680393189 -0.022880954503764907 -0.021766117012651593 0.012818330117842317
leaf_weight=1112.0549789369106 1263.0394577085972 21.057440988719463 12.575333297252653
leaf_count=1666 9806 148 21
internal_value=0.00022669 0.0257016 0.0266116
internal_weight=2408.73 1145.69 1124.63
internal_count=11641 1835 1687
is_linear=0
shrinkage=0.03


Tree=87
num_leaves=4
num_cat=0
split_feature=3 481 0
split_gain=1499.47 49.1294 1.23039
threshold=-0.26637089252471918 0.1458627060055733 -0.2979190051555633
decision_type=2 2 2
left_child=1 -1 -2
right_child=2 -3 -4
leaf_value=0.026402612353940199 -0.022759736417679741 -0.021602403322087564 -0.0098242985986759703
leaf_weight=1067.1302953213453 1234.693052649498 18.762757301330566 9.5891973525285703
leaf_count=8303 3258 48 32
internal_value=-0.000195855 0.0255513 -0.0226704
internal_weight=2330.18 1085.89 1244.28
internal_count=11641 8351 3290
is_linear=0
shrinkage=0.03


Tree=88
num_leaves=3
num_cat=0
split_feature=101 102
split_gain=1516.81 43.2398
threshold=1.0000000180025095e-35 0.50338451564311992
decision_type=2 2
left_child=1 -1
right_child=-2 -3
leaf_value=-0.022760009953220747 0.026435161970105384 0.024921370679091979
leaf_weight=1255.2672536745667 1061.3615964651108 16.514568686485291
leaf_count=9992 1624 25
internal_value=-2.84761e-05 -0.0221194
internal_weight=2333.14 1271.78
internal_count=11641 10017
is_linear=0
shrinkage=0.03


Tree=89
num_leaves=5
num_cat=0
split_feature=769 908 908 903
split_gain=1514.47 46.372 0.910494 1.97465
threshold=0.19988378882408145 0.64578196406364452 0.50968164205551159 0.47644791007041937
decision_type=2 2 2 2
left_child=1 2 -1 -4
right_child=-2 -3 3 -5
leaf_value=-0.022762201560265521 0.026423619173956921 0.023363260760019926 -0.018315655372187739 0.012615499859505816
leaf_weight=1241.3360198661685 1073.8332082629204 19.155949115753174 4.628919690847396 1.8177088946104047
leaf_count=9889 1648 38 60 6
internal_value=0.000224633 -0.0219821 -0.0226988 -0.00866843
internal_weight=2340.77 1266.94 1247.78 6.44663
